<?xml version="1.0"?>
<MethodSetup Method="BDT::BDTG">
  <GeneralInfo>
    <Info name="TMVA Release" value="4.2.0 [262656]"/>
    <Info name="ROOT Release" value="5.34/32 [336416]"/>
    <Info name="Creator" value="nchernya"/>
    <Info name="Date" value="Fri Sep 11 23:57:52 2015"/>
    <Info name="Host" value="Linux buildvm-12.phx2.fedoraproject.org 4.0.4-202.fc21.x86_64 #1 SMP Wed May 27 22:28:42 UTC 2015 x86_64 x86_64 x86_64 GNU/Linux"/>
    <Info name="Dir" value="/afs/cern.ch/work/n/nchernya/tmva/TMVA-v4.2.0/test/main_tmva"/>
    <Info name="Training events" value="14080"/>
    <Info name="TrainingTime" value="2.01182890e+00"/>
    <Info name="AnalysisType" value="Classification"/>
  </GeneralInfo>
  <Options>
    <Option name="V" modified="Yes">False</Option>
    <Option name="VerbosityLevel" modified="No">Default</Option>
    <Option name="VarTransform" modified="No">None</Option>
    <Option name="H" modified="Yes">False</Option>
    <Option name="CreateMVAPdfs" modified="No">False</Option>
    <Option name="IgnoreNegWeightsInTraining" modified="No">False</Option>
    <Option name="NTrees" modified="Yes">140</Option>
    <Option name="MaxDepth" modified="Yes">3</Option>
    <Option name="MinNodeSize" modified="Yes">5%</Option>
    <Option name="nCuts" modified="Yes">20</Option>
    <Option name="BoostType" modified="Yes">Grad</Option>
    <Option name="AdaBoostR2Loss" modified="No">quadratic</Option>
    <Option name="UseBaggedBoost" modified="Yes">True</Option>
    <Option name="Shrinkage" modified="Yes">1.000000e-01</Option>
    <Option name="AdaBoostBeta" modified="No">5.000000e-01</Option>
    <Option name="UseRandomisedTrees" modified="No">False</Option>
    <Option name="UseNvars" modified="No">3</Option>
    <Option name="UsePoissonNvars" modified="No">True</Option>
    <Option name="BaggedSampleFraction" modified="Yes">5.000000e-01</Option>
    <Option name="UseYesNoLeaf" modified="No">True</Option>
    <Option name="NegWeightTreatment" modified="Yes">ignorenegweightsintraining</Option>
    <Option name="Css" modified="No">1.000000e+00</Option>
    <Option name="Cts_sb" modified="No">1.000000e+00</Option>
    <Option name="Ctb_ss" modified="No">1.000000e+00</Option>
    <Option name="Cbb" modified="No">1.000000e+00</Option>
    <Option name="NodePurityLimit" modified="No">5.000000e-01</Option>
    <Option name="SeparationType" modified="No">giniindex</Option>
    <Option name="DoBoostMonitor" modified="No">False</Option>
    <Option name="UseFisherCuts" modified="No">False</Option>
    <Option name="MinLinCorrForFisher" modified="No">8.000000e-01</Option>
    <Option name="UseExclusiveVars" modified="No">False</Option>
    <Option name="DoPreselection" modified="No">False</Option>
    <Option name="SigToBkgFraction" modified="No">1.000000e+00</Option>
    <Option name="PruneMethod" modified="No">nopruning</Option>
    <Option name="PruneStrength" modified="No">0.000000e+00</Option>
    <Option name="PruningValFraction" modified="No">5.000000e-01</Option>
    <Option name="nEventsMin" modified="No">0</Option>
    <Option name="UseBaggedGrad" modified="No">False</Option>
    <Option name="GradBaggingFraction" modified="No">5.000000e-01</Option>
    <Option name="UseNTrainEvents" modified="No">0</Option>
    <Option name="NNodesMax" modified="No">0</Option>
  </Options>
  <Variables NVar="8">
    <Variable VarIndex="0" Expression="CSV1" Label="CSV1" Title="CSV_{1}" Unit="" Internal="CSV1" Type="F" Min="4.12506551e-01" Max="1.00000000e+00"/>
    <Variable VarIndex="1" Expression="CSV2" Label="CSV2" Title="CSV_{2}" Unit="" Internal="CSV2" Type="F" Min="4.00303841e-01" Max="1.00000000e+00"/>
    <Variable VarIndex="2" Expression="Mqq" Label="Mqq" Title="M_{qq}" Unit="" Internal="Mqq" Type="F" Min="2.00122253e+02" Max="9.38081445e+03"/>
    <Variable VarIndex="3" Expression="DeltaQQ" Label="DeltaQQ" Title="#Delta#Eta_{qq}" Unit="" Internal="DeltaQQ" Type="F" Min="1.20060396e+00" Max="7.94074774e+00"/>
    <Variable VarIndex="4" Expression="SoftN5" Label="SoftN5" Title="Soft multiplicity with p_{T} &gt; 5 GeV" Unit="" Internal="SoftN5" Type="I" Min="0.00000000e+00" Max="1.30000000e+01"/>
    <Variable VarIndex="5" Expression="HTsoft" Label="HTsoft" Title="H_{T}^{soft}" Unit="GeV" Internal="HTsoft" Type="F" Min="0.00000000e+00" Max="2.94637054e+02"/>
    <Variable VarIndex="6" Expression="DeltaEtaQB1" Label="DeltaEtaQB1" Title="#Delta#Eta_{qb}^{forward}" Unit="" Internal="DeltaEtaQB1" Type="F" Min="-4.38695049e+00" Max="5.96097231e+00"/>
    <Variable VarIndex="7" Expression="DeltaEtaQB2" Label="DeltaEtaQB2" Title="#Delta#Eta_{qb}^{backward}" Unit="" Internal="DeltaEtaQB2" Type="F" Min="-5.82875061e+00" Max="4.36969137e+00"/>
  </Variables>
  <Spectators NSpec="0"/>
  <Classes NClass="2">
    <Class Name="Signal" Index="0"/>
    <Class Name="Background" Index="1"/>
  </Classes>
  <Transformations NTransformations="0"/>
  <MVAPdfs/>
  <Weights NTrees="140" AnalysisType="1">
    <BinaryTree type="DecisionTree" boostWeight="1.0000000000000000e+00" itree="0">
      <Node pos="s" depth="0" NCoef="0" IVar="2" Cut="5.8989105224609375e+02" cType="1" res="1.1126421391963959e-02" rms="4.9987620115280151e-01" purity="5.1112639904022217e-01" nType="0">
        <Node pos="l" depth="1" NCoef="0" IVar="1" Cut="8.5751426219940186e-01" cType="1" res="-1.9468356668949127e-01" rms="4.6054133772850037e-01" purity="3.0531644821166992e-01" nType="0">
          <Node pos="l" depth="2" NCoef="0" IVar="0" Cut="9.4404822587966919e-01" cType="1" res="-3.3142623305320740e-01" rms="3.7437501549720764e-01" purity="1.6857376694679260e-01" nType="0">
            <Node pos="l" depth="3" NCoef="0" IVar="-1" Cut="0.0000000000000000e+00" cType="1" res="-1.8289912492036819e-02" rms="2.7928292751312256e-01" purity="8.5269913077354431e-02" nType="-99"/>
            <Node pos="r" depth="3" NCoef="0" IVar="-1" Cut="0.0000000000000000e+00" cType="1" res="-1.2017544358968735e-02" rms="4.4792255759239197e-01" purity="2.7781677246093750e-01" nType="-99"/>
          </Node>
          <Node pos="r" depth="2" NCoef="0" IVar="2" Cut="3.8550738525390625e+02" cType="1" res="-1.6767881810665131e-02" rms="4.9971875548362732e-01" purity="4.8323214054107666e-01" nType="0">
            <Node pos="l" depth="3" NCoef="0" IVar="-1" Cut="0.0000000000000000e+00" cType="1" res="-8.1024076789617538e-03" rms="4.8162090778350830e-01" purity="3.6568212509155273e-01" nType="-99"/>
            <Node pos="r" depth="3" NCoef="0" IVar="-1" Cut="0.0000000000000000e+00" cType="1" res="1.1197031475603580e-02" rms="4.8464208841323853e-01" purity="6.2297171354293823e-01" nType="-99"/>
          </Node>
        </Node>
        <Node pos="r" depth="1" NCoef="0" IVar="0" Cut="9.2513900995254517e-01" cType="1" res="1.9351421296596527e-01" rms="4.6103388071060181e-01" purity="6.9351422786712646e-01" nType="0">
          <Node pos="l" depth="2" NCoef="0" IVar="-1" Cut="0.0000000000000000e+00" cType="1" res="-9.7225774079561234e-03" rms="4.7079619765281677e-01" purity="3.3162266016006470e-01" nType="-99"/>
          <Node pos="r" depth="2" NCoef="0" IVar="5" Cut="4.2091007232666016e+01" cType="1" res="2.6801320910453796e-01" rms="4.2210060358047485e-01" purity="7.6801323890686035e-01" nType="0">
            <Node pos="l" depth="3" NCoef="0" IVar="-1" Cut="0.0000000000000000e+00" cType="1" res="5.5658277124166489e-02" rms="3.6296278238296509e-01" purity="8.4388667345046997e-01" nType="-99"/>
            <Node pos="r" depth="3" NCoef="0" IVar="-1" Cut="0.0000000000000000e+00" cType="1" res="1.4036367647349834e-02" rms="4.7794497013092041e-01" purity="6.4686250686645508e-01" nType="-99"/>
          </Node>
        </Node>
      </Node>
    </BinaryTree>
    <BinaryTree type="DecisionTree" boostWeight="1.0000000000000000e+00" itree="1">
      <Node pos="s" depth="0" NCoef="0" IVar="2" Cut="6.2091119384765625e+02" cType="1" res="5.6837182492017746e-03" rms="4.9254697561264038e-01" purity="5.1193624734878540e-01" nType="0">
        <Node pos="l" depth="1" NCoef="0" IVar="0" Cut="9.4587081670761108e-01" cType="1" res="-1.9554141163825989e-01" rms="4.5622169971466064e-01" purity="3.0092173814773560e-01" nType="0">
          <Node pos="l" depth="2" NCoef="0" IVar="-1" Cut="0.0000000000000000e+00" cType="1" res="-1.7933066934347153e-02" rms="2.7879831194877625e-01" purity="8.5379302501678467e-02" nType="-99"/>
          <Node pos="r" depth="2" NCoef="0" IVar="4" Cut="2.0000000000000000e+00" cType="1" res="-3.2166887074708939e-02" rms="2.1086347103118896e-01" purity="4.3556669354438782e-01" nType="0">
            <Node pos="l" depth="3" NCoef="0" IVar="-1" Cut="0.0000000000000000e+00" cType="1" res="6.5658395178616047e-03" rms="4.9191239476203918e-01" purity="5.7836735248565674e-01" nType="-99"/>
            <Node pos="r" depth="3" NCoef="0" IVar="-1" Cut="0.0000000000000000e+00" cType="1" res="-9.9757015705108643e-03" rms="4.6738693118095398e-01" purity="3.2467007637023926e-01" nType="-99"/>
          </Node>
        </Node>
        <Node pos="r" depth="1" NCoef="0" IVar="0" Cut="9.2053341865539551e-01" cType="1" res="2.0033676922321320e-01" rms="4.4596219062805176e-01" purity="7.1605890989303589e-01" nType="0">
          <Node pos="l" depth="2" NCoef="0" IVar="-1" Cut="0.0000000000000000e+00" cType="1" res="-1.0119249112904072e-02" rms="4.6515139937400818e-01" purity="3.1660383939743042e-01" nType="-99"/>
          <Node pos="r" depth="2" NCoef="0" IVar="1" Cut="7.4427205324172974e-01" cType="1" res="2.7827268838882446e-01" rms="3.9960491657257080e-01" purity="7.9822891950607300e-01" nType="0">
            <Node pos="l" depth="3" NCoef="0" IVar="-1" Cut="0.0000000000000000e+00" cType="1" res="4.2351353913545609e-03" rms="4.9224489927291870e-01" purity="5.6970280408859253e-01" nType="-99"/>
            <Node pos="r" depth="3" NCoef="0" IVar="-1" Cut="0.0000000000000000e+00" cType="1" res="5.1899053156375885e-02" rms="3.6325994133949280e-01" purity="8.4222114086151123e-01" nType="-99"/>
          </Node>
        </Node>
      </Node>
    </BinaryTree>
    <BinaryTree type="DecisionTree" boostWeight="1.0000000000000000e+00" itree="2">
      <Node pos="s" depth="0" NCoef="0" IVar="0" Cut="9.1607236862182617e-01" cType="1" res="-5.1202406175434589e-03" rms="4.8624163866043091e-01" purity="5.0786828994750977e-01" nType="0">
        <Node pos="l" depth="1" NCoef="0" IVar="1" Cut="6.9140499830245972e-01" cType="1" res="-3.3563423156738281e-01" rms="3.5519808530807495e-01" purity="1.4939178526401520e-01" nType="0">
          <Node pos="l" depth="2" NCoef="0" IVar="-1" Cut="0.0000000000000000e+00" cType="1" res="-1.7490062862634659e-02" rms="2.8506395220756531e-01" purity="8.9839316904544830e-02" nType="-99"/>
          <Node pos="r" depth="2" NCoef="0" IVar="-1" Cut="0.0000000000000000e+00" cType="1" res="-1.2661293148994446e-02" rms="4.2731988430023193e-01" purity="2.4266764521598816e-01" nType="-99"/>
        </Node>
        <Node pos="r" depth="1" NCoef="0" IVar="2" Cut="6.0456469726562500e+02" cType="1" res="9.9982663989067078e-02" rms="4.7508999705314636e-01" purity="6.2186318635940552e-01" nType="0">
          <Node pos="l" depth="2" NCoef="0" IVar="4" Cut="2.0000000000000000e+00" cType="1" res="-5.4262287914752960e-02" rms="2.3866933584213257e-01" purity="4.2194613814353943e-01" nType="0">
            <Node pos="l" depth="3" NCoef="0" IVar="-1" Cut="0.0000000000000000e+00" cType="1" res="3.6198047455400229e-03" rms="4.9671727418899536e-01" purity="5.4776519536972046e-01" nType="-99"/>
            <Node pos="r" depth="3" NCoef="0" IVar="-1" Cut="0.0000000000000000e+00" cType="1" res="-1.0055910795927048e-02" rms="4.6265795826911926e-01" purity="3.1430402398109436e-01" nType="-99"/>
          </Node>
          <Node pos="r" depth="2" NCoef="0" IVar="4" Cut="2.0000000000000000e+00" cType="1" res="1.8471183255314827e-02" rms="1.6905526816844940e-01" purity="7.8258138895034790e-01" nType="0">
            <Node pos="l" depth="3" NCoef="0" IVar="-1" Cut="0.0000000000000000e+00" cType="1" res="4.4946901500225067e-02" rms="3.7229311466217041e-01" purity="8.3300048112869263e-01" nType="-99"/>
            <Node pos="r" depth="3" NCoef="0" IVar="-1" Cut="0.0000000000000000e+00" cType="1" res="1.6695173457264900e-02" rms="4.6159544587135315e-01" purity="6.9057905673980713e-01" nType="-99"/>
          </Node>
        </Node>
      </Node>
    </BinaryTree>
    <BinaryTree type="DecisionTree" boostWeight="1.0000000000000000e+00" itree="3">
      <Node pos="s" depth="0" NCoef="0" IVar="2" Cut="6.1319061279296875e+02" cType="1" res="-2.5506474077701569e-02" rms="4.7972038388252258e-01" purity="4.9119454622268677e-01" nType="0">
        <Node pos="l" depth="1" NCoef="0" IVar="0" Cut="9.4687533378601074e-01" cType="1" res="-2.0211224257946014e-01" rms="4.4569271802902222e-01" purity="2.8593298792839050e-01" nType="0">
          <Node pos="l" depth="2" NCoef="0" IVar="-1" Cut="0.0000000000000000e+00" cType="1" res="-1.7431031912565231e-02" rms="2.7031931281089783e-01" purity="8.0179430544376373e-02" nType="-99"/>
          <Node pos="r" depth="2" NCoef="0" IVar="2" Cut="3.9682785034179688e+02" cType="1" res="-6.8687096238136292e-02" rms="4.9116608500480652e-01" purity="4.2735022306442261e-01" nType="0">
            <Node pos="l" depth="3" NCoef="0" IVar="-1" Cut="0.0000000000000000e+00" cType="1" res="-1.0240119881927967e-02" rms="4.6107128262519836e-01" purity="3.1012856960296631e-01" nType="-99"/>
            <Node pos="r" depth="3" NCoef="0" IVar="-1" Cut="0.0000000000000000e+00" cType="1" res="8.9548416435718536e-03" rms="4.8571383953094482e-01" purity="6.0390192270278931e-01" nType="-99"/>
          </Node>
        </Node>
        <Node pos="r" depth="1" NCoef="0" IVar="0" Cut="9.2484575510025024e-01" cType="1" res="1.6084349155426025e-01" rms="4.4240477681159973e-01" purity="7.0778143405914307e-01" nType="0">
          <Node pos="l" depth="2" NCoef="0" IVar="-1" Cut="0.0000000000000000e+00" cType="1" res="-7.6051964424550533e-03" rms="4.7634395956993103e-01" purity="3.5754776000976562e-01" nType="-99"/>
          <Node pos="r" depth="2" NCoef="0" IVar="2" Cut="1.0060255737304688e+03" cType="1" res="2.1685224771499634e-01" rms="4.1277951002120972e-01" purity="7.7586930990219116e-01" nType="0">
            <Node pos="l" depth="3" NCoef="0" IVar="-1" Cut="0.0000000000000000e+00" cType="1" res="1.1258150450885296e-02" rms="4.6708041429519653e-01" purity="6.6821408271789551e-01" nType="-99"/>
            <Node pos="r" depth="3" NCoef="0" IVar="-1" Cut="0.0000000000000000e+00" cType="1" res="5.0778690725564957e-02" rms="3.4643322229385376e-01" purity="8.5642462968826294e-01" nType="-99"/>
          </Node>
        </Node>
      </Node>
    </BinaryTree>
    <BinaryTree type="DecisionTree" boostWeight="1.0000000000000000e+00" itree="4">
      <Node pos="s" depth="0" NCoef="0" IVar="2" Cut="6.1271569824218750e+02" cType="1" res="-2.9578046873211861e-02" rms="4.7681450843811035e-01" purity="4.9400627613067627e-01" nType="0">
        <Node pos="l" depth="1" NCoef="0" IVar="0" Cut="9.4404822587966919e-01" cType="1" res="-1.8821015954017639e-01" rms="4.4895023107528687e-01" purity="2.9604387283325195e-01" nType="0">
          <Node pos="l" depth="2" NCoef="0" IVar="-1" Cut="0.0000000000000000e+00" cType="1" res="-1.6632165759801865e-02" rms="2.9308974742889404e-01" purity="9.5695532858371735e-02" nType="-99"/>
          <Node pos="r" depth="2" NCoef="0" IVar="2" Cut="4.1621054077148438e+02" cType="1" res="-7.5924694538116455e-02" rms="4.8899173736572266e-01" purity="4.1863730549812317e-01" nType="0">
            <Node pos="l" depth="3" NCoef="0" IVar="-1" Cut="0.0000000000000000e+00" cType="1" res="-9.4063682481646538e-03" rms="4.6565377712249756e-01" purity="3.2331466674804688e-01" nType="-99"/>
            <Node pos="r" depth="3" NCoef="0" IVar="-1" Cut="0.0000000000000000e+00" cType="1" res="4.9864961765706539e-03" rms="4.9267435073852539e-01" purity="5.6602567434310913e-01" nType="-99"/>
          </Node>
        </Node>
        <Node pos="r" depth="1" NCoef="0" IVar="1" Cut="7.7178150415420532e-01" cType="1" res="1.2279894202947617e-01" rms="4.5248207449913025e-01" purity="6.8416267633438110e-01" nType="0">
          <Node pos="l" depth="2" NCoef="0" IVar="5" Cut="3.3380130767822266e+01" cType="1" res="-6.9990582764148712e-02" rms="4.8569658398628235e-01" purity="4.5685046911239624e-01" nType="0">
            <Node pos="l" depth="3" NCoef="0" IVar="-1" Cut="0.0000000000000000e+00" cType="1" res="6.6725956276059151e-03" rms="4.7489410638809204e-01" purity="6.1588889360427856e-01" nType="-99"/>
            <Node pos="r" depth="3" NCoef="0" IVar="-1" Cut="0.0000000000000000e+00" cType="1" res="-1.0409530252218246e-02" rms="4.6535146236419678e-01" purity="3.3699250221252441e-01" nType="-99"/>
          </Node>
          <Node pos="r" depth="2" NCoef="0" IVar="7" Cut="-5.3050494194030762e-01" cType="1" res="1.9098982214927673e-01" rms="4.1943016648292542e-01" purity="7.6456445455551147e-01" nType="0">
            <Node pos="l" depth="3" NCoef="0" IVar="-1" Cut="0.0000000000000000e+00" cType="1" res="3.1945265829563141e-02" rms="3.9697894454002380e-01" purity="7.9856753349304199e-01" nType="-99"/>
            <Node pos="r" depth="3" NCoef="0" IVar="-1" Cut="0.0000000000000000e+00" cType="1" res="3.9204864879138768e-04" rms="4.8960983753204346e-01" purity="5.7052522897720337e-01" nType="-99"/>
          </Node>
        </Node>
      </Node>
    </BinaryTree>
    <BinaryTree type="DecisionTree" boostWeight="1.0000000000000000e+00" itree="5">
      <Node pos="s" depth="0" NCoef="0" IVar="0" Cut="9.7202414274215698e-01" cType="1" res="-3.7756077945232391e-02" rms="4.7057476639747620e-01" purity="4.8591271042823792e-01" nType="0">
        <Node pos="l" depth="1" NCoef="0" IVar="2" Cut="1.2964943847656250e+03" cType="1" res="-2.2868919372558594e-01" rms="4.2072111368179321e-01" purity="2.6400133967399597e-01" nType="0">
          <Node pos="l" depth="2" NCoef="0" IVar="1" Cut="8.0779868364334106e-01" cType="1" res="-2.8371202945709229e-01" rms="3.8566419482231140e-01" purity="2.0061248540878296e-01" nType="0">
            <Node pos="l" depth="3" NCoef="0" IVar="-1" Cut="0.0000000000000000e+00" cType="1" res="-1.6120927408337593e-02" rms="3.1756302714347839e-01" purity="1.1980323493480682e-01" nType="-99"/>
            <Node pos="r" depth="3" NCoef="0" IVar="-1" Cut="0.0000000000000000e+00" cType="1" res="-8.1825833767652512e-03" rms="4.7239282727241516e-01" purity="3.8257136940956116e-01" nType="-99"/>
          </Node>
          <Node pos="r" depth="2" NCoef="0" IVar="-1" Cut="0.0000000000000000e+00" cType="1" res="8.7525276467204094e-03" rms="4.7029095888137817e-01" purity="6.3412898778915405e-01" nType="-99"/>
        </Node>
        <Node pos="r" depth="1" NCoef="0" IVar="3" Cut="3.0254135131835938e+00" cType="1" res="1.0083302110433578e-01" rms="4.5609775185585022e-01" purity="6.4698743820190430e-01" nType="0">
          <Node pos="l" depth="2" NCoef="0" IVar="2" Cut="3.9662908935546875e+02" cType="1" res="-7.7779486775398254e-02" rms="4.8681905865669250e-01" purity="4.2160990834236145e-01" nType="0">
            <Node pos="l" depth="3" NCoef="0" IVar="-1" Cut="0.0000000000000000e+00" cType="1" res="-9.0167066082358360e-03" rms="4.6723926067352295e-01" purity="3.2547077536582947e-01" nType="-99"/>
            <Node pos="r" depth="3" NCoef="0" IVar="-1" Cut="0.0000000000000000e+00" cType="1" res="3.9738104678690434e-03" rms="4.9076294898986816e-01" purity="5.7355910539627075e-01" nType="-99"/>
          </Node>
          <Node pos="r" depth="2" NCoef="0" IVar="7" Cut="-5.6760042905807495e-01" cType="1" res="2.1241709589958191e-01" rms="3.9692190289497375e-01" purity="7.8778678178787231e-01" nType="0">
            <Node pos="l" depth="3" NCoef="0" IVar="-1" Cut="0.0000000000000000e+00" cType="1" res="3.8729961961507797e-02" rms="3.6791539192199707e-01" purity="8.2747244834899902e-01" nType="-99"/>
            <Node pos="r" depth="3" NCoef="0" IVar="-1" Cut="0.0000000000000000e+00" cType="1" res="2.4109019432216883e-03" rms="4.8561337590217590e-01" purity="5.7601261138916016e-01" nType="-99"/>
          </Node>
        </Node>
      </Node>
    </BinaryTree>
    <BinaryTree type="DecisionTree" boostWeight="1.0000000000000000e+00" itree="6">
      <Node pos="s" depth="0" NCoef="0" IVar="0" Cut="9.2259067296981812e-01" cType="1" res="-2.4967461824417114e-02" rms="4.6566683053970337e-01" purity="5.0268822908401489e-01" nType="0">
        <Node pos="l" depth="1" NCoef="0" IVar="3" Cut="3.6395473480224609e+00" cType="1" res="-3.0031314492225647e-01" rms="3.5996764898300171e-01" purity="1.6123376786708832e-01" nType="0">
          <Node pos="l" depth="2" NCoef="0" IVar="-1" Cut="0.0000000000000000e+00" cType="1" res="-1.6164222732186317e-02" rms="2.8705018758773804e-01" purity="9.3094788491725922e-02" nType="-99"/>
          <Node pos="r" depth="2" NCoef="0" IVar="-1" Cut="0.0000000000000000e+00" cType="1" res="-9.3706017360091209e-03" rms="4.5744910836219788e-01" purity="3.1438052654266357e-01" nType="-99"/>
        </Node>
        <Node pos="r" depth="1" NCoef="0" IVar="2" Cut="6.2089318847656250e+02" cType="1" res="6.8287521600723267e-02" rms="4.6046528220176697e-01" purity="6.1833316087722778e-01" nType="0">
          <Node pos="l" depth="2" NCoef="0" IVar="7" Cut="5.9680938720703125e-02" cType="1" res="-7.8899912536144257e-02" rms="4.8547992110252380e-01" purity="4.1370457410812378e-01" nType="0">
            <Node pos="l" depth="3" NCoef="0" IVar="-1" Cut="0.0000000000000000e+00" cType="1" res="-5.3965771803632379e-04" rms="4.9223628640174866e-01" purity="4.8814341425895691e-01" nType="-99"/>
            <Node pos="r" depth="3" NCoef="0" IVar="-1" Cut="0.0000000000000000e+00" cType="1" res="-1.2157632037997246e-02" rms="4.3369603157043457e-01" purity="2.5619181990623474e-01" nType="-99"/>
          </Node>
          <Node pos="r" depth="2" NCoef="0" IVar="4" Cut="4.0000000000000000e+00" cType="1" res="2.2958023473620415e-02" rms="2.1283708512783051e-01" purity="7.9366981983184814e-01" nType="0">
            <Node pos="l" depth="3" NCoef="0" IVar="-1" Cut="0.0000000000000000e+00" cType="1" res="3.7254668772220612e-02" rms="3.6906597018241882e-01" purity="8.3306831121444702e-01" nType="-99"/>
            <Node pos="r" depth="3" NCoef="0" IVar="-1" Cut="0.0000000000000000e+00" cType="1" res="-2.9776662122458220e-03" rms="4.8672911524772644e-01" purity="5.2863204479217529e-01" nType="-99"/>
          </Node>
        </Node>
      </Node>
    </BinaryTree>
    <BinaryTree type="DecisionTree" boostWeight="1.0000000000000000e+00" itree="7">
      <Node pos="s" depth="0" NCoef="0" IVar="0" Cut="9.2259067296981812e-01" cType="1" res="-3.6532025784254074e-02" rms="4.6350723505020142e-01" purity="4.9601951241493225e-01" nType="0">
        <Node pos="l" depth="1" NCoef="0" IVar="3" Cut="3.1356821060180664e+00" cType="1" res="-2.8551554679870605e-01" rms="3.6583665013313293e-01" purity="1.6688185930252075e-01" nType="0">
          <Node pos="l" depth="2" NCoef="0" IVar="-1" Cut="0.0000000000000000e+00" cType="1" res="-1.5937581658363342e-02" rms="2.7970919013023376e-01" purity="8.6787611246109009e-02" nType="-99"/>
          <Node pos="r" depth="2" NCoef="0" IVar="-1" Cut="0.0000000000000000e+00" cType="1" res="-9.4663733616471291e-03" rms="4.5116636157035828e-01" purity="2.9837599396705627e-01" nType="-99"/>
        </Node>
        <Node pos="r" depth="1" NCoef="0" IVar="7" Cut="3.7812504451721907e-03" cType="1" res="4.6016767621040344e-02" rms="4.6295484900474548e-01" purity="6.0514283180236816e-01" nType="0">
          <Node pos="l" depth="2" NCoef="0" IVar="4" Cut="3.0000000000000000e+00" cType="1" res="3.6885531153529882e-03" rms="1.7379516363143921e-01" purity="6.8174213171005249e-01" nType="0">
            <Node pos="l" depth="3" NCoef="0" IVar="-1" Cut="0.0000000000000000e+00" cType="1" res="2.3347551003098488e-02" rms="4.1001316905021667e-01" purity="7.6492542028427124e-01" nType="-99"/>
            <Node pos="r" depth="3" NCoef="0" IVar="-1" Cut="0.0000000000000000e+00" cType="1" res="-5.1823230460286140e-03" rms="4.8144409060478210e-01" purity="4.6095943450927734e-01" nType="-99"/>
          </Node>
          <Node pos="r" depth="2" NCoef="0" IVar="5" Cut="3.4775272369384766e+01" cType="1" res="-2.0262293517589569e-01" rms="4.4797059893608093e-01" purity="3.0254101753234863e-01" nType="0">
            <Node pos="l" depth="3" NCoef="0" IVar="-1" Cut="0.0000000000000000e+00" cType="1" res="-7.5523150153458118e-03" rms="4.7503504157066345e-01" purity="3.9601966738700867e-01" nType="-99"/>
            <Node pos="r" depth="3" NCoef="0" IVar="-1" Cut="0.0000000000000000e+00" cType="1" res="-1.3553421013057232e-02" rms="4.1846913099288940e-01" purity="2.3751480877399445e-01" nType="-99"/>
          </Node>
        </Node>
      </Node>
    </BinaryTree>
    <BinaryTree type="DecisionTree" boostWeight="1.0000000000000000e+00" itree="8">
      <Node pos="s" depth="0" NCoef="0" IVar="0" Cut="9.1607236862182617e-01" cType="1" res="-3.3096626400947571e-02" rms="4.5644947886466980e-01" purity="4.9868458509445190e-01" nType="0">
        <Node pos="l" depth="1" NCoef="0" IVar="2" Cut="6.4761383056640625e+02" cType="1" res="-3.0323657393455505e-01" rms="3.4225249290466309e-01" purity="1.4213025569915771e-01" nType="0">
          <Node pos="l" depth="2" NCoef="0" IVar="-1" Cut="0.0000000000000000e+00" cType="1" res="-1.6174074262380600e-02" rms="2.5412324070930481e-01" purity="7.0180274546146393e-02" nType="-99"/>
          <Node pos="r" depth="2" NCoef="0" IVar="-1" Cut="0.0000000000000000e+00" cType="1" res="-9.4148851931095123e-03" rms="4.5085918903350830e-01" purity="2.9609480500221252e-01" nType="-99"/>
        </Node>
        <Node pos="r" depth="1" NCoef="0" IVar="3" Cut="3.0433475971221924e+00" cType="1" res="4.8789709806442261e-02" rms="4.5515698194503784e-01" purity="6.0676532983779907e-01" nType="0">
          <Node pos="l" depth="2" NCoef="0" IVar="2" Cut="4.3804898071289062e+02" cType="1" res="-1.1399836093187332e-01" rms="4.7171774506568909e-01" purity="3.7750089168548584e-01" nType="0">
            <Node pos="l" depth="3" NCoef="0" IVar="-1" Cut="0.0000000000000000e+00" cType="1" res="-1.0088127106428146e-02" rms="4.5057907700538635e-01" purity="2.9383841156959534e-01" nType="-99"/>
            <Node pos="r" depth="3" NCoef="0" IVar="-1" Cut="0.0000000000000000e+00" cType="1" res="5.0181904807686806e-03" rms="4.7992581129074097e-01" purity="5.8867275714874268e-01" nType="-99"/>
          </Node>
          <Node pos="r" depth="2" NCoef="0" IVar="2" Cut="1.0791262207031250e+03" cType="1" res="1.6628159582614899e-01" rms="4.0392896533012390e-01" purity="7.7223634719848633e-01" nType="0">
            <Node pos="l" depth="3" NCoef="0" IVar="-1" Cut="0.0000000000000000e+00" cType="1" res="8.9225219562649727e-03" rms="4.6032375097274780e-01" purity="6.6732084751129150e-01" nType="-99"/>
            <Node pos="r" depth="3" NCoef="0" IVar="-1" Cut="0.0000000000000000e+00" cType="1" res="5.1305465400218964e-02" rms="3.0977588891983032e-01" purity="8.8612729310989380e-01" nType="-99"/>
          </Node>
        </Node>
      </Node>
    </BinaryTree>
    <BinaryTree type="DecisionTree" boostWeight="1.0000000000000000e+00" itree="9">
      <Node pos="s" depth="0" NCoef="0" IVar="0" Cut="9.4404822587966919e-01" cType="1" res="-2.8467198833823204e-02" rms="4.5275825262069702e-01" purity="5.0903135538101196e-01" nType="0">
        <Node pos="l" depth="1" NCoef="0" IVar="2" Cut="7.8444500732421875e+02" cType="1" res="-2.4730823934078217e-01" rms="3.8833117485046387e-01" purity="2.1012237668037415e-01" nType="0">
          <Node pos="l" depth="2" NCoef="0" IVar="-1" Cut="0.0000000000000000e+00" cType="1" res="-1.4669395051896572e-02" rms="3.2110264897346497e-01" purity="1.2477339059114456e-01" nType="-99"/>
          <Node pos="r" depth="2" NCoef="0" IVar="-1" Cut="0.0000000000000000e+00" cType="1" res="-3.5705908667296171e-03" rms="4.8894596099853516e-01" purity="4.6062922477722168e-01" nType="-99"/>
        </Node>
        <Node pos="r" depth="1" NCoef="0" IVar="2" Cut="6.2901507568359375e+02" cType="1" res="6.7952156066894531e-02" rms="4.4549742341041565e-01" purity="6.4072793722152710e-01" nType="0">
          <Node pos="l" depth="2" NCoef="0" IVar="2" Cut="3.8407839965820312e+02" cType="1" res="-5.9788931161165237e-02" rms="4.8460000753402710e-01" purity="4.3504965305328369e-01" nType="0">
            <Node pos="l" depth="3" NCoef="0" IVar="-1" Cut="0.0000000000000000e+00" cType="1" res="-9.2963222414255142e-03" rms="4.5768305659294128e-01" purity="3.0818635225296021e-01" nType="-99"/>
            <Node pos="r" depth="3" NCoef="0" IVar="-1" Cut="0.0000000000000000e+00" cType="1" res="4.5774211175739765e-03" rms="4.8709139227867126e-01" purity="5.7344144582748413e-01" nType="-99"/>
          </Node>
          <Node pos="r" depth="2" NCoef="0" IVar="1" Cut="7.4415922164916992e-01" cType="1" res="1.7527520656585693e-01" rms="3.7773561477661133e-01" purity="8.1353074312210083e-01" nType="0">
            <Node pos="l" depth="3" NCoef="0" IVar="-1" Cut="0.0000000000000000e+00" cType="1" res="-1.0904713999480009e-03" rms="4.8317298293113708e-01" purity="5.9191370010375977e-01" nType="-99"/>
            <Node pos="r" depth="3" NCoef="0" IVar="-1" Cut="0.0000000000000000e+00" cType="1" res="3.7373065948486328e-02" rms="3.4613472223281860e-01" purity="8.5193490982055664e-01" nType="-99"/>
          </Node>
        </Node>
      </Node>
    </BinaryTree>
    <BinaryTree type="DecisionTree" boostWeight="1.0000000000000000e+00" itree="10">
      <Node pos="s" depth="0" NCoef="0" IVar="0" Cut="9.4702231884002686e-01" cType="1" res="-4.2754963040351868e-02" rms="4.5188334584236145e-01" purity="4.9624061584472656e-01" nType="0">
        <Node pos="l" depth="1" NCoef="0" IVar="2" Cut="9.3343231201171875e+02" cType="1" res="-2.4453650414943695e-01" rms="3.9027711749076843e-01" purity="2.1121355891227722e-01" nType="0">
          <Node pos="l" depth="2" NCoef="0" IVar="1" Cut="7.1161651611328125e-01" cType="1" res="-2.9732972383499146e-01" rms="3.4175992012023926e-01" purity="1.4235192537307739e-01" nType="0">
            <Node pos="l" depth="3" NCoef="0" IVar="-1" Cut="0.0000000000000000e+00" cType="1" res="-1.5450043603777885e-02" rms="2.7811431884765625e-01" purity="8.7685845792293549e-02" nType="-99"/>
            <Node pos="r" depth="3" NCoef="0" IVar="-1" Cut="0.0000000000000000e+00" cType="1" res="-1.1679615825414658e-02" rms="4.1732677817344666e-01" purity="2.3413367569446564e-01" nType="-99"/>
          </Node>
          <Node pos="r" depth="2" NCoef="0" IVar="-1" Cut="0.0000000000000000e+00" cType="1" res="-5.1898048259317875e-03" rms="4.7737669944763184e-01" purity="4.2872026562690735e-01" nType="-99"/>
        </Node>
        <Node pos="r" depth="1" NCoef="0" IVar="2" Cut="6.1311462402343750e+02" cType="1" res="4.8155378550291061e-02" rms="4.4829097390174866e-01" purity="6.2465631961822510e-01" nType="0">
          <Node pos="l" depth="2" NCoef="0" IVar="2" Cut="4.7511227416992188e+02" cType="1" res="-7.5402379035949707e-02" rms="4.8440465331077576e-01" purity="4.1785103082656860e-01" nType="0">
            <Node pos="l" depth="3" NCoef="0" IVar="-1" Cut="0.0000000000000000e+00" cType="1" res="-7.4809789657592773e-03" rms="4.7464239597320557e-01" purity="3.5778102278709412e-01" nType="-99"/>
            <Node pos="r" depth="3" NCoef="0" IVar="-1" Cut="0.0000000000000000e+00" cType="1" res="6.8109654821455479e-03" rms="4.8247092962265015e-01" purity="6.0390198230743408e-01" nType="-99"/>
          </Node>
          <Node pos="r" depth="2" NCoef="0" IVar="4" Cut="3.0000000000000000e+00" cType="1" res="1.7704341560602188e-02" rms="1.6372613608837128e-01" purity="8.1176036596298218e-01" nType="0">
            <Node pos="l" depth="3" NCoef="0" IVar="-1" Cut="0.0000000000000000e+00" cType="1" res="3.5020738840103149e-02" rms="3.4898638725280762e-01" purity="8.5231542587280273e-01" nType="-99"/>
            <Node pos="r" depth="3" NCoef="0" IVar="-1" Cut="0.0000000000000000e+00" cType="1" res="4.5721149072051048e-03" rms="4.6514371037483215e-01" purity="6.5131014585494995e-01" nType="-99"/>
          </Node>
        </Node>
      </Node>
    </BinaryTree>
    <BinaryTree type="DecisionTree" boostWeight="1.0000000000000000e+00" itree="11">
      <Node pos="s" depth="0" NCoef="0" IVar="2" Cut="6.2899700927734375e+02" cType="1" res="-3.5215072333812714e-02" rms="4.4687047600746155e-01" purity="5.0949060916900635e-01" nType="0">
        <Node pos="l" depth="1" NCoef="0" IVar="1" Cut="8.5784029960632324e-01" cType="1" res="-1.6109666228294373e-01" rms="4.3991896510124207e-01" purity="3.0267539620399475e-01" nType="0">
          <Node pos="l" depth="2" NCoef="0" IVar="0" Cut="9.7214120626449585e-01" cType="1" res="-2.7050876617431641e-01" rms="3.6486718058586121e-01" purity="1.7267641425132751e-01" nType="0">
            <Node pos="l" depth="3" NCoef="0" IVar="-1" Cut="0.0000000000000000e+00" cType="1" res="-1.4723506756126881e-02" rms="3.0316957831382751e-01" purity="1.0652381181716919e-01" nType="-99"/>
            <Node pos="r" depth="3" NCoef="0" IVar="-1" Cut="0.0000000000000000e+00" cType="1" res="-9.2297634109854698e-03" rms="4.5825630426406860e-01" purity="3.2400518655776978e-01" nType="-99"/>
          </Node>
          <Node pos="r" depth="2" NCoef="0" IVar="2" Cut="4.6569653320312500e+02" cType="1" res="-1.7566353082656860e-02" rms="4.8627081513404846e-01" purity="4.7321227192878723e-01" nType="0">
            <Node pos="l" depth="3" NCoef="0" IVar="-1" Cut="0.0000000000000000e+00" cType="1" res="-5.4118516854941845e-03" rms="4.8159819841384888e-01" purity="3.8808739185333252e-01" nType="-99"/>
            <Node pos="r" depth="3" NCoef="0" IVar="-1" Cut="0.0000000000000000e+00" cType="1" res="1.8573706969618797e-02" rms="4.4797760248184204e-01" purity="7.0481401681900024e-01" nType="-99"/>
          </Node>
        </Node>
        <Node pos="r" depth="1" NCoef="0" IVar="1" Cut="8.8577216863632202e-01" cType="1" res="1.0123255848884583e-01" rms="4.1301444172859192e-01" purity="7.3366510868072510e-01" nType="0">
          <Node pos="l" depth="2" NCoef="0" IVar="0" Cut="9.7425717115402222e-01" cType="1" res="1.7995878588408232e-03" rms="4.6585270762443542e-01" purity="5.8812612295150757e-01" nType="0">
            <Node pos="l" depth="3" NCoef="0" IVar="-1" Cut="0.0000000000000000e+00" cType="1" res="-4.9642887897789478e-03" rms="4.8549592494964600e-01" purity="4.6279856562614441e-01" nType="-99"/>
            <Node pos="r" depth="3" NCoef="0" IVar="-1" Cut="0.0000000000000000e+00" cType="1" res="1.2322838418185711e-02" rms="4.2224073410034180e-01" purity="7.4857163429260254e-01" nType="-99"/>
          </Node>
          <Node pos="r" depth="2" NCoef="0" IVar="4" Cut="2.0000000000000000e+00" cType="1" res="1.0980078950524330e-02" rms="9.9999330937862396e-02" purity="8.5704052448272705e-01" nType="0">
            <Node pos="l" depth="3" NCoef="0" IVar="-1" Cut="0.0000000000000000e+00" cType="1" res="5.8756802231073380e-02" rms="2.7136954665184021e-01" purity="9.1929084062576294e-01" nType="-99"/>
            <Node pos="r" depth="3" NCoef="0" IVar="-1" Cut="0.0000000000000000e+00" cType="1" res="1.3782647438347340e-02" rms="4.2837998270988464e-01" purity="7.4284285306930542e-01" nType="-99"/>
          </Node>
        </Node>
      </Node>
    </BinaryTree>
    <BinaryTree type="DecisionTree" boostWeight="1.0000000000000000e+00" itree="12">
      <Node pos="s" depth="0" NCoef="0" IVar="0" Cut="9.1607236862182617e-01" cType="1" res="-4.5796748250722885e-02" rms="4.4580397009849548e-01" purity="5.0353968143463135e-01" nType="0">
        <Node pos="l" depth="1" NCoef="0" IVar="1" Cut="7.1323931217193604e-01" cType="1" res="-2.5807535648345947e-01" rms="3.6137256026268005e-01" purity="1.6389155387878418e-01" nType="0">
          <Node pos="l" depth="2" NCoef="0" IVar="-1" Cut="0.0000000000000000e+00" cType="1" res="-1.4357911422848701e-02" rms="3.0424496531486511e-01" purity="1.0700209438800812e-01" nType="-99"/>
          <Node pos="r" depth="2" NCoef="0" IVar="-1" Cut="0.0000000000000000e+00" cType="1" res="-9.2324977740645409e-03" rms="4.2933329939842224e-01" purity="2.6279345154762268e-01" nType="-99"/>
        </Node>
        <Node pos="r" depth="1" NCoef="0" IVar="2" Cut="1.0575754394531250e+03" cType="1" res="1.5009973198175430e-02" rms="4.4906288385391235e-01" purity="6.0083109140396118e-01" nType="0">
          <Node pos="l" depth="2" NCoef="0" IVar="2" Cut="4.0449847412109375e+02" cType="1" res="-4.3029643595218658e-02" rms="4.7356969118118286e-01" purity="4.9722725152969360e-01" nType="0">
            <Node pos="l" depth="3" NCoef="0" IVar="-1" Cut="0.0000000000000000e+00" cType="1" res="-8.8248718529939651e-03" rms="4.5683076977729797e-01" purity="3.0553555488586426e-01" nType="-99"/>
            <Node pos="r" depth="3" NCoef="0" IVar="-1" Cut="0.0000000000000000e+00" cType="1" res="2.4138663429766893e-03" rms="4.7025680541992188e-01" purity="6.1362510919570923e-01" nType="-99"/>
          </Node>
          <Node pos="r" depth="2" NCoef="0" IVar="1" Cut="8.2896602153778076e-01" cType="1" res="1.5167586505413055e-01" rms="3.4900745749473572e-01" purity="8.4478712081909180e-01" nType="0">
            <Node pos="l" depth="3" NCoef="0" IVar="-1" Cut="0.0000000000000000e+00" cType="1" res="3.6256804596632719e-03" rms="4.5685786008834839e-01" purity="6.8316209316253662e-01" nType="-99"/>
            <Node pos="r" depth="3" NCoef="0" IVar="-1" Cut="0.0000000000000000e+00" cType="1" res="4.6822682023048401e-02" rms="2.9088670015335083e-01" purity="9.0138220787048340e-01" nType="-99"/>
          </Node>
        </Node>
      </Node>
    </BinaryTree>
    <BinaryTree type="DecisionTree" boostWeight="1.0000000000000000e+00" itree="13">
      <Node pos="s" depth="0" NCoef="0" IVar="0" Cut="9.4687533378601074e-01" cType="1" res="-4.6743001788854599e-02" rms="4.4248715043067932e-01" purity="5.0159484148025513e-01" nType="0">
        <Node pos="l" depth="1" NCoef="0" IVar="2" Cut="6.3729809570312500e+02" cType="1" res="-2.1636785566806793e-01" rms="3.8943630456924438e-01" purity="2.2212292253971100e-01" nType="0">
          <Node pos="l" depth="2" NCoef="0" IVar="-1" Cut="0.0000000000000000e+00" cType="1" res="-1.4282609336078167e-02" rms="2.9880553483963013e-01" purity="1.0331818461418152e-01" nType="-99"/>
          <Node pos="r" depth="2" NCoef="0" IVar="-1" Cut="0.0000000000000000e+00" cType="1" res="-2.3926796857267618e-03" rms="4.7675526142120361e-01" purity="4.6105927228927612e-01" nType="-99"/>
        </Node>
        <Node pos="r" depth="1" NCoef="0" IVar="5" Cut="2.8060672760009766e+01" cType="1" res="2.6389019563794136e-02" rms="4.4392526149749756e-01" purity="6.2208622694015503e-01" nType="0">
          <Node pos="l" depth="2" NCoef="0" IVar="6" Cut="7.2336226701736450e-01" cType="1" res="1.4526130259037018e-01" rms="3.7999498844146729e-01" purity="7.9106146097183228e-01" nType="0">
            <Node pos="l" depth="3" NCoef="0" IVar="-1" Cut="0.0000000000000000e+00" cType="1" res="5.3745950572192669e-03" rms="4.5695808529853821e-01" purity="6.3473218679428101e-01" nType="-99"/>
            <Node pos="r" depth="3" NCoef="0" IVar="-1" Cut="0.0000000000000000e+00" cType="1" res="3.0681919306516647e-02" rms="3.4952151775360107e-01" purity="8.3744281530380249e-01" nType="-99"/>
          </Node>
          <Node pos="r" depth="2" NCoef="0" IVar="2" Cut="5.4070758056640625e+02" cType="1" res="-4.6095341444015503e-02" rms="4.6402347087860107e-01" purity="5.1905071735382080e-01" nType="0">
            <Node pos="l" depth="3" NCoef="0" IVar="-1" Cut="0.0000000000000000e+00" cType="1" res="-8.6369253695011139e-03" rms="4.5809701085090637e-01" purity="3.1960892677307129e-01" nType="-99"/>
            <Node pos="r" depth="3" NCoef="0" IVar="-1" Cut="0.0000000000000000e+00" cType="1" res="5.4652807302772999e-03" rms="4.4927561283111572e-01" purity="6.9624656438827515e-01" nType="-99"/>
          </Node>
        </Node>
      </Node>
    </BinaryTree>
    <BinaryTree type="DecisionTree" boostWeight="1.0000000000000000e+00" itree="14">
      <Node pos="s" depth="0" NCoef="0" IVar="0" Cut="8.6467695236206055e-01" cType="1" res="-6.9751076400279999e-02" rms="4.4128617644309998e-01" purity="4.7855377197265625e-01" nType="0">
        <Node pos="l" depth="1" NCoef="0" IVar="-1" Cut="0.0000000000000000e+00" cType="1" res="-1.4497005380690098e-02" rms="2.8423875570297241e-01" purity="9.3157120048999786e-02" nType="-99"/>
        <Node pos="r" depth="1" NCoef="0" IVar="2" Cut="6.2899700927734375e+02" cType="1" res="-2.4095376953482628e-02" rms="4.5035135746002197e-01" purity="5.5063837766647339e-01" nType="0">
          <Node pos="l" depth="2" NCoef="0" IVar="2" Cut="3.8398687744140625e+02" cType="1" res="-1.1846063286066055e-01" rms="4.6136561036109924e-01" purity="3.5667473077774048e-01" nType="0">
            <Node pos="l" depth="3" NCoef="0" IVar="-1" Cut="0.0000000000000000e+00" cType="1" res="-1.0537971742451191e-02" rms="4.2411327362060547e-01" purity="2.4707680940628052e-01" nType="-99"/>
            <Node pos="r" depth="3" NCoef="0" IVar="-1" Cut="0.0000000000000000e+00" cType="1" res="-2.2226651199162006e-03" rms="4.8396915197372437e-01" purity="4.7626218199729919e-01" nType="-99"/>
          </Node>
          <Node pos="r" depth="2" NCoef="0" IVar="4" Cut="2.0000000000000000e+00" cType="1" res="5.5124936625361443e-03" rms="1.5878856182098389e-01" purity="7.3779749870300293e-01" nType="0">
            <Node pos="l" depth="3" NCoef="0" IVar="-1" Cut="0.0000000000000000e+00" cType="1" res="2.4766696617007256e-02" rms="3.6257889866828918e-01" purity="8.3545798063278198e-01" nType="-99"/>
            <Node pos="r" depth="3" NCoef="0" IVar="-1" Cut="0.0000000000000000e+00" cType="1" res="-2.7789308223873377e-03" rms="4.7565898299217224e-01" purity="5.9421753883361816e-01" nType="-99"/>
          </Node>
        </Node>
      </Node>
    </BinaryTree>
    <BinaryTree type="DecisionTree" boostWeight="1.0000000000000000e+00" itree="15">
      <Node pos="s" depth="0" NCoef="0" IVar="0" Cut="9.1607236862182617e-01" cType="1" res="-6.1623316258192062e-02" rms="4.3643143773078918e-01" purity="4.8396071791648865e-01" nType="0">
        <Node pos="l" depth="1" NCoef="0" IVar="2" Cut="5.7220349121093750e+02" cType="1" res="-2.5392049551010132e-01" rms="3.4669411182403564e-01" purity="1.5176045894622803e-01" nType="0">
          <Node pos="l" depth="2" NCoef="0" IVar="-1" Cut="0.0000000000000000e+00" cType="1" res="-1.4550094492733479e-02" rms="2.5319942831993103e-01" purity="6.9412648677825928e-02" nType="-99"/>
          <Node pos="r" depth="2" NCoef="0" IVar="-1" Cut="0.0000000000000000e+00" cType="1" res="-8.1137567758560181e-03" rms="4.4455671310424805e-01" purity="2.9343685507774353e-01" nType="-99"/>
        </Node>
        <Node pos="r" depth="1" NCoef="0" IVar="4" Cut="2.0000000000000000e+00" cType="1" res="-1.7294365912675858e-02" rms="1.9344171881675720e-01" purity="5.9490638971328735e-01" nType="0">
          <Node pos="l" depth="2" NCoef="0" IVar="1" Cut="6.8640464544296265e-01" cType="1" res="1.0539222508668900e-01" rms="4.0224033594131470e-01" purity="7.4661588668823242e-01" nType="0">
            <Node pos="l" depth="3" NCoef="0" IVar="-1" Cut="0.0000000000000000e+00" cType="1" res="-5.6201601400971413e-03" rms="4.7554308176040649e-01" purity="5.1385951042175293e-01" nType="-99"/>
            <Node pos="r" depth="3" NCoef="0" IVar="-1" Cut="0.0000000000000000e+00" cType="1" res="1.9259642809629440e-02" rms="3.8342931866645813e-01" purity="7.8092551231384277e-01" nType="-99"/>
          </Node>
          <Node pos="r" depth="2" NCoef="0" IVar="2" Cut="6.2948999023437500e+02" cType="1" res="-1.0748823732137680e-01" rms="4.6068969368934631e-01" purity="4.3243306875228882e-01" nType="0">
            <Node pos="l" depth="3" NCoef="0" IVar="-1" Cut="0.0000000000000000e+00" cType="1" res="-1.0035498067736626e-02" rms="4.3800380825996399e-01" purity="2.8155219554901123e-01" nType="-99"/>
            <Node pos="r" depth="3" NCoef="0" IVar="-1" Cut="0.0000000000000000e+00" cType="1" res="-8.6959713371470571e-04" rms="4.7119164466857910e-01" purity="6.3180154561996460e-01" nType="-99"/>
          </Node>
        </Node>
      </Node>
    </BinaryTree>
    <BinaryTree type="DecisionTree" boostWeight="1.0000000000000000e+00" itree="16">
      <Node pos="s" depth="0" NCoef="0" IVar="1" Cut="8.5735219717025757e-01" cType="1" res="-6.8491831421852112e-02" rms="4.3738314509391785e-01" purity="4.8419693112373352e-01" nType="0">
        <Node pos="l" depth="1" NCoef="0" IVar="2" Cut="6.2950555419921875e+02" cType="1" res="-1.8106745183467865e-01" rms="4.1505441069602966e-01" purity="3.0292171239852905e-01" nType="0">
          <Node pos="l" depth="2" NCoef="0" IVar="0" Cut="9.7214120626449585e-01" cType="1" res="-2.5219106674194336e-01" rms="3.5691681504249573e-01" purity="1.6745124757289886e-01" nType="0">
            <Node pos="l" depth="3" NCoef="0" IVar="-1" Cut="0.0000000000000000e+00" cType="1" res="-1.3919623568654060e-02" rms="2.9597082734107971e-01" purity="1.0122103244066238e-01" nType="-99"/>
            <Node pos="r" depth="3" NCoef="0" IVar="-1" Cut="0.0000000000000000e+00" cType="1" res="-8.6322780698537827e-03" rms="4.5397621393203735e-01" purity="3.2352548837661743e-01" nType="-99"/>
          </Node>
          <Node pos="r" depth="2" NCoef="0" IVar="4" Cut="2.0000000000000000e+00" cType="1" res="-1.8124412745237350e-02" rms="1.2377981096506119e-01" purity="4.9828839302062988e-01" nType="0">
            <Node pos="l" depth="3" NCoef="0" IVar="-1" Cut="0.0000000000000000e+00" cType="1" res="6.6131714265793562e-04" rms="4.6365615725517273e-01" purity="6.2505179643630981e-01" nType="-99"/>
            <Node pos="r" depth="3" NCoef="0" IVar="-1" Cut="0.0000000000000000e+00" cType="1" res="-1.0810720734298229e-02" rms="4.5395317673683167e-01" purity="3.5230582952499390e-01" nType="-99"/>
          </Node>
        </Node>
        <Node pos="r" depth="1" NCoef="0" IVar="7" Cut="-2.6667138934135437e-01" cType="1" res="3.3726193010807037e-02" rms="4.3200790882110596e-01" purity="6.4879381656646729e-01" nType="0">
          <Node pos="l" depth="2" NCoef="0" IVar="3" Cut="2.4923701286315918e+00" cType="1" res="7.6817311346530914e-02" rms="4.1178119182586670e-01" purity="7.1675831079483032e-01" nType="0">
            <Node pos="l" depth="3" NCoef="0" IVar="-1" Cut="0.0000000000000000e+00" cType="1" res="-4.9805035814642906e-03" rms="4.7660905122756958e-01" purity="4.0085500478744507e-01" nType="-99"/>
            <Node pos="r" depth="3" NCoef="0" IVar="-1" Cut="0.0000000000000000e+00" cType="1" res="1.7127299681305885e-02" rms="3.8761249184608459e-01" purity="7.8706055879592896e-01" nType="-99"/>
          </Node>
          <Node pos="r" depth="2" NCoef="0" IVar="-1" Cut="0.0000000000000000e+00" cType="1" res="-8.3390353247523308e-03" rms="4.6645557880401611e-01" purity="3.9265573024749756e-01" nType="-99"/>
        </Node>
      </Node>
    </BinaryTree>
    <BinaryTree type="DecisionTree" boostWeight="1.0000000000000000e+00" itree="17">
      <Node pos="s" depth="0" NCoef="0" IVar="1" Cut="8.0019789934158325e-01" cType="1" res="-4.8030957579612732e-02" rms="4.3712845444679260e-01" purity="5.0391447544097900e-01" nType="0">
        <Node pos="l" depth="1" NCoef="0" IVar="2" Cut="1.0413677978515625e+03" cType="1" res="-1.8388085067272186e-01" rms="4.0665918588638306e-01" purity="2.8078594803810120e-01" nType="0">
          <Node pos="l" depth="2" NCoef="0" IVar="0" Cut="9.2053341865539551e-01" cType="1" res="-2.3086097836494446e-01" rms="3.7439113855361938e-01" purity="2.0407575368881226e-01" nType="0">
            <Node pos="l" depth="3" NCoef="0" IVar="-1" Cut="0.0000000000000000e+00" cType="1" res="-1.3931586407124996e-02" rms="2.7194252610206604e-01" purity="8.2776218652725220e-02" nType="-99"/>
            <Node pos="r" depth="3" NCoef="0" IVar="-1" Cut="0.0000000000000000e+00" cType="1" res="-9.3477638438344002e-03" rms="4.5049700140953064e-01" purity="3.3822616934776306e-01" nType="-99"/>
          </Node>
          <Node pos="r" depth="2" NCoef="0" IVar="-1" Cut="0.0000000000000000e+00" cType="1" res="1.3869578833691776e-04" rms="4.7090479731559753e-01" purity="5.8355468511581421e-01" nType="-99"/>
        </Node>
        <Node pos="r" depth="1" NCoef="0" IVar="4" Cut="3.0000000000000000e+00" cType="1" res="-6.5915472805500031e-03" rms="1.1015713214874268e-01" purity="6.4078140258789062e-01" nType="0">
          <Node pos="l" depth="2" NCoef="0" IVar="3" Cut="2.4489023685455322e+00" cType="1" res="8.5814543068408966e-02" rms="4.1141727566719055e-01" purity="7.2290265560150146e-01" nType="0">
            <Node pos="l" depth="3" NCoef="0" IVar="-1" Cut="0.0000000000000000e+00" cType="1" res="-4.6813003718852997e-03" rms="4.7924944758415222e-01" purity="4.0694344043731689e-01" nType="-99"/>
            <Node pos="r" depth="3" NCoef="0" IVar="-1" Cut="0.0000000000000000e+00" cType="1" res="2.2801889106631279e-02" rms="3.7692162394523621e-01" purity="8.1569737195968628e-01" nType="-99"/>
          </Node>
          <Node pos="r" depth="2" NCoef="0" IVar="5" Cut="7.2204101562500000e+01" cType="1" res="-9.2716559767723083e-02" rms="4.6335813403129578e-01" purity="4.3266963958740234e-01" nType="0">
            <Node pos="l" depth="3" NCoef="0" IVar="-1" Cut="0.0000000000000000e+00" cType="1" res="-1.0704024462029338e-03" rms="4.5941913127899170e-01" purity="5.1798403263092041e-01" nType="-99"/>
            <Node pos="r" depth="3" NCoef="0" IVar="-1" Cut="0.0000000000000000e+00" cType="1" res="-9.1983750462532043e-03" rms="4.5835489034652710e-01" purity="3.7500560283660889e-01" nType="-99"/>
          </Node>
        </Node>
      </Node>
    </BinaryTree>
    <BinaryTree type="DecisionTree" boostWeight="1.0000000000000000e+00" itree="18">
      <Node pos="s" depth="0" NCoef="0" IVar="1" Cut="7.1494650840759277e-01" cType="1" res="-6.0833312571048737e-02" rms="4.3293863534927368e-01" purity="4.9000069499015808e-01" nType="0">
        <Node pos="l" depth="1" NCoef="0" IVar="2" Cut="1.0534189453125000e+03" cType="1" res="-2.3415353894233704e-01" rms="3.7838751077651978e-01" purity="2.1803855895996094e-01" nType="0">
          <Node pos="l" depth="2" NCoef="0" IVar="2" Cut="4.8386209106445312e+02" cType="1" res="-2.6823133230209351e-01" rms="3.4109488129615784e-01" purity="1.5638154745101929e-01" nType="0">
            <Node pos="l" depth="3" NCoef="0" IVar="-1" Cut="0.0000000000000000e+00" cType="1" res="-1.3742655515670776e-02" rms="2.9200604557991028e-01" purity="1.0191761702299118e-01" nType="-99"/>
            <Node pos="r" depth="3" NCoef="0" IVar="-1" Cut="0.0000000000000000e+00" cType="1" res="-1.2666818685829639e-02" rms="4.0436315536499023e-01" purity="2.4219854176044464e-01" nType="-99"/>
          </Node>
          <Node pos="r" depth="2" NCoef="0" IVar="-1" Cut="0.0000000000000000e+00" cType="1" res="-7.1991202421486378e-03" rms="4.7629246115684509e-01" purity="4.6308013796806335e-01" nType="-99"/>
        </Node>
        <Node pos="r" depth="1" NCoef="0" IVar="2" Cut="6.3759832763671875e+02" cType="1" res="8.7784565985202789e-03" rms="4.3393647670745850e-01" purity="5.9923064708709717e-01" nType="0">
          <Node pos="l" depth="2" NCoef="0" IVar="5" Cut="2.6657415390014648e+01" cType="1" res="-8.6090520024299622e-02" rms="4.6241691708564758e-01" purity="3.8859632611274719e-01" nType="0">
            <Node pos="l" depth="3" NCoef="0" IVar="-1" Cut="0.0000000000000000e+00" cType="1" res="5.2781431004405022e-03" rms="4.7308996319770813e-01" purity="5.7801753282546997e-01" nType="-99"/>
            <Node pos="r" depth="3" NCoef="0" IVar="-1" Cut="0.0000000000000000e+00" cType="1" res="-8.1323506310582161e-03" rms="4.4673234224319458e-01" purity="3.2070267200469971e-01" nType="-99"/>
          </Node>
          <Node pos="r" depth="2" NCoef="0" IVar="6" Cut="7.4728518724441528e-01" cType="1" res="1.0109926015138626e-01" rms="3.8233038783073425e-01" purity="8.0420738458633423e-01" nType="0">
            <Node pos="l" depth="3" NCoef="0" IVar="-1" Cut="0.0000000000000000e+00" cType="1" res="-2.1516524720937014e-03" rms="4.6337038278579712e-01" purity="6.6997736692428589e-01" nType="-99"/>
            <Node pos="r" depth="3" NCoef="0" IVar="-1" Cut="0.0000000000000000e+00" cType="1" res="2.2590491920709610e-02" rms="3.6118051409721375e-01" purity="8.2892674207687378e-01" nType="-99"/>
          </Node>
        </Node>
      </Node>
    </BinaryTree>
    <BinaryTree type="DecisionTree" boostWeight="1.0000000000000000e+00" itree="19">
      <Node pos="s" depth="0" NCoef="0" IVar="1" Cut="8.0004024505615234e-01" cType="1" res="-3.6703385412693024e-02" rms="4.3203735351562500e-01" purity="5.1682740449905396e-01" nType="0">
        <Node pos="l" depth="1" NCoef="0" IVar="2" Cut="1.0418508300781250e+03" cType="1" res="-1.6877162456512451e-01" rms="4.0411120653152466e-01" purity="2.8556019067764282e-01" nType="0">
          <Node pos="l" depth="2" NCoef="0" IVar="0" Cut="9.7202414274215698e-01" cType="1" res="-2.1482884883880615e-01" rms="3.7483936548233032e-01" purity="2.0758229494094849e-01" nType="0">
            <Node pos="l" depth="3" NCoef="0" IVar="-1" Cut="0.0000000000000000e+00" cType="1" res="-1.2846712954342365e-02" rms="3.2002511620521545e-01" purity="1.3000112771987915e-01" nType="-99"/>
            <Node pos="r" depth="3" NCoef="0" IVar="-1" Cut="0.0000000000000000e+00" cType="1" res="-5.6940610520541668e-03" rms="4.7374814748764038e-01" purity="4.2564457654953003e-01" nType="-99"/>
          </Node>
          <Node pos="r" depth="2" NCoef="0" IVar="-1" Cut="0.0000000000000000e+00" cType="1" res="3.0077586416155100e-03" rms="4.6162062883377075e-01" purity="6.2370049953460693e-01" nType="-99"/>
        </Node>
        <Node pos="r" depth="1" NCoef="0" IVar="6" Cut="2.6406362652778625e-01" cType="1" res="4.5439399778842926e-02" rms="4.2846667766571045e-01" purity="6.6066926717758179e-01" nType="0">
          <Node pos="l" depth="2" NCoef="0" IVar="5" Cut="3.8714927673339844e+01" cType="1" res="-1.0039952397346497e-01" rms="4.6485167741775513e-01" purity="4.1038870811462402e-01" nType="0">
            <Node pos="l" depth="3" NCoef="0" IVar="-1" Cut="0.0000000000000000e+00" cType="1" res="-5.0038862973451614e-03" rms="4.6909838914871216e-01" purity="4.7136288881301880e-01" nType="-99"/>
            <Node pos="r" depth="3" NCoef="0" IVar="-1" Cut="0.0000000000000000e+00" cType="1" res="-7.7839251607656479e-03" rms="4.5977276563644409e-01" purity="3.6127403378486633e-01" nType="-99"/>
          </Node>
          <Node pos="r" depth="2" NCoef="0" IVar="7" Cut="-4.7046631574630737e-01" cType="1" res="8.3170689642429352e-02" rms="4.1018056869506836e-01" purity="7.2542154788970947e-01" nType="0">
            <Node pos="l" depth="3" NCoef="0" IVar="-1" Cut="0.0000000000000000e+00" cType="1" res="2.4182170629501343e-02" rms="3.6409741640090942e-01" purity="8.2281446456909180e-01" nType="-99"/>
            <Node pos="r" depth="3" NCoef="0" IVar="-1" Cut="0.0000000000000000e+00" cType="1" res="-4.2915875092148781e-03" rms="4.8270338773727417e-01" purity="4.7306194901466370e-01" nType="-99"/>
          </Node>
        </Node>
      </Node>
    </BinaryTree>
    <BinaryTree type="DecisionTree" boostWeight="1.0000000000000000e+00" itree="20">
      <Node pos="s" depth="0" NCoef="0" IVar="1" Cut="8.0010128021240234e-01" cType="1" res="-4.6135049313306808e-02" rms="4.2563819885253906e-01" purity="5.0512582063674927e-01" nType="0">
        <Node pos="l" depth="1" NCoef="0" IVar="2" Cut="1.2999478759765625e+03" cType="1" res="-1.8421047925949097e-01" rms="3.9449185132980347e-01" purity="2.6376837491989136e-01" nType="0">
          <Node pos="l" depth="2" NCoef="0" IVar="0" Cut="9.1607236862182617e-01" cType="1" res="-2.2311271727085114e-01" rms="3.6908632516860962e-01" purity="2.0200017094612122e-01" nType="0">
            <Node pos="l" depth="3" NCoef="0" IVar="-1" Cut="0.0000000000000000e+00" cType="1" res="-1.3686915859580040e-02" rms="2.6166477799415588e-01" purity="7.6775394380092621e-02" nType="-99"/>
            <Node pos="r" depth="3" NCoef="0" IVar="-1" Cut="0.0000000000000000e+00" cType="1" res="-8.7042534723877907e-03" rms="4.5597892999649048e-01" purity="3.5698407888412476e-01" nType="-99"/>
          </Node>
          <Node pos="r" depth="2" NCoef="0" IVar="-1" Cut="0.0000000000000000e+00" cType="1" res="5.5572339333593845e-03" rms="4.5648536086082458e-01" purity="6.4382791519165039e-01" nType="-99"/>
        </Node>
        <Node pos="r" depth="1" NCoef="0" IVar="4" Cut="3.0000000000000000e+00" cType="1" res="-1.0270630940794945e-02" rms="1.5086153149604797e-01" purity="6.5962666273117065e-01" nType="0">
          <Node pos="l" depth="2" NCoef="0" IVar="6" Cut="3.2763257622718811e-01" cType="1" res="9.2183306813240051e-02" rms="3.9206203818321228e-01" purity="7.4068731069564819e-01" nType="0">
            <Node pos="l" depth="3" NCoef="0" IVar="-1" Cut="0.0000000000000000e+00" cType="1" res="-3.7523950450122356e-03" rms="4.7903811931610107e-01" purity="5.0625431537628174e-01" nType="-99"/>
            <Node pos="r" depth="3" NCoef="0" IVar="-1" Cut="0.0000000000000000e+00" cType="1" res="1.9181553274393082e-02" rms="3.6277982592582703e-01" purity="7.9264795780181885e-01" nType="-99"/>
          </Node>
          <Node pos="r" depth="2" NCoef="0" IVar="2" Cut="7.5327502441406250e+02" cType="1" res="-8.8954031467437744e-02" rms="4.6502870321273804e-01" purity="4.4662365317344666e-01" nType="0">
            <Node pos="l" depth="3" NCoef="0" IVar="-1" Cut="0.0000000000000000e+00" cType="1" res="-7.8599993139505386e-03" rms="4.6055954694747925e-01" purity="3.3973020315170288e-01" nType="-99"/>
            <Node pos="r" depth="3" NCoef="0" IVar="-1" Cut="0.0000000000000000e+00" cType="1" res="-1.1282062623649836e-03" rms="4.6291550993919373e-01" purity="6.4017516374588013e-01" nType="-99"/>
          </Node>
        </Node>
      </Node>
    </BinaryTree>
    <BinaryTree type="DecisionTree" boostWeight="1.0000000000000000e+00" itree="21">
      <Node pos="s" depth="0" NCoef="0" IVar="1" Cut="8.5721522569656372e-01" cType="1" res="-5.3616523742675781e-02" rms="4.2576202750205994e-01" purity="4.9865204095840454e-01" nType="0">
        <Node pos="l" depth="1" NCoef="0" IVar="2" Cut="5.6672784423828125e+02" cType="1" res="-1.5700282156467438e-01" rms="4.1017946600914001e-01" purity="3.0960726737976074e-01" nType="0">
          <Node pos="l" depth="2" NCoef="0" IVar="0" Cut="9.7343766689300537e-01" cType="1" res="-2.4116432666778564e-01" rms="3.4409955143928528e-01" purity="1.5278612077236176e-01" nType="0">
            <Node pos="l" depth="3" NCoef="0" IVar="-1" Cut="0.0000000000000000e+00" cType="1" res="-1.3153225183486938e-02" rms="2.9011419415473938e-01" purity="9.6844129264354706e-02" nType="-99"/>
            <Node pos="r" depth="3" NCoef="0" IVar="-1" Cut="0.0000000000000000e+00" cType="1" res="-8.9785866439342499e-03" rms="4.4393950700759888e-01" purity="2.9652294516563416e-01" nType="-99"/>
          </Node>
          <Node pos="r" depth="2" NCoef="0" IVar="1" Cut="7.2661823034286499e-01" cType="1" res="-4.6947501599788666e-02" rms="4.6048921346664429e-01" purity="5.1467728614807129e-01" nType="0">
            <Node pos="l" depth="3" NCoef="0" IVar="-1" Cut="0.0000000000000000e+00" cType="1" res="-7.3330663144588470e-03" rms="4.6459814906120300e-01" purity="4.1348072886466980e-01" nType="-99"/>
            <Node pos="r" depth="3" NCoef="0" IVar="-1" Cut="0.0000000000000000e+00" cType="1" res="3.3560700248926878e-03" rms="4.4271582365036011e-01" purity="6.4609360694885254e-01" nType="-99"/>
          </Node>
        </Node>
        <Node pos="r" depth="1" NCoef="0" IVar="2" Cut="5.2336749267578125e+02" cType="1" res="4.0343202650547028e-02" rms="4.1781470179557800e-01" purity="6.7046010494232178e-01" nType="0">
          <Node pos="l" depth="2" NCoef="0" IVar="4" Cut="2.0000000000000000e+00" cType="1" res="-7.6503995805978775e-03" rms="1.1170789599418640e-01" purity="4.1564854979515076e-01" nType="0">
            <Node pos="l" depth="3" NCoef="0" IVar="-1" Cut="0.0000000000000000e+00" cType="1" res="4.8973242519423366e-04" rms="4.8435214161872864e-01" purity="5.1598650217056274e-01" nType="-99"/>
            <Node pos="r" depth="3" NCoef="0" IVar="-1" Cut="0.0000000000000000e+00" cType="1" res="-7.4180006049573421e-03" rms="4.6301701664924622e-01" purity="3.2512184977531433e-01" nType="-99"/>
          </Node>
          <Node pos="r" depth="2" NCoef="0" IVar="5" Cut="7.0151679992675781e+01" cType="1" res="1.0393435508012772e-01" rms="3.6198148131370544e-01" purity="8.2595235109329224e-01" nType="0">
            <Node pos="l" depth="3" NCoef="0" IVar="-1" Cut="0.0000000000000000e+00" cType="1" res="2.9673278331756592e-02" rms="3.2840260863304138e-01" purity="8.6949932575225830e-01" nType="-99"/>
            <Node pos="r" depth="3" NCoef="0" IVar="-1" Cut="0.0000000000000000e+00" cType="1" res="-3.5896690096706152e-03" rms="4.8367941379547119e-01" purity="5.8717387914657593e-01" nType="-99"/>
          </Node>
        </Node>
      </Node>
    </BinaryTree>
    <BinaryTree type="DecisionTree" boostWeight="1.0000000000000000e+00" itree="22">
      <Node pos="s" depth="0" NCoef="0" IVar="0" Cut="9.4404822587966919e-01" cType="1" res="-4.8499826341867447e-02" rms="4.2653036117553711e-01" purity="5.1020908355712891e-01" nType="0">
        <Node pos="l" depth="1" NCoef="0" IVar="2" Cut="5.6813226318359375e+02" cType="1" res="-1.9459100067615509e-01" rms="3.7018990516662598e-01" purity="2.0663154125213623e-01" nType="0">
          <Node pos="l" depth="2" NCoef="0" IVar="-1" Cut="0.0000000000000000e+00" cType="1" res="-1.2852537445724010e-02" rms="2.8261968493461609e-01" purity="9.2670328915119171e-02" nType="-99"/>
          <Node pos="r" depth="2" NCoef="0" IVar="-1" Cut="0.0000000000000000e+00" cType="1" res="-5.8358316309750080e-03" rms="4.5180171728134155e-01" purity="3.7574446201324463e-01" nType="-99"/>
        </Node>
        <Node pos="r" depth="1" NCoef="0" IVar="4" Cut="2.0000000000000000e+00" cType="1" res="-2.6603953447192907e-03" rms="1.6420534253120422e-01" purity="6.3256591558456421e-01" nType="0">
          <Node pos="l" depth="2" NCoef="0" IVar="1" Cut="7.1573245525360107e-01" cType="1" res="7.1259491145610809e-02" rms="3.9885866641998291e-01" purity="7.5434696674346924e-01" nType="0">
            <Node pos="l" depth="3" NCoef="0" IVar="-1" Cut="0.0000000000000000e+00" cType="1" res="-5.9293769299983978e-03" rms="4.7818204760551453e-01" purity="4.9861478805541992e-01" nType="-99"/>
            <Node pos="r" depth="3" NCoef="0" IVar="-1" Cut="0.0000000000000000e+00" cType="1" res="1.5703734010457993e-02" rms="3.7930694222450256e-01" purity="7.9525738954544067e-01" nType="-99"/>
          </Node>
          <Node pos="r" depth="2" NCoef="0" IVar="6" Cut="2.7586612105369568e-01" cType="1" res="-6.2756061553955078e-02" rms="4.6132946014404297e-01" purity="4.8625773191452026e-01" nType="0">
            <Node pos="l" depth="3" NCoef="0" IVar="-1" Cut="0.0000000000000000e+00" cType="1" res="-1.0209933854639530e-02" rms="4.4312569499015808e-01" purity="3.0303511023521423e-01" nType="-99"/>
            <Node pos="r" depth="3" NCoef="0" IVar="-1" Cut="0.0000000000000000e+00" cType="1" res="-1.9259025575593114e-03" rms="4.6093484759330750e-01" purity="5.5074787139892578e-01" nType="-99"/>
          </Node>
        </Node>
      </Node>
    </BinaryTree>
    <BinaryTree type="DecisionTree" boostWeight="1.0000000000000000e+00" itree="23">
      <Node pos="s" depth="0" NCoef="0" IVar="0" Cut="8.6070615053176880e-01" cType="1" res="-4.9654617905616760e-02" rms="4.2070785164833069e-01" purity="5.0265419483184814e-01" nType="0">
        <Node pos="l" depth="1" NCoef="0" IVar="-1" Cut="0.0000000000000000e+00" cType="1" res="-1.3341813348233700e-02" rms="2.6669073104858398e-01" purity="8.3595566451549530e-02" nType="-99"/>
        <Node pos="r" depth="1" NCoef="0" IVar="2" Cut="6.1241546630859375e+02" cType="1" res="-6.6120540723204613e-03" rms="4.3061333894729614e-01" purity="5.8206427097320557e-01" nType="0">
          <Node pos="l" depth="2" NCoef="0" IVar="2" Cut="5.1416900634765625e+02" cType="1" res="-9.3127340078353882e-02" rms="4.5632290840148926e-01" purity="3.6768335103988647e-01" nType="0">
            <Node pos="l" depth="3" NCoef="0" IVar="-1" Cut="0.0000000000000000e+00" cType="1" res="-7.4905296787619591e-03" rms="4.4757875800132751e-01" purity="3.1769794225692749e-01" nType="-99"/>
            <Node pos="r" depth="3" NCoef="0" IVar="-1" Cut="0.0000000000000000e+00" cType="1" res="8.7123550474643707e-03" rms="4.5830497145652771e-01" purity="6.3504737615585327e-01" nType="-99"/>
          </Node>
          <Node pos="r" depth="2" NCoef="0" IVar="6" Cut="4.3338149785995483e-01" cType="1" res="7.2292193770408630e-02" rms="3.8933122158050537e-01" purity="7.7758526802062988e-01" nType="0">
            <Node pos="l" depth="3" NCoef="0" IVar="-1" Cut="0.0000000000000000e+00" cType="1" res="-7.5745214708149433e-03" rms="4.6359148621559143e-01" purity="5.5719548463821411e-01" nType="-99"/>
            <Node pos="r" depth="3" NCoef="0" IVar="-1" Cut="0.0000000000000000e+00" cType="1" res="1.6388455405831337e-02" rms="3.7260970473289490e-01" purity="8.0820429325103760e-01" nType="-99"/>
          </Node>
        </Node>
      </Node>
    </BinaryTree>
    <BinaryTree type="DecisionTree" boostWeight="1.0000000000000000e+00" itree="24">
      <Node pos="s" depth="0" NCoef="0" IVar="0" Cut="9.4404822587966919e-01" cType="1" res="-3.7356715649366379e-02" rms="4.1945287585258484e-01" purity="5.2021932601928711e-01" nType="0">
        <Node pos="l" depth="1" NCoef="0" IVar="2" Cut="9.3321295166015625e+02" cType="1" res="-1.9851061701774597e-01" rms="3.6975648999214172e-01" purity="2.0211011171340942e-01" nType="0">
          <Node pos="l" depth="2" NCoef="0" IVar="-1" Cut="0.0000000000000000e+00" cType="1" res="-1.2040446512401104e-02" rms="3.2189604640007019e-01" purity="1.2976634502410889e-01" nType="-99"/>
          <Node pos="r" depth="2" NCoef="0" IVar="-1" Cut="0.0000000000000000e+00" cType="1" res="-4.6693598851561546e-03" rms="4.7429588437080383e-01" purity="4.4396194815635681e-01" nType="-99"/>
        </Node>
        <Node pos="r" depth="1" NCoef="0" IVar="4" Cut="3.0000000000000000e+00" cType="1" res="-1.1208284646272659e-02" rms="1.9429269433021545e-01" purity="6.6561591625213623e-01" nType="0">
          <Node pos="l" depth="2" NCoef="0" IVar="0" Cut="9.8668849468231201e-01" cType="1" res="7.4947267770767212e-02" rms="3.9492040872573853e-01" purity="7.4314147233963013e-01" nType="0">
            <Node pos="l" depth="3" NCoef="0" IVar="-1" Cut="0.0000000000000000e+00" cType="1" res="-1.3099025236442685e-03" rms="4.3579661846160889e-01" purity="6.3792157173156738e-01" nType="-99"/>
            <Node pos="r" depth="3" NCoef="0" IVar="-1" Cut="0.0000000000000000e+00" cType="1" res="1.8166879191994667e-02" rms="3.6717638373374939e-01" purity="7.9239130020141602e-01" nType="-99"/>
          </Node>
          <Node pos="r" depth="2" NCoef="0" IVar="2" Cut="6.3027301025390625e+02" cType="1" res="-6.5145358443260193e-02" rms="4.6525189280509949e-01" purity="4.6211072802543640e-01" nType="0">
            <Node pos="l" depth="3" NCoef="0" IVar="-1" Cut="0.0000000000000000e+00" cType="1" res="-7.0854788646101952e-03" rms="4.5765820145606995e-01" purity="3.1784266233444214e-01" nType="-99"/>
            <Node pos="r" depth="3" NCoef="0" IVar="-1" Cut="0.0000000000000000e+00" cType="1" res="1.2746644206345081e-03" rms="4.6451026201248169e-01" purity="6.5930694341659546e-01" nType="-99"/>
          </Node>
        </Node>
      </Node>
    </BinaryTree>
    <BinaryTree type="DecisionTree" boostWeight="1.0000000000000000e+00" itree="25">
      <Node pos="s" depth="0" NCoef="0" IVar="0" Cut="9.7293537855148315e-01" cType="1" res="-6.5882831811904907e-02" rms="4.2446917295455933e-01" purity="4.8878246545791626e-01" nType="0">
        <Node pos="l" depth="1" NCoef="0" IVar="2" Cut="6.3855017089843750e+02" cType="1" res="-1.6413842141628265e-01" rms="3.8958185911178589e-01" purity="2.7473568916320801e-01" nType="0">
          <Node pos="l" depth="2" NCoef="0" IVar="2" Cut="3.8861331176757812e+02" cType="1" res="-2.3084805905818939e-01" rms="3.2581332325935364e-01" purity="1.3874520361423492e-01" nType="0">
            <Node pos="l" depth="3" NCoef="0" IVar="-1" Cut="0.0000000000000000e+00" cType="1" res="-1.3246709480881691e-02" rms="2.6466289162635803e-01" purity="8.2020603120326996e-02" nType="-99"/>
            <Node pos="r" depth="3" NCoef="0" IVar="-1" Cut="0.0000000000000000e+00" cType="1" res="-8.6569022387266159e-03" rms="4.0622326731681824e-01" purity="2.4600304663181305e-01" nType="-99"/>
          </Node>
          <Node pos="r" depth="2" NCoef="0" IVar="5" Cut="4.2091007232666016e+01" cType="1" res="-5.4249577224254608e-02" rms="4.5553901791572571e-01" purity="4.9874886870384216e-01" nType="0">
            <Node pos="l" depth="3" NCoef="0" IVar="-1" Cut="0.0000000000000000e+00" cType="1" res="8.9055681601166725e-03" rms="4.3919721245765686e-01" purity="6.7820334434509277e-01" nType="-99"/>
            <Node pos="r" depth="3" NCoef="0" IVar="-1" Cut="0.0000000000000000e+00" cType="1" res="-1.0940382257103920e-02" rms="4.3475678563117981e-01" purity="3.2854625582695007e-01" nType="-99"/>
          </Node>
        </Node>
        <Node pos="r" depth="1" NCoef="0" IVar="5" Cut="4.0686847686767578e+01" cType="1" res="7.9302402446046472e-04" rms="4.3410745263099670e-01" purity="6.3403373956680298e-01" nType="0">
          <Node pos="l" depth="2" NCoef="0" IVar="5" Cut="2.5184190750122070e+01" cType="1" res="6.9190680980682373e-02" rms="3.9411330223083496e-01" purity="7.6468712091445923e-01" nType="0">
            <Node pos="l" depth="3" NCoef="0" IVar="-1" Cut="0.0000000000000000e+00" cType="1" res="1.9714996218681335e-02" rms="3.6361718177795410e-01" purity="8.2336503267288208e-01" nType="-99"/>
            <Node pos="r" depth="3" NCoef="0" IVar="-1" Cut="0.0000000000000000e+00" cType="1" res="-2.0055209461133927e-04" rms="4.3876141309738159e-01" purity="6.5084689855575562e-01" nType="-99"/>
          </Node>
          <Node pos="r" depth="2" NCoef="0" IVar="2" Cut="1.0586635742187500e+03" cType="1" res="-7.3799259960651398e-02" rms="4.6250116825103760e-01" purity="4.9154740571975708e-01" nType="0">
            <Node pos="l" depth="3" NCoef="0" IVar="-1" Cut="0.0000000000000000e+00" cType="1" res="-7.4290721677243710e-03" rms="4.7032573819160461e-01" purity="4.1129142045974731e-01" nType="-99"/>
            <Node pos="r" depth="3" NCoef="0" IVar="-1" Cut="0.0000000000000000e+00" cType="1" res="9.5705892890691757e-03" rms="4.0641540288925171e-01" purity="7.7976906299591064e-01" nType="-99"/>
          </Node>
        </Node>
      </Node>
    </BinaryTree>
    <BinaryTree type="DecisionTree" boostWeight="1.0000000000000000e+00" itree="26">
      <Node pos="s" depth="0" NCoef="0" IVar="0" Cut="9.7202414274215698e-01" cType="1" res="-5.2411090582609177e-02" rms="4.1806155443191528e-01" purity="5.0140589475631714e-01" nType="0">
        <Node pos="l" depth="1" NCoef="0" IVar="2" Cut="1.0752250976562500e+03" cType="1" res="-1.6176152229309082e-01" rms="3.9218276739120483e-01" purity="2.7665793895721436e-01" nType="0">
          <Node pos="l" depth="2" NCoef="0" IVar="1" Cut="7.2606366872787476e-01" cType="1" res="-1.9936832785606384e-01" rms="3.7149199843406677e-01" purity="2.0479166507720947e-01" nType="0">
            <Node pos="l" depth="3" NCoef="0" IVar="-1" Cut="0.0000000000000000e+00" cType="1" res="-1.2557633221149445e-02" rms="2.9993146657943726e-01" purity="1.0554789751768112e-01" nType="-99"/>
            <Node pos="r" depth="3" NCoef="0" IVar="-1" Cut="0.0000000000000000e+00" cType="1" res="-8.5476338863372803e-03" rms="4.3238323926925659e-01" purity="3.1934219598770142e-01" nType="-99"/>
          </Node>
          <Node pos="r" depth="2" NCoef="0" IVar="-1" Cut="0.0000000000000000e+00" cType="1" res="-6.1755522619932890e-04" rms="4.3481156229972839e-01" purity="5.7240164279937744e-01" nType="-99"/>
        </Node>
        <Node pos="r" depth="1" NCoef="0" IVar="7" Cut="-2.4328695237636566e-01" cType="1" res="2.3187981918454170e-02" rms="4.1867616772651672e-01" purity="6.5678453445434570e-01" nType="0">
          <Node pos="l" depth="2" NCoef="0" IVar="6" Cut="7.6649498939514160e-01" cType="1" res="5.4016221314668655e-02" rms="4.0031078457832336e-01" purity="7.1855407953262329e-01" nType="0">
            <Node pos="l" depth="3" NCoef="0" IVar="-1" Cut="0.0000000000000000e+00" cType="1" res="-3.0387307051569223e-03" rms="4.6638178825378418e-01" purity="5.1224768161773682e-01" nType="-99"/>
            <Node pos="r" depth="3" NCoef="0" IVar="-1" Cut="0.0000000000000000e+00" cType="1" res="1.9358806312084198e-02" rms="3.5024377703666687e-01" purity="8.2869160175323486e-01" nType="-99"/>
          </Node>
          <Node pos="r" depth="2" NCoef="0" IVar="2" Cut="4.7737747192382812e+02" cType="1" res="-9.4216607511043549e-02" rms="4.6386188268661499e-01" purity="4.2154487967491150e-01" nType="0">
            <Node pos="l" depth="3" NCoef="0" IVar="-1" Cut="0.0000000000000000e+00" cType="1" res="-7.4600875377655029e-03" rms="4.5666739344596863e-01" purity="3.1820717453956604e-01" nType="-99"/>
            <Node pos="r" depth="3" NCoef="0" IVar="-1" Cut="0.0000000000000000e+00" cType="1" res="-4.0673087351024151e-03" rms="4.6978518366813660e-01" purity="5.7060468196868896e-01" nType="-99"/>
          </Node>
        </Node>
      </Node>
    </BinaryTree>
    <BinaryTree type="DecisionTree" boostWeight="1.0000000000000000e+00" itree="27">
      <Node pos="s" depth="0" NCoef="0" IVar="0" Cut="9.2031294107437134e-01" cType="1" res="-6.5414652228355408e-02" rms="4.2112547159194946e-01" purity="4.9276104569435120e-01" nType="0">
        <Node pos="l" depth="1" NCoef="0" IVar="7" Cut="-1.1698526144027710e+00" cType="1" res="-2.0786525309085846e-01" rms="3.3762699365615845e-01" purity="1.5166991949081421e-01" nType="0">
          <Node pos="l" depth="2" NCoef="0" IVar="-1" Cut="0.0000000000000000e+00" cType="1" res="-7.0884833112359047e-03" rms="4.0673974156379700e-01" purity="2.5860720872879028e-01" nType="-99"/>
          <Node pos="r" depth="2" NCoef="0" IVar="-1" Cut="0.0000000000000000e+00" cType="1" res="-1.2906637042760849e-02" rms="2.7368393540382385e-01" purity="8.5733748972415924e-02" nType="-99"/>
        </Node>
        <Node pos="r" depth="1" NCoef="0" IVar="7" Cut="-5.6887764483690262e-02" cType="1" res="-2.1325897425413132e-02" rms="4.3443155288696289e-01" purity="5.9832942485809326e-01" nType="0">
          <Node pos="l" depth="2" NCoef="0" IVar="5" Cut="4.3634590148925781e+01" cType="1" res="1.3204589486122131e-02" rms="4.2624348402023315e-01" purity="6.6436707973480225e-01" nType="0">
            <Node pos="l" depth="3" NCoef="0" IVar="-1" Cut="0.0000000000000000e+00" cType="1" res="1.0271629318594933e-02" rms="3.8254433870315552e-01" purity="7.6946592330932617e-01" nType="-99"/>
            <Node pos="r" depth="3" NCoef="0" IVar="-1" Cut="0.0000000000000000e+00" cType="1" res="-5.2074547857046127e-03" rms="4.7055032849311829e-01" purity="5.1602745056152344e-01" nType="-99"/>
          </Node>
          <Node pos="r" depth="2" NCoef="0" IVar="1" Cut="9.1582769155502319e-01" cType="1" res="-1.7093464732170105e-01" rms="4.3785312771797180e-01" purity="3.1221103668212891e-01" nType="0">
            <Node pos="l" depth="3" NCoef="0" IVar="-1" Cut="0.0000000000000000e+00" cType="1" res="-1.0654059238731861e-02" rms="4.2293736338615417e-01" purity="2.7666312456130981e-01" nType="-99"/>
            <Node pos="r" depth="3" NCoef="0" IVar="-1" Cut="0.0000000000000000e+00" cType="1" res="-9.4194151461124420e-03" rms="4.5469292998313904e-01" purity="3.5568270087242126e-01" nType="-99"/>
          </Node>
        </Node>
      </Node>
    </BinaryTree>
    <BinaryTree type="DecisionTree" boostWeight="1.0000000000000000e+00" itree="28">
      <Node pos="s" depth="0" NCoef="0" IVar="0" Cut="9.7214120626449585e-01" cType="1" res="-4.8008188605308533e-02" rms="4.1816553473472595e-01" purity="5.0648283958435059e-01" nType="0">
        <Node pos="l" depth="1" NCoef="0" IVar="2" Cut="1.0744738769531250e+03" cType="1" res="-1.4442794024944305e-01" rms="3.9486977458000183e-01" purity="2.8958103060722351e-01" nType="0">
          <Node pos="l" depth="2" NCoef="0" IVar="1" Cut="7.2688096761703491e-01" cType="1" res="-1.8017329275608063e-01" rms="3.6958253383636475e-01" purity="2.1305125951766968e-01" nType="0">
            <Node pos="l" depth="3" NCoef="0" IVar="-1" Cut="0.0000000000000000e+00" cType="1" res="-1.1998161673545837e-02" rms="2.9894763231277466e-01" purity="1.0797845572233200e-01" nType="-99"/>
            <Node pos="r" depth="3" NCoef="0" IVar="-1" Cut="0.0000000000000000e+00" cType="1" res="-6.9436584599316120e-03" rms="4.3434372544288635e-01" purity="3.4848108887672424e-01" nType="-99"/>
          </Node>
          <Node pos="r" depth="2" NCoef="0" IVar="-1" Cut="0.0000000000000000e+00" cType="1" res="8.0039486056193709e-04" rms="4.5791327953338623e-01" purity="6.1606466770172119e-01" nType="-99"/>
        </Node>
        <Node pos="r" depth="1" NCoef="0" IVar="4" Cut="2.0000000000000000e+00" cType="1" res="2.6298938319087029e-03" rms="2.2132161259651184e-01" purity="6.6395348310470581e-01" nType="0">
          <Node pos="l" depth="2" NCoef="0" IVar="1" Cut="9.1456770896911621e-01" cType="1" res="7.4496202170848846e-02" rms="3.7751755118370056e-01" purity="7.8506332635879517e-01" nType="0">
            <Node pos="l" depth="3" NCoef="0" IVar="-1" Cut="0.0000000000000000e+00" cType="1" res="3.2478328794240952e-03" rms="4.2209452390670776e-01" purity="6.9337058067321777e-01" nType="-99"/>
            <Node pos="r" depth="3" NCoef="0" IVar="-1" Cut="0.0000000000000000e+00" cType="1" res="2.1462108939886093e-02" rms="3.4257030487060547e-01" purity="8.4374284744262695e-01" nType="-99"/>
          </Node>
          <Node pos="r" depth="2" NCoef="0" IVar="7" Cut="-7.2172456979751587e-01" cType="1" res="-4.3627116829156876e-02" rms="4.6071755886077881e-01" purity="5.1258921623229980e-01" nType="0">
            <Node pos="l" depth="3" NCoef="0" IVar="-1" Cut="0.0000000000000000e+00" cType="1" res="9.6379721071571112e-05" rms="4.5916283130645752e-01" purity="5.9775346517562866e-01" nType="-99"/>
            <Node pos="r" depth="3" NCoef="0" IVar="-1" Cut="0.0000000000000000e+00" cType="1" res="-7.8757992014288902e-03" rms="4.5173871517181396e-01" purity="3.5157540440559387e-01" nType="-99"/>
          </Node>
        </Node>
      </Node>
    </BinaryTree>
    <BinaryTree type="DecisionTree" boostWeight="1.0000000000000000e+00" itree="29">
      <Node pos="s" depth="0" NCoef="0" IVar="0" Cut="8.8809651136398315e-01" cType="1" res="-4.9600124359130859e-02" rms="4.1544076800346375e-01" purity="4.9985066056251526e-01" nType="0">
        <Node pos="l" depth="1" NCoef="0" IVar="-1" Cut="0.0000000000000000e+00" cType="1" res="-1.1557834222912788e-02" rms="2.9815605282783508e-01" purity="1.1205630004405975e-01" nType="-99"/>
        <Node pos="r" depth="1" NCoef="0" IVar="4" Cut="2.0000000000000000e+00" cType="1" res="-1.8682004883885384e-02" rms="2.0672297477722168e-01" purity="5.8858525753021240e-01" nType="0">
          <Node pos="l" depth="2" NCoef="0" IVar="6" Cut="3.7270867824554443e-01" cType="1" res="5.5947508662939072e-02" rms="3.9246675372123718e-01" purity="7.2708636522293091e-01" nType="0">
            <Node pos="l" depth="3" NCoef="0" IVar="-1" Cut="0.0000000000000000e+00" cType="1" res="-6.2965555116534233e-03" rms="4.6730193495750427e-01" purity="4.6137171983718872e-01" nType="-99"/>
            <Node pos="r" depth="3" NCoef="0" IVar="-1" Cut="0.0000000000000000e+00" cType="1" res="1.6378810629248619e-02" rms="3.5863807797431946e-01" purity="8.0210387706756592e-01" nType="-99"/>
          </Node>
          <Node pos="r" depth="2" NCoef="0" IVar="2" Cut="1.0587875976562500e+03" cType="1" res="-8.0591186881065369e-02" rms="4.5277756452560425e-01" purity="4.3915906548500061e-01" nType="0">
            <Node pos="l" depth="3" NCoef="0" IVar="-1" Cut="0.0000000000000000e+00" cType="1" res="-7.2854375466704369e-03" rms="4.5287719368934631e-01" purity="3.5732269287109375e-01" nType="-99"/>
            <Node pos="r" depth="3" NCoef="0" IVar="-1" Cut="0.0000000000000000e+00" cType="1" res="6.7240456119179726e-03" rms="4.2834034562110901e-01" purity="7.3866117000579834e-01" nType="-99"/>
          </Node>
        </Node>
      </Node>
    </BinaryTree>
    <BinaryTree type="DecisionTree" boostWeight="1.0000000000000000e+00" itree="30">
      <Node pos="s" depth="0" NCoef="0" IVar="0" Cut="9.1607236862182617e-01" cType="1" res="-4.9019154161214828e-02" rms="4.1586768627166748e-01" purity="5.0651216506958008e-01" nType="0">
        <Node pos="l" depth="1" NCoef="0" IVar="5" Cut="3.8669002532958984e+01" cType="1" res="-1.8574784696102142e-01" rms="3.3973768353462219e-01" purity="1.5699999034404755e-01" nType="0">
          <Node pos="l" depth="2" NCoef="0" IVar="-1" Cut="0.0000000000000000e+00" cType="1" res="-6.0698343440890312e-03" rms="4.0291932225227356e-01" purity="2.5525602698326111e-01" nType="-99"/>
          <Node pos="r" depth="2" NCoef="0" IVar="-1" Cut="0.0000000000000000e+00" cType="1" res="-1.2162700295448303e-02" rms="2.7916938066482544e-01" purity="9.4059631228446960e-02" nType="-99"/>
        </Node>
        <Node pos="r" depth="1" NCoef="0" IVar="6" Cut="5.2642977237701416e-01" cType="1" res="-5.6759137660264969e-03" rms="4.2822462320327759e-01" purity="6.1730813980102539e-01" nType="0">
          <Node pos="l" depth="2" NCoef="0" IVar="5" Cut="2.5728921890258789e+01" cType="1" res="-1.0815028846263885e-01" rms="4.6280324459075928e-01" purity="4.1040402650833130e-01" nType="0">
            <Node pos="l" depth="3" NCoef="0" IVar="-1" Cut="0.0000000000000000e+00" cType="1" res="-1.9103855593129992e-03" rms="4.6851614117622375e-01" purity="5.7722949981689453e-01" nType="-99"/>
            <Node pos="r" depth="3" NCoef="0" IVar="-1" Cut="0.0000000000000000e+00" cType="1" res="-8.6943367496132851e-03" rms="4.5687395334243774e-01" purity="3.5195386409759521e-01" nType="-99"/>
          </Node>
          <Node pos="r" depth="2" NCoef="0" IVar="7" Cut="-8.3904218673706055e-01" cType="1" res="3.2540146261453629e-02" rms="4.0805566310882568e-01" purity="6.9446951150894165e-01" nType="0">
            <Node pos="l" depth="3" NCoef="0" IVar="-1" Cut="0.0000000000000000e+00" cType="1" res="1.8794979900121689e-02" rms="3.5393899679183960e-01" purity="8.3306431770324707e-01" nType="-99"/>
            <Node pos="r" depth="3" NCoef="0" IVar="-1" Cut="0.0000000000000000e+00" cType="1" res="-4.3761180713772774e-03" rms="4.6082687377929688e-01" purity="4.9531215429306030e-01" nType="-99"/>
          </Node>
        </Node>
      </Node>
    </BinaryTree>
    <BinaryTree type="DecisionTree" boostWeight="1.0000000000000000e+00" itree="31">
      <Node pos="s" depth="0" NCoef="0" IVar="1" Cut="8.2868838310241699e-01" cType="1" res="-6.1614111065864563e-02" rms="4.1349917650222778e-01" purity="4.9144792556762695e-01" nType="0">
        <Node pos="l" depth="1" NCoef="0" IVar="2" Cut="1.0575754394531250e+03" cType="1" res="-1.5026134252548218e-01" rms="3.8716006278991699e-01" purity="2.7961885929107666e-01" nType="0">
          <Node pos="l" depth="2" NCoef="0" IVar="0" Cut="8.8809651136398315e-01" cType="1" res="-1.8794927000999451e-01" rms="3.6396291851997375e-01" purity="2.0357830822467804e-01" nType="0">
            <Node pos="l" depth="3" NCoef="0" IVar="-1" Cut="0.0000000000000000e+00" cType="1" res="-1.2416721321642399e-02" rms="2.5268623232841492e-01" purity="7.0182420313358307e-02" nType="-99"/>
            <Node pos="r" depth="3" NCoef="0" IVar="-1" Cut="0.0000000000000000e+00" cType="1" res="-8.5116168484091759e-03" rms="4.2900332808494568e-01" purity="3.1332185864448547e-01" nType="-99"/>
          </Node>
          <Node pos="r" depth="2" NCoef="0" IVar="-1" Cut="0.0000000000000000e+00" cType="1" res="1.7144237644970417e-03" rms="4.3929180502891541e-01" purity="6.1790370941162109e-01" nType="-99"/>
        </Node>
        <Node pos="r" depth="1" NCoef="0" IVar="7" Cut="-4.7046631574630737e-01" cType="1" res="5.1129185594618320e-03" rms="4.2010462284088135e-01" purity="6.5089702606201172e-01" nType="0">
          <Node pos="l" depth="2" NCoef="0" IVar="6" Cut="2.8714540600776672e-01" cType="1" res="3.9166737347841263e-02" rms="4.0092888474464417e-01" purity="7.2495019435882568e-01" nType="0">
            <Node pos="l" depth="3" NCoef="0" IVar="-1" Cut="0.0000000000000000e+00" cType="1" res="-6.3627189956605434e-03" rms="4.7163364291191101e-01" purity="4.4054859876632690e-01" nType="-99"/>
            <Node pos="r" depth="3" NCoef="0" IVar="-1" Cut="0.0000000000000000e+00" cType="1" res="1.4423239044845104e-02" rms="3.6800172924995422e-01" purity="8.1136178970336914e-01" nType="-99"/>
          </Node>
          <Node pos="r" depth="2" NCoef="0" IVar="4" Cut="2.0000000000000000e+00" cType="1" res="-2.5697484612464905e-02" rms="1.3240823149681091e-01" purity="4.2323103547096252e-01" nType="0">
            <Node pos="l" depth="3" NCoef="0" IVar="-1" Cut="0.0000000000000000e+00" cType="1" res="-3.8193268701434135e-03" rms="4.7354826331138611e-01" purity="5.6402564048767090e-01" nType="-99"/>
            <Node pos="r" depth="3" NCoef="0" IVar="-1" Cut="0.0000000000000000e+00" cType="1" res="-8.6067607626318932e-03" rms="4.4074314832687378e-01" purity="3.0875247716903687e-01" nType="-99"/>
          </Node>
        </Node>
      </Node>
    </BinaryTree>
    <BinaryTree type="DecisionTree" boostWeight="1.0000000000000000e+00" itree="32">
      <Node pos="s" depth="0" NCoef="0" IVar="1" Cut="8.8579225540161133e-01" cType="1" res="-6.4121089875698090e-02" rms="4.1579073667526245e-01" purity="4.8921039700508118e-01" nType="0">
        <Node pos="l" depth="1" NCoef="0" IVar="0" Cut="9.7343766689300537e-01" cType="1" res="-1.3381928205490112e-01" rms="4.1067898273468018e-01" purity="3.3217003941535950e-01" nType="0">
          <Node pos="l" depth="2" NCoef="0" IVar="2" Cut="1.2371237792968750e+03" cType="1" res="-1.7420716583728790e-01" rms="3.8052183389663696e-01" purity="2.2670404613018036e-01" nType="0">
            <Node pos="l" depth="3" NCoef="0" IVar="-1" Cut="0.0000000000000000e+00" cType="1" res="-1.0903098620474339e-02" rms="3.4978097677230835e-01" purity="1.6826815903186798e-01" nType="-99"/>
            <Node pos="r" depth="3" NCoef="0" IVar="-1" Cut="0.0000000000000000e+00" cType="1" res="-2.5754305534064770e-03" rms="4.9049368500709534e-01" purity="5.4016822576522827e-01" nType="-99"/>
          </Node>
          <Node pos="r" depth="2" NCoef="0" IVar="5" Cut="3.8593383789062500e+01" cType="1" res="-6.3351333141326904e-02" rms="4.4997388124465942e-01" purity="5.1618498563766479e-01" nType="0">
            <Node pos="l" depth="3" NCoef="0" IVar="-1" Cut="0.0000000000000000e+00" cType="1" res="5.7573150843381882e-04" rms="4.4728296995162964e-01" purity="6.6636765003204346e-01" nType="-99"/>
            <Node pos="r" depth="3" NCoef="0" IVar="-1" Cut="0.0000000000000000e+00" cType="1" res="-8.0641657114028931e-03" rms="4.4405701756477356e-01" purity="3.8848173618316650e-01" nType="-99"/>
          </Node>
        </Node>
        <Node pos="r" depth="1" NCoef="0" IVar="7" Cut="-2.6667138934135437e-01" cType="1" res="1.9858825951814651e-02" rms="4.0628370642662048e-01" purity="6.7842960357666016e-01" nType="0">
          <Node pos="l" depth="2" NCoef="0" IVar="6" Cut="2.7749674394726753e-02" cType="1" res="6.2203481793403625e-02" rms="3.7863066792488098e-01" purity="7.5927531719207764e-01" nType="0">
            <Node pos="l" depth="3" NCoef="0" IVar="-1" Cut="0.0000000000000000e+00" cType="1" res="-8.0513646826148033e-03" rms="4.7830167412757874e-01" purity="4.1774046421051025e-01" nType="-99"/>
            <Node pos="r" depth="3" NCoef="0" IVar="-1" Cut="0.0000000000000000e+00" cType="1" res="2.1268339827656746e-02" rms="3.3662518858909607e-01" purity="8.4126609563827515e-01" nType="-99"/>
          </Node>
          <Node pos="r" depth="2" NCoef="0" IVar="-1" Cut="0.0000000000000000e+00" cType="1" res="-8.7935142219066620e-03" rms="4.6211498975753784e-01" purity="3.8694417476654053e-01" nType="-99"/>
        </Node>
      </Node>
    </BinaryTree>
    <BinaryTree type="DecisionTree" boostWeight="1.0000000000000000e+00" itree="33">
      <Node pos="s" depth="0" NCoef="0" IVar="1" Cut="7.7158451080322266e-01" cType="1" res="-5.6232199072837830e-02" rms="4.0956276655197144e-01" purity="4.9711936712265015e-01" nType="0">
        <Node pos="l" depth="1" NCoef="0" IVar="2" Cut="9.8041101074218750e+02" cType="1" res="-1.6311822831630707e-01" rms="3.7314867973327637e-01" purity="2.4392843246459961e-01" nType="0">
          <Node pos="l" depth="2" NCoef="0" IVar="0" Cut="9.7202414274215698e-01" cType="1" res="-2.0147392153739929e-01" rms="3.3959445357322693e-01" purity="1.6440334916114807e-01" nType="0">
            <Node pos="l" depth="3" NCoef="0" IVar="-1" Cut="0.0000000000000000e+00" cType="1" res="-1.2086468748748302e-02" rms="2.7106216549873352e-01" purity="8.7504424154758453e-02" nType="-99"/>
            <Node pos="r" depth="3" NCoef="0" IVar="-1" Cut="0.0000000000000000e+00" cType="1" res="-7.1922838687896729e-03" rms="4.6948686242103577e-01" purity="3.7682327628135681e-01" nType="-99"/>
          </Node>
          <Node pos="r" depth="2" NCoef="0" IVar="-1" Cut="0.0000000000000000e+00" cType="1" res="-8.0395885743200779e-04" rms="4.5347678661346436e-01" purity="5.6323987245559692e-01" nType="-99"/>
        </Node>
        <Node pos="r" depth="1" NCoef="0" IVar="4" Cut="3.0000000000000000e+00" cType="1" res="-7.5259269215166569e-03" rms="1.4433521032333374e-01" purity="6.3638502359390259e-01" nType="0">
          <Node pos="l" depth="2" NCoef="0" IVar="6" Cut="2.5128179788589478e-01" cType="1" res="4.0686927735805511e-02" rms="3.9603459835052490e-01" purity="7.2511333227157593e-01" nType="0">
            <Node pos="l" depth="3" NCoef="0" IVar="-1" Cut="0.0000000000000000e+00" cType="1" res="-6.0226004570722580e-03" rms="4.8193690180778503e-01" purity="4.7093775868415833e-01" nType="-99"/>
            <Node pos="r" depth="3" NCoef="0" IVar="-1" Cut="0.0000000000000000e+00" cType="1" res="1.1160636320710182e-02" rms="3.6832931637763977e-01" purity="7.8270912170410156e-01" nType="-99"/>
          </Node>
          <Node pos="r" depth="2" NCoef="0" IVar="2" Cut="7.5327502441406250e+02" cType="1" res="-9.2103689908981323e-02" rms="4.5045077800750732e-01" purity="4.1608855128288269e-01" nType="0">
            <Node pos="l" depth="3" NCoef="0" IVar="-1" Cut="0.0000000000000000e+00" cType="1" res="-7.5875511392951012e-03" rms="4.4654461741447449e-01" purity="3.0509772896766663e-01" nType="-99"/>
            <Node pos="r" depth="3" NCoef="0" IVar="-1" Cut="0.0000000000000000e+00" cType="1" res="-2.1052469965070486e-03" rms="4.4958230853080750e-01" purity="6.3708281517028809e-01" nType="-99"/>
          </Node>
        </Node>
      </Node>
    </BinaryTree>
    <BinaryTree type="DecisionTree" boostWeight="1.0000000000000000e+00" itree="34">
      <Node pos="s" depth="0" NCoef="0" IVar="1" Cut="8.8569802045822144e-01" cType="1" res="-5.8898571878671646e-02" rms="4.1355729103088379e-01" purity="4.9836793541908264e-01" nType="0">
        <Node pos="l" depth="1" NCoef="0" IVar="2" Cut="6.2912957763671875e+02" cType="1" res="-1.2108160555362701e-01" rms="4.0456372499465942e-01" purity="3.4099152684211731e-01" nType="0">
          <Node pos="l" depth="2" NCoef="0" IVar="0" Cut="9.7293537855148315e-01" cType="1" res="-1.8751814961433411e-01" rms="3.5643085837364197e-01" purity="1.7756097018718719e-01" nType="0">
            <Node pos="l" depth="3" NCoef="0" IVar="-1" Cut="0.0000000000000000e+00" cType="1" res="-1.1633479036390781e-02" rms="2.8783205151557922e-01" purity="9.8173044621944427e-02" nType="-99"/>
            <Node pos="r" depth="3" NCoef="0" IVar="-1" Cut="0.0000000000000000e+00" cType="1" res="-7.1363165043294430e-03" rms="4.5655581355094910e-01" purity="3.3678665757179260e-01" nType="-99"/>
          </Node>
          <Node pos="r" depth="2" NCoef="0" IVar="1" Cut="6.5455633401870728e-01" cType="1" res="-2.6788922026753426e-02" rms="4.4777581095695496e-01" purity="5.7294672727584839e-01" nType="0">
            <Node pos="l" depth="3" NCoef="0" IVar="-1" Cut="0.0000000000000000e+00" cType="1" res="-8.5930638015270233e-03" rms="4.5120635628700256e-01" purity="3.7527585029602051e-01" nType="-99"/>
            <Node pos="r" depth="3" NCoef="0" IVar="-1" Cut="0.0000000000000000e+00" cType="1" res="4.3498766608536243e-03" rms="4.3406975269317627e-01" purity="6.9398188591003418e-01" nType="-99"/>
          </Node>
        </Node>
        <Node pos="r" depth="1" NCoef="0" IVar="7" Cut="2.4157660081982613e-02" cType="1" res="1.1815229430794716e-02" rms="4.1230961680412292e-01" purity="6.7733454704284668e-01" nType="0">
          <Node pos="l" depth="2" NCoef="0" IVar="7" Cut="-2.6748752593994141e+00" cType="1" res="4.2906168848276138e-02" rms="3.9503216743469238e-01" purity="7.3996520042419434e-01" nType="0">
            <Node pos="l" depth="3" NCoef="0" IVar="-1" Cut="0.0000000000000000e+00" cType="1" res="-4.0258406661450863e-03" rms="3.9557164907455444e-01" purity="6.7801672220230103e-01" nType="-99"/>
            <Node pos="r" depth="3" NCoef="0" IVar="-1" Cut="0.0000000000000000e+00" cType="1" res="1.0043170303106308e-02" rms="3.9166313409805298e-01" purity="7.6049584150314331e-01" nType="-99"/>
          </Node>
          <Node pos="r" depth="2" NCoef="0" IVar="-1" Cut="0.0000000000000000e+00" cType="1" res="-9.2669632285833359e-03" rms="4.5926573872566223e-01" purity="3.6070424318313599e-01" nType="-99"/>
        </Node>
      </Node>
    </BinaryTree>
    <BinaryTree type="DecisionTree" boostWeight="1.0000000000000000e+00" itree="35">
      <Node pos="s" depth="0" NCoef="0" IVar="0" Cut="9.1607236862182617e-01" cType="1" res="-3.9538327604532242e-02" rms="4.0627875924110413e-01" purity="5.0978314876556396e-01" nType="0">
        <Node pos="l" depth="1" NCoef="0" IVar="5" Cut="4.1505115509033203e+01" cType="1" res="-1.6988645493984222e-01" rms="3.3443912863731384e-01" purity="1.5361344814300537e-01" nType="0">
          <Node pos="l" depth="2" NCoef="0" IVar="-1" Cut="0.0000000000000000e+00" cType="1" res="-7.2855777107179165e-03" rms="3.7588220834732056e-01" purity="2.1596644818782806e-01" nType="-99"/>
          <Node pos="r" depth="2" NCoef="0" IVar="-1" Cut="0.0000000000000000e+00" cType="1" res="-1.0910969227552414e-02" rms="2.9620447754859924e-01" purity="1.0825837403535843e-01" nType="-99"/>
        </Node>
        <Node pos="r" depth="1" NCoef="0" IVar="4" Cut="2.0000000000000000e+00" cType="1" res="-9.0818051248788834e-03" rms="1.8242028355598450e-01" purity="6.1878997087478638e-01" nType="0">
          <Node pos="l" depth="2" NCoef="0" IVar="6" Cut="9.0592795610427856e-01" cType="1" res="5.8895394206047058e-02" rms="3.8250333070755005e-01" purity="7.6732277870178223e-01" nType="0">
            <Node pos="l" depth="3" NCoef="0" IVar="-1" Cut="0.0000000000000000e+00" cType="1" res="-2.4735571350902319e-03" rms="4.6694445610046387e-01" purity="5.9422248601913452e-01" nType="-99"/>
            <Node pos="r" depth="3" NCoef="0" IVar="-1" Cut="0.0000000000000000e+00" cType="1" res="2.0885905250906944e-02" rms="3.3013898134231567e-01" purity="8.4596097469329834e-01" nType="-99"/>
          </Node>
          <Node pos="r" depth="2" NCoef="0" IVar="2" Cut="1.2479118652343750e+03" cType="1" res="-6.5397672355175018e-02" rms="4.4509845972061157e-01" purity="4.5195698738098145e-01" nType="0">
            <Node pos="l" depth="3" NCoef="0" IVar="-1" Cut="0.0000000000000000e+00" cType="1" res="-6.3713612034916878e-03" rms="4.5084956288337708e-01" purity="3.8421705365180969e-01" nType="-99"/>
            <Node pos="r" depth="3" NCoef="0" IVar="-1" Cut="0.0000000000000000e+00" cType="1" res="2.2993046790361404e-02" rms="3.6211162805557251e-01" purity="8.4187901020050049e-01" nType="-99"/>
          </Node>
        </Node>
      </Node>
    </BinaryTree>
    <BinaryTree type="DecisionTree" boostWeight="1.0000000000000000e+00" itree="36">
      <Node pos="s" depth="0" NCoef="0" IVar="0" Cut="9.1607236862182617e-01" cType="1" res="-5.0703886896371841e-02" rms="4.0987765789031982e-01" purity="5.0338071584701538e-01" nType="0">
        <Node pos="l" depth="1" NCoef="0" IVar="5" Cut="3.8669002532958984e+01" cType="1" res="-1.7694097757339478e-01" rms="3.2544773817062378e-01" purity="1.4531835913658142e-01" nType="0">
          <Node pos="l" depth="2" NCoef="0" IVar="-1" Cut="0.0000000000000000e+00" cType="1" res="-6.7134071141481400e-03" rms="3.7434157729148865e-01" purity="2.2443534433841705e-01" nType="-99"/>
          <Node pos="r" depth="2" NCoef="0" IVar="-1" Cut="0.0000000000000000e+00" cType="1" res="-1.1513262055814266e-02" rms="2.8282615542411804e-01" purity="9.5439352095127106e-02" nType="-99"/>
        </Node>
        <Node pos="r" depth="1" NCoef="0" IVar="4" Cut="1.0000000000000000e+00" cType="1" res="-1.3504851609468460e-02" rms="2.0730932056903839e-01" purity="6.1351406574249268e-01" nType="0">
          <Node pos="l" depth="2" NCoef="0" IVar="7" Cut="-6.9083797931671143e-01" cType="1" res="8.0767564475536346e-02" rms="3.5575976967811584e-01" purity="8.1409275531768799e-01" nType="0">
            <Node pos="l" depth="3" NCoef="0" IVar="-1" Cut="0.0000000000000000e+00" cType="1" res="2.4527944624423981e-02" rms="3.2426956295967102e-01" purity="8.6674189567565918e-01" nType="-99"/>
            <Node pos="r" depth="3" NCoef="0" IVar="-1" Cut="0.0000000000000000e+00" cType="1" res="8.5495581151917577e-04" rms="4.3999755382537842e-01" purity="6.3269305229187012e-01" nType="-99"/>
          </Node>
          <Node pos="r" depth="2" NCoef="0" IVar="6" Cut="-1.2037958204746246e-01" cType="1" res="-5.4002329707145691e-02" rms="4.4678714871406555e-01" purity="5.2230715751647949e-01" nType="0">
            <Node pos="l" depth="3" NCoef="0" IVar="-1" Cut="0.0000000000000000e+00" cType="1" res="-9.7382459789514542e-03" rms="4.4432803988456726e-01" purity="2.8568723797798157e-01" nType="-99"/>
            <Node pos="r" depth="3" NCoef="0" IVar="-1" Cut="0.0000000000000000e+00" cType="1" res="-2.5234553031623363e-03" rms="4.4307759404182434e-01" purity="5.7907289266586304e-01" nType="-99"/>
          </Node>
        </Node>
      </Node>
    </BinaryTree>
    <BinaryTree type="DecisionTree" boostWeight="1.0000000000000000e+00" itree="37">
      <Node pos="s" depth="0" NCoef="0" IVar="0" Cut="9.4839376211166382e-01" cType="1" res="-4.6406440436840057e-02" rms="4.0731111168861389e-01" purity="5.0500458478927612e-01" nType="0">
        <Node pos="l" depth="1" NCoef="0" IVar="2" Cut="6.4008789062500000e+02" cType="1" res="-1.5298850834369659e-01" rms="3.6137092113494873e-01" purity="2.1378353238105774e-01" nType="0">
          <Node pos="l" depth="2" NCoef="0" IVar="-1" Cut="0.0000000000000000e+00" cType="1" res="-1.1156673543155193e-02" rms="2.8324356675148010e-01" purity="9.5749489963054657e-02" nType="-99"/>
          <Node pos="r" depth="2" NCoef="0" IVar="3" Cut="4.5508022308349609e+00" cType="1" res="-6.5295040607452393e-02" rms="4.4775485992431641e-01" purity="4.0665209293365479e-01" nType="0">
