<?xml version="1.0"?>
<MethodSetup Method="BDT::BDTG">
  <GeneralInfo>
    <Info name="TMVA Release" value="4.2.0 [262656]"/>
    <Info name="ROOT Release" value="6.02/05 [393733]"/>
    <Info name="Creator" value="nchernya"/>
    <Info name="Date" value="Thu Nov 26 18:36:44 2015"/>
    <Info name="Host" value="Linux vocms029.cern.ch 2.6.32-504.12.2.el6.x86_64 #1 SMP Thu Mar 12 07:33:00 CET 2015 x86_64 x86_64 x86_64 GNU/Linux"/>
    <Info name="Dir" value="/shome/nchernya/Hbb/tmva/main_mva"/>
    <Info name="Training events" value="107655"/>
    <Info name="TrainingTime" value="1.89051771e+01"/>
    <Info name="AnalysisType" value="Classification"/>
  </GeneralInfo>
  <Options>
    <Option name="V" modified="Yes">False</Option>
    <Option name="VerbosityLevel" modified="No">Default</Option>
    <Option name="VarTransform" modified="No">None</Option>
    <Option name="H" modified="Yes">False</Option>
    <Option name="CreateMVAPdfs" modified="No">False</Option>
    <Option name="IgnoreNegWeightsInTraining" modified="No">False</Option>
    <Option name="NTrees" modified="Yes">120</Option>
    <Option name="MaxDepth" modified="Yes">3</Option>
    <Option name="MinNodeSize" modified="Yes">5%</Option>
    <Option name="nCuts" modified="Yes">20</Option>
    <Option name="BoostType" modified="Yes">Grad</Option>
    <Option name="AdaBoostR2Loss" modified="No">quadratic</Option>
    <Option name="UseBaggedBoost" modified="Yes">True</Option>
    <Option name="Shrinkage" modified="Yes">1.000000e-01</Option>
    <Option name="AdaBoostBeta" modified="No">5.000000e-01</Option>
    <Option name="UseRandomisedTrees" modified="No">False</Option>
    <Option name="UseNvars" modified="No">3</Option>
    <Option name="UsePoissonNvars" modified="No">True</Option>
    <Option name="BaggedSampleFraction" modified="Yes">5.000000e-01</Option>
    <Option name="UseYesNoLeaf" modified="No">True</Option>
    <Option name="NegWeightTreatment" modified="Yes">ignorenegweightsintraining</Option>
    <Option name="Css" modified="No">1.000000e+00</Option>
    <Option name="Cts_sb" modified="No">1.000000e+00</Option>
    <Option name="Ctb_ss" modified="No">1.000000e+00</Option>
    <Option name="Cbb" modified="No">1.000000e+00</Option>
    <Option name="NodePurityLimit" modified="No">5.000000e-01</Option>
    <Option name="SeparationType" modified="No">giniindex</Option>
    <Option name="DoBoostMonitor" modified="No">False</Option>
    <Option name="UseFisherCuts" modified="No">False</Option>
    <Option name="MinLinCorrForFisher" modified="No">8.000000e-01</Option>
    <Option name="UseExclusiveVars" modified="No">False</Option>
    <Option name="DoPreselection" modified="No">False</Option>
    <Option name="SigToBkgFraction" modified="No">1.000000e+00</Option>
    <Option name="PruneMethod" modified="No">nopruning</Option>
    <Option name="PruneStrength" modified="No">0.000000e+00</Option>
    <Option name="PruningValFraction" modified="No">5.000000e-01</Option>
    <Option name="nEventsMin" modified="No">0</Option>
    <Option name="UseBaggedGrad" modified="No">False</Option>
    <Option name="GradBaggingFraction" modified="No">5.000000e-01</Option>
    <Option name="UseNTrainEvents" modified="No">0</Option>
    <Option name="NNodesMax" modified="No">0</Option>
  </Options>
  <Variables NVar="11">
    <Variable VarIndex="0" Expression="Mqq" Label="Mqq" Title="Mqq" Unit="" Internal="Mqq" Type="F" Min="4.60884766e+02" Max="7.52580811e+03"/>
    <Variable VarIndex="1" Expression="DeltaPhiQQ" Label="DeltaPhiQQ" Title="DeltaPhiQQ" Unit="" Internal="DeltaPhiQQ" Type="F" Min="4.26769257e-05" Max="3.14158702e+00"/>
    <Variable VarIndex="2" Expression="SoftN5" Label="SoftN5" Title="SoftN5" Unit="" Internal="SoftN5" Type="F" Min="0.00000000e+00" Max="1.90000000e+01"/>
    <Variable VarIndex="3" Expression="HTsoft" Label="HTsoft" Title="HTsoft" Unit="" Internal="HTsoft" Type="F" Min="0.00000000e+00" Max="3.16238922e+02"/>
    <Variable VarIndex="4" Expression="CSV1" Label="CSV1" Title="CSV1" Unit="" Internal="CSV1" Type="F" Min="0.00000000e+00" Max="1.00000000e+00"/>
    <Variable VarIndex="5" Expression="CSV2" Label="CSV2" Title="CSV2" Unit="" Internal="CSV2" Type="F" Min="0.00000000e+00" Max="1.00000000e+00"/>
    <Variable VarIndex="6" Expression="DeltaEtaQB1" Label="DeltaEtaQB1" Title="DeltaEtaQB1" Unit="" Internal="DeltaEtaQB1" Type="F" Min="-4.03729630e+00" Max="8.62414646e+00"/>
    <Variable VarIndex="7" Expression="DeltaEtaQB2" Label="DeltaEtaQB2" Title="DeltaEtaQB2" Unit="" Internal="DeltaEtaQB2" Type="F" Min="-8.53793621e+00" Max="3.70558238e+00"/>
    <Variable VarIndex="8" Expression="qgl1_VBF" Label="qgl1_VBF" Title="qgl1_VBF" Unit="" Internal="qgl1_VBF" Type="F" Min="5.22964858e-02" Max="9.50037003e-01"/>
    <Variable VarIndex="9" Expression="qgl2_VBF" Label="qgl2_VBF" Title="qgl2_VBF" Unit="" Internal="qgl2_VBF" Type="F" Min="1.08143967e-02" Max="9.20757651e-01"/>
    <Variable VarIndex="10" Expression="Jet5_pt" Label="Jet5_pt" Title="Jet5_pt" Unit="" Internal="Jet5_pt" Type="F" Min="1.50002890e+01" Max="1.92030746e+02"/>
  </Variables>
  <Spectators NSpec="0"/>
  <Classes NClass="2">
    <Class Name="Signal" Index="0"/>
    <Class Name="Background" Index="1"/>
  </Classes>
  <Transformations NTransformations="0"/>
  <MVAPdfs/>
  <Weights NTrees="120" AnalysisType="1">
    <BinaryTree type="DecisionTree" boostWeight="1.0000000000000000e+00" itree="0">
      <Node pos="s" depth="0" NCoef="0" IVar="5" Cut="6.1904764175415039e-01" cType="1" res="1.0246202582493424e-03" rms="4.9999895691871643e-01" purity="5.0102460384368896e-01" nType="0">
        <Node pos="l" depth="1" NCoef="0" IVar="4" Cut="9.5238095521926880e-01" cType="1" res="-2.4445447325706482e-01" rms="4.3616741895675659e-01" purity="2.5554552674293518e-01" nType="0">
          <Node pos="l" depth="2" NCoef="0" IVar="9" Cut="5.7421928644180298e-01" cType="1" res="-3.4128245711326599e-01" rms="3.6541247367858887e-01" purity="1.5871752798557281e-01" nType="0">
            <Node pos="l" depth="3" NCoef="0" IVar="-1" Cut="0.0000000000000000e+00" cType="1" res="-6.4808055758476257e-02" rms="3.0640566349029541e-01" purity="1.0488535463809967e-01" nType="-99"/>
            <Node pos="r" depth="3" NCoef="0" IVar="-1" Cut="0.0000000000000000e+00" cType="1" res="-1.5640238299965858e-02" rms="4.5985180139541626e-01" purity="3.0369329452514648e-01" nType="-99"/>
          </Node>
          <Node pos="r" depth="2" NCoef="0" IVar="2" Cut="1.5238095521926880e+00" cType="1" res="-9.8699763417243958e-02" rms="4.9016156792640686e-01" purity="4.0130022168159485e-01" nType="0">
            <Node pos="l" depth="3" NCoef="0" IVar="-1" Cut="0.0000000000000000e+00" cType="1" res="4.0751387132331729e-04" rms="4.9993890523910522e-01" purity="5.0781553983688354e-01" nType="-99"/>
            <Node pos="r" depth="3" NCoef="0" IVar="-1" Cut="0.0000000000000000e+00" cType="1" res="-2.1097160875797272e-02" rms="4.4028627872467041e-01" purity="2.6304432749748230e-01" nType="-99"/>
          </Node>
        </Node>
        <Node pos="r" depth="1" NCoef="0" IVar="2" Cut="1.4285714626312256e+00" cType="1" res="2.3945115506649017e-01" rms="4.3893408775329590e-01" purity="7.3945116996765137e-01" nType="0">
          <Node pos="l" depth="2" NCoef="0" IVar="5" Cut="8.7309771776199341e-01" cType="1" res="3.4093654155731201e-01" rms="3.6573526263237000e-01" purity="8.4093660116195679e-01" nType="0">
            <Node pos="l" depth="3" NCoef="0" IVar="-1" Cut="0.0000000000000000e+00" cType="1" res="9.0203098952770233e-03" rms="4.3786117434501648e-01" purity="7.4140751361846924e-01" nType="-99"/>
            <Node pos="r" depth="3" NCoef="0" IVar="-1" Cut="0.0000000000000000e+00" cType="1" res="1.2346838600933552e-02" rms="3.1289005279541016e-01" purity="8.8999974727630615e-01" nType="-99"/>
          </Node>
          <Node pos="r" depth="2" NCoef="0" IVar="4" Cut="9.5238095521926880e-01" cType="1" res="7.5539410114288330e-02" rms="4.9426084756851196e-01" purity="5.7553941011428833e-01" nType="0">
            <Node pos="l" depth="3" NCoef="0" IVar="-1" Cut="0.0000000000000000e+00" cType="1" res="-1.1378883384168148e-02" rms="4.7462877631187439e-01" purity="3.4275010228157043e-01" nType="-99"/>
            <Node pos="r" depth="3" NCoef="0" IVar="-1" Cut="0.0000000000000000e+00" cType="1" res="6.7663788795471191e-03" rms="4.7230273485183716e-01" purity="6.6410398483276367e-01" nType="-99"/>
          </Node>
        </Node>
      </Node>
    </BinaryTree>
    <BinaryTree type="DecisionTree" boostWeight="1.0000000000000000e+00" itree="1">
      <Node pos="s" depth="0" NCoef="0" IVar="5" Cut="6.6666668653488159e-01" cType="1" res="1.1206611059606075e-02" rms="4.9254423379898071e-01" purity="5.0455880165100098e-01" nType="0">
        <Node pos="l" depth="1" NCoef="0" IVar="4" Cut="9.5238095521926880e-01" cType="1" res="-2.1345065534114838e-01" rms="4.3951922655105591e-01" purity="2.6994317770004272e-01" nType="0">
          <Node pos="l" depth="2" NCoef="0" IVar="2" Cut="7.1428573131561279e-01" cType="1" res="-3.1217095255851746e-01" rms="3.6721479892730713e-01" purity="1.6238756477832794e-01" nType="0">
            <Node pos="l" depth="3" NCoef="0" IVar="-1" Cut="0.0000000000000000e+00" cType="1" res="-1.3740279711782932e-02" rms="4.5798313617706299e-01" purity="3.0313476920127869e-01" nType="-99"/>
            <Node pos="r" depth="3" NCoef="0" IVar="-1" Cut="0.0000000000000000e+00" cType="1" res="-5.3531467914581299e-02" rms="3.2454180717468262e-01" purity="1.2101335078477859e-01" nType="-99"/>
          </Node>
          <Node pos="r" depth="2" NCoef="0" IVar="2" Cut="1.5238095521926880e+00" cType="1" res="-7.2572827339172363e-02" rms="4.9260833859443665e-01" purity="4.2342942953109741e-01" nType="0">
            <Node pos="l" depth="3" NCoef="0" IVar="-1" Cut="0.0000000000000000e+00" cType="1" res="1.9488455727696419e-03" rms="4.9830403923988342e-01" purity="5.3985846042633057e-01" nType="-99"/>
            <Node pos="r" depth="3" NCoef="0" IVar="-1" Cut="0.0000000000000000e+00" cType="1" res="-1.9223885610699654e-02" rms="4.4375574588775635e-01" purity="2.6998063921928406e-01" nType="-99"/>
          </Node>
        </Node>
        <Node pos="r" depth="1" NCoef="0" IVar="2" Cut="2.2857143878936768e+00" cType="1" res="2.4972610175609589e-01" rms="4.2964562773704529e-01" purity="7.5365108251571655e-01" nType="0">
          <Node pos="l" depth="2" NCoef="0" IVar="4" Cut="9.5238095521926880e-01" cType="1" res="3.1311139464378357e-01" rms="3.8527944684028625e-01" purity="8.1783646345138550e-01" nType="0">
            <Node pos="l" depth="3" NCoef="0" IVar="-1" Cut="0.0000000000000000e+00" cType="1" res="5.6296950206160545e-03" rms="4.8079651594161987e-01" purity="6.3315719366073608e-01" nType="-99"/>
            <Node pos="r" depth="3" NCoef="0" IVar="-1" Cut="0.0000000000000000e+00" cType="1" res="1.1624570935964584e-02" rms="3.4489753842353821e-01" purity="8.6180567741394043e-01" nType="-99"/>
          </Node>
          <Node pos="r" depth="2" NCoef="0" IVar="-1" Cut="0.0000000000000000e+00" cType="1" res="-9.8363403230905533e-04" rms="4.9865636229515076e-01" purity="4.8249042034149170e-01" nType="-99"/>
        </Node>
      </Node>
    </BinaryTree>
    <BinaryTree type="DecisionTree" boostWeight="1.0000000000000000e+00" itree="2">
      <Node pos="s" depth="0" NCoef="0" IVar="5" Cut="7.1428573131561279e-01" cType="1" res="1.5007329173386097e-02" rms="4.8627030849456787e-01" purity="5.0307309627532959e-01" nType="0">
        <Node pos="l" depth="1" NCoef="0" IVar="4" Cut="9.5238095521926880e-01" cType="1" res="-1.9080689549446106e-01" rms="4.4024252891540527e-01" purity="2.7989408373832703e-01" nType="0">
          <Node pos="l" depth="2" NCoef="0" IVar="0" Cut="1.8082867431640625e+03" cType="1" res="-2.8686159849166870e-01" rms="3.6955115199089050e-01" purity="1.6768692433834076e-01" nType="0">
            <Node pos="l" depth="3" NCoef="0" IVar="-1" Cut="0.0000000000000000e+00" cType="1" res="-4.8544090241193771e-02" rms="3.2910796999931335e-01" purity="1.2636135518550873e-01" nType="-99"/>
            <Node pos="r" depth="3" NCoef="0" IVar="-1" Cut="0.0000000000000000e+00" cType="1" res="-1.2833223678171635e-02" rms="4.5294463634490967e-01" purity="2.9969134926795959e-01" nType="-99"/>
          </Node>
          <Node pos="r" depth="2" NCoef="0" IVar="2" Cut="1.5238095521926880e+00" cType="1" res="-5.5568665266036987e-02" rms="4.9308350682258606e-01" purity="4.3787381052970886e-01" nType="0">
            <Node pos="l" depth="3" NCoef="0" IVar="-1" Cut="0.0000000000000000e+00" cType="1" res="2.4744595866650343e-03" rms="4.9689394235610962e-01" purity="5.5295044183731079e-01" nType="-99"/>
            <Node pos="r" depth="3" NCoef="0" IVar="-1" Cut="0.0000000000000000e+00" cType="1" res="-1.6738574951887131e-02" rms="4.4976440072059631e-01" purity="2.8335881233215332e-01" nType="-99"/>
          </Node>
        </Node>
        <Node pos="r" depth="1" NCoef="0" IVar="2" Cut="1.3333333730697632e+00" cType="1" res="2.5282108783721924e-01" rms="4.2453938722610474e-01" purity="7.6095151901245117e-01" nType="0">
          <Node pos="l" depth="2" NCoef="0" IVar="5" Cut="8.9121031761169434e-01" cType="1" res="3.4769317507743835e-01" rms="3.4801802039146423e-01" purity="8.5867536067962646e-01" nType="0">
            <Node pos="l" depth="3" NCoef="0" IVar="-1" Cut="0.0000000000000000e+00" cType="1" res="9.9018421024084091e-03" rms="4.0690374374389648e-01" purity="7.9010707139968872e-01" nType="-99"/>
            <Node pos="r" depth="3" NCoef="0" IVar="-1" Cut="0.0000000000000000e+00" cType="1" res="1.2061784975230694e-02" rms="3.0758649110794067e-01" purity="8.9411020278930664e-01" nType="-99"/>
          </Node>
          <Node pos="r" depth="2" NCoef="0" IVar="5" Cut="8.7757539749145508e-01" cType="1" res="9.2546559870243073e-02" rms="4.8909226059913635e-01" purity="5.9585928916931152e-01" nType="0">
            <Node pos="l" depth="3" NCoef="0" IVar="-1" Cut="0.0000000000000000e+00" cType="1" res="-4.1962931863963604e-03" rms="4.9326857924461365e-01" purity="4.3131446838378906e-01" nType="-99"/>
            <Node pos="r" depth="3" NCoef="0" IVar="-1" Cut="0.0000000000000000e+00" cType="1" res="7.0453695952892303e-03" rms="4.6608906984329224e-01" purity="6.7840278148651123e-01" nType="-99"/>
          </Node>
        </Node>
      </Node>
    </BinaryTree>
    <BinaryTree type="DecisionTree" boostWeight="1.0000000000000000e+00" itree="3">
      <Node pos="s" depth="0" NCoef="0" IVar="5" Cut="6.6666668653488159e-01" cType="1" res="9.5547493547201157e-03" rms="4.8061966896057129e-01" purity="4.9199846386909485e-01" nType="0">
        <Node pos="l" depth="1" NCoef="0" IVar="4" Cut="9.5238095521926880e-01" cType="1" res="-1.9174787402153015e-01" rms="4.2961215972900391e-01" purity="2.6407802104949951e-01" nType="0">
          <Node pos="l" depth="2" NCoef="0" IVar="5" Cut="3.8090494275093079e-01" cType="1" res="-2.7018186450004578e-01" rms="3.6418491601943970e-01" purity="1.6261076927185059e-01" nType="0">
            <Node pos="l" depth="3" NCoef="0" IVar="-1" Cut="0.0000000000000000e+00" cType="1" res="-4.6507317572832108e-02" rms="3.2603383064270020e-01" purity="1.2414187937974930e-01" nType="-99"/>
            <Node pos="r" depth="3" NCoef="0" IVar="-1" Cut="0.0000000000000000e+00" cType="1" res="-1.3719921931624413e-02" rms="4.4159311056137085e-01" purity="2.7800717949867249e-01" nType="-99"/>
          </Node>
          <Node pos="r" depth="2" NCoef="0" IVar="2" Cut="1.5238095521926880e+00" cType="1" res="-7.6945282518863678e-02" rms="4.8826259374618530e-01" purity="4.1259399056434631e-01" nType="0">
            <Node pos="l" depth="3" NCoef="0" IVar="-1" Cut="0.0000000000000000e+00" cType="1" res="1.3396554859355092e-03" rms="4.9906134605407715e-01" purity="5.2924728393554688e-01" nType="-99"/>
            <Node pos="r" depth="3" NCoef="0" IVar="-1" Cut="0.0000000000000000e+00" cType="1" res="-1.9483691081404686e-02" rms="4.3703302741050720e-01" purity="2.5748819112777710e-01" nType="-99"/>
          </Node>
        </Node>
        <Node pos="r" depth="1" NCoef="0" IVar="2" Cut="1.5238095521926880e+00" cType="1" res="2.2822523117065430e-01" rms="4.3542385101318359e-01" purity="7.3958325386047363e-01" nType="0">
          <Node pos="l" depth="2" NCoef="0" IVar="5" Cut="8.8897281885147095e-01" cType="1" res="3.2643976807594299e-01" rms="3.6356082558631897e-01" purity="8.4234797954559326e-01" nType="0">
            <Node pos="l" depth="3" NCoef="0" IVar="-1" Cut="0.0000000000000000e+00" cType="1" res="9.0162828564643860e-03" rms="4.2694279551506042e-01" purity="7.5874972343444824e-01" nType="-99"/>
            <Node pos="r" depth="3" NCoef="0" IVar="-1" Cut="0.0000000000000000e+00" cType="1" res="1.1767236515879631e-02" rms="3.1485477089881897e-01" purity="8.8831806182861328e-01" nType="-99"/>
          </Node>
          <Node pos="r" depth="2" NCoef="0" IVar="5" Cut="9.0478110313415527e-01" cType="1" res="6.1358854174613953e-02" rms="4.9286207556724548e-01" purity="5.6498605012893677e-01" nType="0">
            <Node pos="l" depth="3" NCoef="0" IVar="-1" Cut="0.0000000000000000e+00" cType="1" res="-4.2967912741005421e-03" rms="4.9200919270515442e-01" purity="4.2720550298690796e-01" nType="-99"/>
            <Node pos="r" depth="3" NCoef="0" IVar="-1" Cut="0.0000000000000000e+00" cType="1" res="6.9920569658279419e-03" rms="4.6497070789337158e-01" purity="6.8156898021697998e-01" nType="-99"/>
          </Node>
        </Node>
      </Node>
    </BinaryTree>
    <BinaryTree type="DecisionTree" boostWeight="1.0000000000000000e+00" itree="4">
      <Node pos="s" depth="0" NCoef="0" IVar="5" Cut="7.6190477609634399e-01" cType="1" res="2.5096314027905464e-02" rms="4.7600820660591125e-01" purity="5.0247025489807129e-01" nType="0">
        <Node pos="l" depth="1" NCoef="0" IVar="4" Cut="9.0476191043853760e-01" cType="1" res="-1.5198577940464020e-01" rms="4.4231721758842468e-01" purity="2.9584723711013794e-01" nType="0">
          <Node pos="l" depth="2" NCoef="0" IVar="10" Cut="2.2856121063232422e+01" cType="1" res="-2.5852492451667786e-01" rms="3.6023589968681335e-01" purity="1.6014926135540009e-01" nType="0">
            <Node pos="l" depth="3" NCoef="0" IVar="-1" Cut="0.0000000000000000e+00" cType="1" res="-1.6557304188609123e-02" rms="4.2293661832809448e-01" purity="2.4807336926460266e-01" nType="-99"/>
            <Node pos="r" depth="3" NCoef="0" IVar="-1" Cut="0.0000000000000000e+00" cType="1" res="-4.5929666608572006e-02" rms="3.2145568728446960e-01" purity="1.2101208418607712e-01" nType="-99"/>
          </Node>
          <Node pos="r" depth="2" NCoef="0" IVar="9" Cut="5.2660822868347168e-01" cType="1" res="-6.8655371665954590e-02" rms="4.8098540306091309e-01" purity="4.0198451280593872e-01" nType="0">
            <Node pos="l" depth="3" NCoef="0" IVar="-1" Cut="0.0000000000000000e+00" cType="1" res="-1.4040083624422550e-02" rms="4.4870093464851379e-01" purity="2.9527398943901062e-01" nType="-99"/>
            <Node pos="r" depth="3" NCoef="0" IVar="-1" Cut="0.0000000000000000e+00" cType="1" res="2.7237725444138050e-03" rms="4.8958480358123779e-01" purity="5.2971768379211426e-01" nType="-99"/>
          </Node>
        </Node>
        <Node pos="r" depth="1" NCoef="0" IVar="2" Cut="1.4285714626312256e+00" cType="1" res="2.5938060879707336e-01" rms="4.1369146108627319e-01" purity="7.7583789825439453e-01" nType="0">
          <Node pos="l" depth="2" NCoef="0" IVar="0" Cut="1.2900238037109375e+03" cType="1" res="3.4568220376968384e-01" rms="3.3805236220359802e-01" purity="8.6799490451812744e-01" nType="0">
            <Node pos="l" depth="3" NCoef="0" IVar="-1" Cut="0.0000000000000000e+00" cType="1" res="1.0022824630141258e-02" rms="3.8917332887649536e-01" purity="8.1331509351730347e-01" nType="-99"/>
            <Node pos="r" depth="3" NCoef="0" IVar="-1" Cut="0.0000000000000000e+00" cType="1" res="1.1935117654502392e-02" rms="2.9422286152839661e-01" purity="9.0396559238433838e-01" nType="-99"/>
          </Node>
          <Node pos="r" depth="2" NCoef="0" IVar="9" Cut="4.8611158132553101e-01" cType="1" res="1.1186838895082474e-01" rms="4.8357117176055908e-01" purity="6.1831724643707275e-01" nType="0">
            <Node pos="l" depth="3" NCoef="0" IVar="-1" Cut="0.0000000000000000e+00" cType="1" res="5.2118813619017601e-04" rms="4.9767395853996277e-01" purity="5.1565915346145630e-01" nType="-99"/>
            <Node pos="r" depth="3" NCoef="0" IVar="-1" Cut="0.0000000000000000e+00" cType="1" res="7.3718409985303879e-03" rms="4.5924428105354309e-01" purity="6.9263088703155518e-01" nType="-99"/>
          </Node>
        </Node>
      </Node>
    </BinaryTree>
    <BinaryTree type="DecisionTree" boostWeight="1.0000000000000000e+00" itree="5">
      <Node pos="s" depth="0" NCoef="0" IVar="5" Cut="7.6190477609634399e-01" cType="1" res="2.6245085522532463e-02" rms="4.7114464640617371e-01" purity="5.0053042173385620e-01" nType="0">
        <Node pos="l" depth="1" NCoef="0" IVar="2" Cut="1.8095238208770752e+00" cType="1" res="-1.4345827698707581e-01" rms="4.3850311636924744e-01" purity="2.9556494951248169e-01" nType="0">
          <Node pos="l" depth="2" NCoef="0" IVar="5" Cut="3.6274307966232300e-01" cType="1" res="-4.6694889664649963e-02" rms="4.7322246432304382e-01" purity="4.0661033987998962e-01" nType="0">
            <Node pos="l" depth="3" NCoef="0" IVar="-1" Cut="0.0000000000000000e+00" cType="1" res="-1.1172615922987461e-02" rms="4.4416522979736328e-01" purity="3.0354213714599609e-01" nType="-99"/>
            <Node pos="r" depth="3" NCoef="0" IVar="-1" Cut="0.0000000000000000e+00" cType="1" res="5.2582314237952232e-03" rms="4.7989922761917114e-01" purity="5.8736670017242432e-01" nType="-99"/>
          </Node>
          <Node pos="r" depth="2" NCoef="0" IVar="9" Cut="6.1074233055114746e-01" cType="1" res="-2.5092372298240662e-01" rms="3.6767092347145081e-01" purity="1.7223785817623138e-01" nType="0">
            <Node pos="l" depth="3" NCoef="0" IVar="-1" Cut="0.0000000000000000e+00" cType="1" res="-4.0868997573852539e-02" rms="3.3452269434928894e-01" purity="1.3573391735553741e-01" nType="-99"/>
            <Node pos="r" depth="3" NCoef="0" IVar="-1" Cut="0.0000000000000000e+00" cType="1" res="-8.1929937005043030e-03" rms="4.6074312925338745e-01" purity="3.3195817470550537e-01" nType="-99"/>
          </Node>
        </Node>
        <Node pos="r" depth="1" NCoef="0" IVar="2" Cut="1.5238095521926880e+00" cType="1" res="2.5126937031745911e-01" rms="4.1536188125610352e-01" purity="7.7231192588806152e-01" nType="0">
          <Node pos="l" depth="2" NCoef="0" IVar="9" Cut="4.8925852775573730e-01" cType="1" res="3.3744537830352783e-01" rms="3.4077045321464539e-01" purity="8.6540460586547852e-01" nType="0">
            <Node pos="l" depth="3" NCoef="0" IVar="-1" Cut="0.0000000000000000e+00" cType="1" res="9.6350731328129768e-03" rms="3.9597362279891968e-01" purity="8.0452257394790649e-01" nType="-99"/>
            <Node pos="r" depth="3" NCoef="0" IVar="-1" Cut="0.0000000000000000e+00" cType="1" res="1.1762543581426144e-02" rms="2.9471191763877869e-01" purity="9.0358710289001465e-01" nType="-99"/>
          </Node>
          <Node pos="r" depth="2" NCoef="0" IVar="5" Cut="8.9802175760269165e-01" cType="1" res="9.7900539636611938e-02" rms="4.8596763610839844e-01" purity="6.0663330554962158e-01" nType="0">
            <Node pos="l" depth="3" NCoef="0" IVar="-1" Cut="0.0000000000000000e+00" cType="1" res="-9.8453916143625975e-04" rms="4.9765911698341370e-01" purity="4.8252227902412415e-01" nType="-99"/>
            <Node pos="r" depth="3" NCoef="0" IVar="-1" Cut="0.0000000000000000e+00" cType="1" res="6.6202976740896702e-03" rms="4.6680212020874023e-01" purity="6.7635571956634521e-01" nType="-99"/>
          </Node>
        </Node>
      </Node>
    </BinaryTree>
    <BinaryTree type="DecisionTree" boostWeight="1.0000000000000000e+00" itree="6">
      <Node pos="s" depth="0" NCoef="0" IVar="5" Cut="6.1904764175415039e-01" cType="1" res="3.0065346509218216e-02" rms="4.6686604619026184e-01" purity="5.0058227777481079e-01" nType="0">
        <Node pos="l" depth="1" NCoef="0" IVar="4" Cut="9.5238095521926880e-01" cType="1" res="-1.6285690665245056e-01" rms="4.2087808251380920e-01" purity="2.5924903154373169e-01" nType="0">
          <Node pos="l" depth="2" NCoef="0" IVar="2" Cut="7.1428573131561279e-01" cType="1" res="-2.3048001527786255e-01" rms="3.5618874430656433e-01" purity="1.5756818652153015e-01" nType="0">
            <Node pos="l" depth="3" NCoef="0" IVar="-1" Cut="0.0000000000000000e+00" cType="1" res="-9.4586126506328583e-03" rms="4.4994193315505981e-01" purity="2.9912203550338745e-01" nType="-99"/>
            <Node pos="r" depth="3" NCoef="0" IVar="-1" Cut="0.0000000000000000e+00" cType="1" res="-4.3530207127332687e-02" rms="3.1452101469039917e-01" purity="1.1508718132972717e-01" nType="-99"/>
          </Node>
          <Node pos="r" depth="2" NCoef="0" IVar="0" Cut="1.3700716552734375e+03" cType="1" res="-6.2902003526687622e-02" rms="4.8444819450378418e-01" purity="4.0954527258872986e-01" nType="0">
            <Node pos="l" depth="3" NCoef="0" IVar="-1" Cut="0.0000000000000000e+00" cType="1" res="-1.2203382328152657e-02" rms="4.5843747258186340e-01" purity="3.1362342834472656e-01" nType="-99"/>
            <Node pos="r" depth="3" NCoef="0" IVar="-1" Cut="0.0000000000000000e+00" cType="1" res="2.0567565225064754e-03" rms="4.9143892526626587e-01" purity="5.1496720314025879e-01" nType="-99"/>
          </Node>
        </Node>
        <Node pos="r" depth="1" NCoef="0" IVar="4" Cut="9.0476191043853760e-01" cType="1" res="2.2000989317893982e-01" rms="4.3062263727188110e-01" purity="7.3819059133529663e-01" nType="0">
          <Node pos="l" depth="2" NCoef="0" IVar="-1" Cut="0.0000000000000000e+00" cType="1" res="-9.3417316675186157e-03" rms="4.7061511874198914e-01" purity="3.5480585694313049e-01" nType="-99"/>
          <Node pos="r" depth="2" NCoef="0" IVar="2" Cut="1.4285714626312256e+00" cType="1" res="2.6382243633270264e-01" rms="4.0447551012039185e-01" purity="7.8587585687637329e-01" nType="0">
            <Node pos="l" depth="3" NCoef="0" IVar="-1" Cut="0.0000000000000000e+00" cType="1" res="1.1065798811614513e-02" rms="3.3178329467773438e-01" purity="8.7297701835632324e-01" nType="-99"/>
            <Node pos="r" depth="3" NCoef="0" IVar="-1" Cut="0.0000000000000000e+00" cType="1" res="5.5108675733208656e-03" rms="4.7696176171302795e-01" purity="6.3472932577133179e-01" nType="-99"/>
          </Node>
        </Node>
      </Node>
    </BinaryTree>
    <BinaryTree type="DecisionTree" boostWeight="1.0000000000000000e+00" itree="7">
      <Node pos="s" depth="0" NCoef="0" IVar="5" Cut="6.1904764175415039e-01" cType="1" res="3.6287348717451096e-02" rms="4.6300679445266724e-01" purity="5.0286084413528442e-01" nType="0">
        <Node pos="l" depth="1" NCoef="0" IVar="4" Cut="9.0476191043853760e-01" cType="1" res="-1.4397481083869934e-01" rms="4.2294967174530029e-01" purity="2.6745158433914185e-01" nType="0">
          <Node pos="l" depth="2" NCoef="0" IVar="3" Cut="2.9472311019897461e+01" cType="1" res="-2.3895595967769623e-01" rms="3.2659775018692017e-01" purity="1.2872551381587982e-01" nType="0">
            <Node pos="l" depth="3" NCoef="0" IVar="-1" Cut="0.0000000000000000e+00" cType="1" res="-1.7981382086873055e-02" rms="4.0525081753730774e-01" purity="2.1854762732982635e-01" nType="-99"/>
            <Node pos="r" depth="3" NCoef="0" IVar="-1" Cut="0.0000000000000000e+00" cType="1" res="-5.8410916477441788e-02" rms="2.6238724589347839e-01" purity="7.6841548085212708e-02" nType="-99"/>
          </Node>
          <Node pos="r" depth="2" NCoef="0" IVar="9" Cut="5.7468348741531372e-01" cType="1" res="-6.7484997212886810e-02" rms="4.7321325540542603e-01" purity="3.7916988134384155e-01" nType="0">
            <Node pos="l" depth="3" NCoef="0" IVar="-1" Cut="0.0000000000000000e+00" cType="1" res="-1.0630322620272636e-02" rms="4.5092344284057617e-01" purity="3.0717843770980835e-01" nType="-99"/>
            <Node pos="r" depth="3" NCoef="0" IVar="-1" Cut="0.0000000000000000e+00" cType="1" res="3.7978405598551035e-03" rms="4.8949193954467773e-01" purity="5.3838622570037842e-01" nType="-99"/>
          </Node>
        </Node>
        <Node pos="r" depth="1" NCoef="0" IVar="4" Cut="9.0476191043853760e-01" cType="1" res="2.1610932052135468e-01" rms="4.3014702200889587e-01" purity="7.3769527673721313e-01" nType="0">
          <Node pos="l" depth="2" NCoef="0" IVar="-1" Cut="0.0000000000000000e+00" cType="1" res="-8.5142832249403000e-03" rms="4.7027626633644104e-01" purity="3.6099046468734741e-01" nType="-99"/>
          <Node pos="r" depth="2" NCoef="0" IVar="2" Cut="1.4285714626312256e+00" cType="1" res="2.5764515995979309e-01" rms="4.0597298741340637e-01" purity="7.8395015001296997e-01" nType="0">
            <Node pos="l" depth="3" NCoef="0" IVar="-1" Cut="0.0000000000000000e+00" cType="1" res="1.0803097859025002e-02" rms="3.3735272288322449e-01" purity="8.6801600456237793e-01" nType="-99"/>
            <Node pos="r" depth="3" NCoef="0" IVar="-1" Cut="0.0000000000000000e+00" cType="1" res="5.5371387861669064e-03" rms="4.7675824165344238e-01" purity="6.3823866844177246e-01" nType="-99"/>
          </Node>
        </Node>
      </Node>
    </BinaryTree>
    <BinaryTree type="DecisionTree" boostWeight="1.0000000000000000e+00" itree="8">
      <Node pos="s" depth="0" NCoef="0" IVar="5" Cut="7.6190477609634399e-01" cType="1" res="3.8367819041013718e-02" rms="4.5907878875732422e-01" purity="5.0144118070602417e-01" nType="0">
        <Node pos="l" depth="1" NCoef="0" IVar="5" Cut="3.2652208209037781e-01" cType="1" res="-1.1394730955362320e-01" rms="4.3295970559120178e-01" purity="2.9711598157882690e-01" nType="0">
          <Node pos="l" depth="2" NCoef="0" IVar="8" Cut="5.4860454797744751e-01" cType="1" res="-1.8391472101211548e-01" rms="3.9099171757698059e-01" purity="2.0939411222934723e-01" nType="0">
            <Node pos="l" depth="3" NCoef="0" IVar="-1" Cut="0.0000000000000000e+00" cType="1" res="-3.1115753576159477e-02" rms="3.5378289222717285e-01" purity="1.5777480602264404e-01" nType="-99"/>
            <Node pos="r" depth="3" NCoef="0" IVar="-1" Cut="0.0000000000000000e+00" cType="1" res="-9.5649585127830505e-03" rms="4.3163534998893738e-01" purity="2.8802624344825745e-01" nType="-99"/>
          </Node>
          <Node pos="r" depth="2" NCoef="0" IVar="2" Cut="1.5238095521926880e+00" cType="1" res="-6.9239567965269089e-03" rms="4.7053739428520203e-01" purity="4.3129673600196838e-01" nType="0">
            <Node pos="l" depth="3" NCoef="0" IVar="-1" Cut="0.0000000000000000e+00" cType="1" res="5.3270026110112667e-03" rms="4.7568592429161072e-01" purity="5.7974988222122192e-01" nType="-99"/>
            <Node pos="r" depth="3" NCoef="0" IVar="-1" Cut="0.0000000000000000e+00" cType="1" res="-1.3647465035319328e-02" rms="4.2350995540618896e-01" purity="2.5876414775848389e-01" nType="-99"/>
          </Node>
        </Node>
        <Node pos="r" depth="1" NCoef="0" IVar="2" Cut="2.1428570747375488e+00" cType="1" res="2.4201242625713348e-01" rms="4.1160058975219727e-01" purity="7.7462309598922729e-01" nType="0">
          <Node pos="l" depth="2" NCoef="0" IVar="9" Cut="5.3151261806488037e-01" cType="1" res="2.9622432589530945e-01" rms="3.6850792169570923e-01" purity="8.3412903547286987e-01" nType="0">
            <Node pos="l" depth="3" NCoef="0" IVar="-1" Cut="0.0000000000000000e+00" cType="1" res="8.5579529404640198e-03" rms="4.1521033644676208e-01" purity="7.7271252870559692e-01" nType="-99"/>
            <Node pos="r" depth="3" NCoef="0" IVar="-1" Cut="0.0000000000000000e+00" cType="1" res="1.1180525645613670e-02" rms="3.1041941046714783e-01" purity="8.8984417915344238e-01" nType="-99"/>
          </Node>
          <Node pos="r" depth="2" NCoef="0" IVar="-1" Cut="0.0000000000000000e+00" cType="1" res="1.1036158539354801e-03" rms="4.9548652768135071e-01" purity="5.3317564725875854e-01" nType="-99"/>
        </Node>
      </Node>
    </BinaryTree>
    <BinaryTree type="DecisionTree" boostWeight="1.0000000000000000e+00" itree="9">
      <Node pos="s" depth="0" NCoef="0" IVar="5" Cut="7.6190477609634399e-01" cType="1" res="3.8038134574890137e-02" rms="4.5584920048713684e-01" purity="4.9902096390724182e-01" nType="0">
        <Node pos="l" depth="1" NCoef="0" IVar="2" Cut="7.6190477609634399e-01" cType="1" res="-1.0980675369501114e-01" rms="4.2949631810188293e-01" purity="2.9425376653671265e-01" nType="0">
          <Node pos="l" depth="2" NCoef="0" IVar="0" Cut="1.5112830810546875e+03" cType="1" res="3.4485567361116409e-02" rms="4.7743830084800720e-01" purity="4.8047208786010742e-01" nType="0">
            <Node pos="l" depth="3" NCoef="0" IVar="-1" Cut="0.0000000000000000e+00" cType="1" res="-4.8436755314469337e-03" rms="4.6031719446182251e-01" purity="3.6699411273002625e-01" nType="-99"/>
            <Node pos="r" depth="3" NCoef="0" IVar="-1" Cut="0.0000000000000000e+00" cType="1" res="7.3832790367305279e-03" rms="4.6563842892646790e-01" purity="6.2594521045684814e-01" nType="-99"/>
          </Node>
          <Node pos="r" depth="2" NCoef="0" IVar="9" Cut="6.1487227678298950e-01" cType="1" res="-1.6050560772418976e-01" rms="3.9912900328636169e-01" purity="2.2882373631000519e-01" nType="0">
            <Node pos="l" depth="3" NCoef="0" IVar="-1" Cut="0.0000000000000000e+00" cType="1" res="-2.2458447143435478e-02" rms="3.7558555603027344e-01" purity="1.9136816263198853e-01" nType="-99"/>
            <Node pos="r" depth="3" NCoef="0" IVar="-1" Cut="0.0000000000000000e+00" cType="1" res="-1.9782723393291235e-03" rms="4.6701267361640930e-01" purity="3.9267489314079285e-01" nType="-99"/>
          </Node>
        </Node>
        <Node pos="r" depth="1" NCoef="0" IVar="2" Cut="2.2857143878936768e+00" cType="1" res="2.3417808115482330e-01" rms="4.1386246681213379e-01" purity="7.7067750692367554e-01" nType="0">
          <Node pos="l" depth="2" NCoef="0" IVar="0" Cut="1.2900238037109375e+03" cType="1" res="2.8430861234664917e-01" rms="3.7484213709831238e-01" purity="8.2674896717071533e-01" nType="0">
            <Node pos="l" depth="3" NCoef="0" IVar="-1" Cut="0.0000000000000000e+00" cType="1" res="7.9773236066102982e-03" rms="4.2494335770606995e-01" purity="7.5714868307113647e-01" nType="-99"/>
            <Node pos="r" depth="3" NCoef="0" IVar="-1" Cut="0.0000000000000000e+00" cType="1" res="1.0721184313297272e-02" rms="3.2948458194732666e-01" purity="8.7317925691604614e-01" nType="-99"/>
          </Node>
          <Node pos="r" depth="2" NCoef="0" IVar="-1" Cut="0.0000000000000000e+00" cType="1" res="1.2923660688102245e-03" rms="4.9528604745864868e-01" purity="5.3784120082855225e-01" nType="-99"/>
        </Node>
      </Node>
    </BinaryTree>
    <BinaryTree type="DecisionTree" boostWeight="1.0000000000000000e+00" itree="10">
      <Node pos="s" depth="0" NCoef="0" IVar="5" Cut="7.1428573131561279e-01" cType="1" res="3.6185681819915771e-02" rms="4.5290029048919678e-01" purity="4.9408239126205444e-01" nType="0">
        <Node pos="l" depth="1" NCoef="0" IVar="9" Cut="6.6084223985671997e-01" cType="1" res="-1.1358829587697983e-01" rms="4.2258587479591370e-01" purity="2.7869212627410889e-01" nType="0">
          <Node pos="l" depth="2" NCoef="0" IVar="4" Cut="9.5238095521926880e-01" cType="1" res="-1.4524309337139130e-01" rms="4.0501657128334045e-01" purity="2.4059997498989105e-01" nType="0">
            <Node pos="l" depth="3" NCoef="0" IVar="-1" Cut="0.0000000000000000e+00" cType="1" res="-2.8791230171918869e-02" rms="3.4176591038703918e-01" purity="1.4632247388362885e-01" nType="-99"/>
            <Node pos="r" depth="3" NCoef="0" IVar="-1" Cut="0.0000000000000000e+00" cType="1" res="-4.6278480440378189e-03" rms="4.7476312518119812e-01" purity="3.8232031464576721e-01" nType="-99"/>
          </Node>
          <Node pos="r" depth="2" NCoef="0" IVar="-1" Cut="0.0000000000000000e+00" cType="1" res="5.3350157104432583e-03" rms="4.7356995940208435e-01" purity="5.4359441995620728e-01" nType="-99"/>
        </Node>
        <Node pos="r" depth="1" NCoef="0" IVar="2" Cut="1.3333333730697632e+00" cType="1" res="2.1716952323913574e-01" rms="4.2110216617584229e-01" purity="7.5435560941696167e-01" nType="0">
          <Node pos="l" depth="2" NCoef="0" IVar="2" Cut="4.7619048506021500e-02" cType="1" res="3.0323576927185059e-01" rms="3.5063785314559937e-01" purity="8.5393267869949341e-01" nType="0">
            <Node pos="l" depth="3" NCoef="0" IVar="-1" Cut="0.0000000000000000e+00" cType="1" res="1.1141607537865639e-02" rms="2.9127708077430725e-01" purity="9.0505158901214600e-01" nType="-99"/>
            <Node pos="r" depth="3" NCoef="0" IVar="-1" Cut="0.0000000000000000e+00" cType="1" res="8.3767371252179146e-03" rms="4.0997859835624695e-01" purity="7.8195559978485107e-01" nType="-99"/>
          </Node>
          <Node pos="r" depth="2" NCoef="0" IVar="5" Cut="9.1839486360549927e-01" cType="1" res="7.3205001652240753e-02" rms="4.8494675755500793e-01" purity="5.8779144287109375e-01" nType="0">
            <Node pos="l" depth="3" NCoef="0" IVar="-1" Cut="0.0000000000000000e+00" cType="1" res="-1.9646578002721071e-03" rms="4.9226853251457214e-01" purity="4.6531814336776733e-01" nType="-99"/>
            <Node pos="r" depth="3" NCoef="0" IVar="-1" Cut="0.0000000000000000e+00" cType="1" res="6.7369500175118446e-03" rms="4.5705819129943848e-01" purity="6.9756114482879639e-01" nType="-99"/>
          </Node>
        </Node>
      </Node>
    </BinaryTree>
    <BinaryTree type="DecisionTree" boostWeight="1.0000000000000000e+00" itree="11">
      <Node pos="s" depth="0" NCoef="0" IVar="5" Cut="7.6190477609634399e-01" cType="1" res="4.1281230747699738e-02" rms="4.5070609450340271e-01" purity="4.9731355905532837e-01" nType="0">
        <Node pos="l" depth="1" NCoef="0" IVar="3" Cut="1.5042284011840820e+01" cType="1" res="-9.3679375946521759e-02" rms="4.2892012000083923e-01" purity="2.9751113057136536e-01" nType="0">
          <Node pos="l" depth="2" NCoef="0" IVar="-1" Cut="0.0000000000000000e+00" cType="1" res="4.6511478722095490e-03" rms="4.7007852792739868e-01" purity="5.3328269720077515e-01" nType="-99"/>
          <Node pos="r" depth="2" NCoef="0" IVar="5" Cut="2.1764585375785828e-01" cType="1" res="-1.3283918797969818e-01" rms="4.0909978747367859e-01" purity="2.4764452874660492e-01" nType="0">
            <Node pos="l" depth="3" NCoef="0" IVar="-1" Cut="0.0000000000000000e+00" cType="1" res="-2.9119996353983879e-02" rms="3.4323146939277649e-01" purity="1.5249100327491760e-01" nType="-99"/>
            <Node pos="r" depth="3" NCoef="0" IVar="-1" Cut="0.0000000000000000e+00" cType="1" res="-4.9967663362622261e-03" rms="4.4972026348114014e-01" purity="3.3332785964012146e-01" nType="-99"/>
          </Node>
        </Node>
        <Node pos="r" depth="1" NCoef="0" IVar="2" Cut="1.4285714626312256e+00" cType="1" res="2.2553788125514984e-01" rms="4.1289383172988892e-01" purity="7.7009630203247070e-01" nType="0">
          <Node pos="l" depth="2" NCoef="0" IVar="0" Cut="1.2884416503906250e+03" cType="1" res="3.0690860748291016e-01" rms="3.4067910909652710e-01" purity="8.6438095569610596e-01" nType="0">
            <Node pos="l" depth="3" NCoef="0" IVar="-1" Cut="0.0000000000000000e+00" cType="1" res="8.8785337284207344e-03" rms="3.9069378376007080e-01" purity="8.0975258350372314e-01" nType="-99"/>
            <Node pos="r" depth="3" NCoef="0" IVar="-1" Cut="0.0000000000000000e+00" cType="1" res="1.0867610573768616e-02" rms="2.9756763577461243e-01" purity="9.0082240104675293e-01" nType="-99"/>
          </Node>
          <Node pos="r" depth="2" NCoef="0" IVar="5" Cut="8.9796161651611328e-01" cType="1" res="8.2244738936424255e-02" rms="4.8385947942733765e-01" purity="6.0406196117401123e-01" nType="0">
            <Node pos="l" depth="3" NCoef="0" IVar="-1" Cut="0.0000000000000000e+00" cType="1" res="-1.9044905202463269e-03" rms="4.9504333734512329e-01" purity="4.7242170572280884e-01" nType="-99"/>
            <Node pos="r" depth="3" NCoef="0" IVar="-1" Cut="0.0000000000000000e+00" cType="1" res="5.9075905010104179e-03" rms="4.6593037247657776e-01" purity="6.7454797029495239e-01" nType="-99"/>
          </Node>
        </Node>
      </Node>
    </BinaryTree>
    <BinaryTree type="DecisionTree" boostWeight="1.0000000000000000e+00" itree="12">
      <Node pos="s" depth="0" NCoef="0" IVar="5" Cut="8.0952382087707520e-01" cType="1" res="4.5541312545537949e-02" rms="4.4790828227996826e-01" purity="5.0050741434097290e-01" nType="0">
        <Node pos="l" depth="1" NCoef="0" IVar="4" Cut="9.0476191043853760e-01" cType="1" res="-8.1518702208995819e-02" rms="4.3176442384719849e-01" purity="3.1168073415756226e-01" nType="0">
          <Node pos="l" depth="2" NCoef="0" IVar="0" Cut="1.8888815917968750e+03" cType="1" res="-1.7316433787345886e-01" rms="3.5080352425575256e-01" purity="1.6010580956935883e-01" nType="0">
            <Node pos="l" depth="3" NCoef="0" IVar="-1" Cut="0.0000000000000000e+00" cType="1" res="-3.6173272877931595e-02" rms="3.1238120794296265e-01" purity="1.1727464944124222e-01" nType="-99"/>
            <Node pos="r" depth="3" NCoef="0" IVar="-1" Cut="0.0000000000000000e+00" cType="1" res="-3.6620432510972023e-03" rms="4.3987438082695007e-01" purity="3.1429988145828247e-01" nType="-99"/>
          </Node>
          <Node pos="r" depth="2" NCoef="0" IVar="5" Cut="3.8548123836517334e-01" cType="1" res="-1.3345344923436642e-02" rms="4.7186380624771118e-01" purity="4.2443424463272095e-01" nType="0">
            <Node pos="l" depth="3" NCoef="0" IVar="-1" Cut="0.0000000000000000e+00" cType="1" res="-7.4752811342477798e-03" rms="4.5150199532508850e-01" purity="3.1721898913383484e-01" nType="-99"/>
            <Node pos="r" depth="3" NCoef="0" IVar="-1" Cut="0.0000000000000000e+00" cType="1" res="4.6724099665880203e-03" rms="4.7660103440284729e-01" purity="5.7244074344635010e-01" nType="-99"/>
          </Node>
        </Node>
        <Node pos="r" depth="1" NCoef="0" IVar="2" Cut="1.4285714626312256e+00" cType="1" res="2.4100692570209503e-01" rms="3.9928188920021057e-01" purity="7.9099309444427490e-01" nType="0">
          <Node pos="l" depth="2" NCoef="0" IVar="-1" Cut="0.0000000000000000e+00" cType="1" res="1.0208213701844215e-02" rms="3.2868394255638123e-01" purity="8.7560939788818359e-01" nType="-99"/>
          <Node pos="r" depth="2" NCoef="0" IVar="9" Cut="4.8687770962715149e-01" cType="1" res="1.0709911584854126e-01" rms="4.7767585515975952e-01" purity="6.3251549005508423e-01" nType="0">
            <Node pos="l" depth="3" NCoef="0" IVar="-1" Cut="0.0000000000000000e+00" cType="1" res="1.1518263490870595e-03" rms="4.9376538395881653e-01" purity="5.4530811309814453e-01" nType="-99"/>
            <Node pos="r" depth="3" NCoef="0" IVar="-1" Cut="0.0000000000000000e+00" cType="1" res="6.7155333235859871e-03" rms="4.5547643303871155e-01" purity="6.9739580154418945e-01" nType="-99"/>
          </Node>
        </Node>
      </Node>
    </BinaryTree>
    <BinaryTree type="DecisionTree" boostWeight="1.0000000000000000e+00" itree="13">
      <Node pos="s" depth="0" NCoef="0" IVar="5" Cut="8.0952382087707520e-01" cType="1" res="4.2872503399848938e-02" rms="4.4354644417762756e-01" purity="4.9658367037773132e-01" nType="0">
        <Node pos="l" depth="1" NCoef="0" IVar="4" Cut="9.5238095521926880e-01" cType="1" res="-8.3841755986213684e-02" rms="4.2476132512092590e-01" purity="3.0465766787528992e-01" nType="0">
          <Node pos="l" depth="2" NCoef="0" IVar="2" Cut="7.1428573131561279e-01" cType="1" res="-1.5613800287246704e-01" rms="3.6161831021308899e-01" purity="1.7683437466621399e-01" nType="0">
            <Node pos="l" depth="3" NCoef="0" IVar="-1" Cut="0.0000000000000000e+00" cType="1" res="-4.8797833733260632e-03" rms="4.4654557108879089e-01" purity="3.2418081164360046e-01" nType="-99"/>
            <Node pos="r" depth="3" NCoef="0" IVar="-1" Cut="0.0000000000000000e+00" cType="1" res="-2.9895987361669540e-02" rms="3.2682168483734131e-01" purity="1.3285557925701141e-01" nType="-99"/>
          </Node>
          <Node pos="r" depth="2" NCoef="0" IVar="5" Cut="3.8543066382408142e-01" cType="1" res="9.8396129906177521e-03" rms="4.7876429557800293e-01" purity="4.7029086947441101e-01" nType="0">
            <Node pos="l" depth="3" NCoef="0" IVar="-1" Cut="0.0000000000000000e+00" cType="1" res="-6.1221318319439888e-03" rms="4.6428683400154114e-01" purity="3.5078567266464233e-01" nType="-99"/>
            <Node pos="r" depth="3" NCoef="0" IVar="-1" Cut="0.0000000000000000e+00" cType="1" res="5.6837028823792934e-03" rms="4.7004762291908264e-01" purity="6.2008643150329590e-01" nType="-99"/>
          </Node>
        </Node>
        <Node pos="r" depth="1" NCoef="0" IVar="2" Cut="1.5238095521926880e+00" cType="1" res="2.3675176501274109e-01" rms="3.9941716194152832e-01" purity="7.9024028778076172e-01" nType="0">
          <Node pos="l" depth="2" NCoef="0" IVar="-1" Cut="0.0000000000000000e+00" cType="1" res="1.0078156366944313e-02" rms="3.2833734154701233e-01" purity="8.7595009803771973e-01" nType="-99"/>
          <Node pos="r" depth="2" NCoef="0" IVar="9" Cut="4.8984146118164062e-01" cType="1" res="1.1072420328855515e-01" rms="4.7587859630584717e-01" purity="6.3819724321365356e-01" nType="0">
            <Node pos="l" depth="3" NCoef="0" IVar="-1" Cut="0.0000000000000000e+00" cType="1" res="1.8171522533521056e-03" rms="4.9336546659469604e-01" purity="5.5910348892211914e-01" nType="-99"/>
            <Node pos="r" depth="3" NCoef="0" IVar="-1" Cut="0.0000000000000000e+00" cType="1" res="6.7181582562625408e-03" rms="4.5241117477416992e-01" purity="7.0290207862854004e-01" nType="-99"/>
          </Node>
        </Node>
      </Node>
    </BinaryTree>
    <BinaryTree type="DecisionTree" boostWeight="1.0000000000000000e+00" itree="14">
      <Node pos="s" depth="0" NCoef="0" IVar="5" Cut="7.6190477609634399e-01" cType="1" res="4.3636638671159744e-02" rms="4.4237354397773743e-01" purity="4.9404552578926086e-01" nType="0">
        <Node pos="l" depth="1" NCoef="0" IVar="9" Cut="5.7455474138259888e-01" cType="1" res="-7.8621491789817810e-02" rms="4.2200630903244019e-01" purity="2.9547318816184998e-01" nType="0">
          <Node pos="l" depth="2" NCoef="0" IVar="2" Cut="9.0476191043853760e-01" cType="1" res="-1.3028290867805481e-01" rms="3.9187118411064148e-01" purity="2.2830775380134583e-01" nType="0">
            <Node pos="l" depth="3" NCoef="0" IVar="-1" Cut="0.0000000000000000e+00" cType="1" res="-1.0960408253595233e-03" rms="4.6289595961570740e-01" purity="4.0232315659523010e-01" nType="-99"/>
            <Node pos="r" depth="3" NCoef="0" IVar="-1" Cut="0.0000000000000000e+00" cType="1" res="-2.2447850555181503e-02" rms="3.5724142193794250e-01" purity="1.7033919692039490e-01" nType="-99"/>
          </Node>
          <Node pos="r" depth="2" NCoef="0" IVar="2" Cut="1.5238095521926880e+00" cType="1" res="4.6266272664070129e-02" rms="4.6403771638870239e-01" purity="4.5784074068069458e-01" nType="0">
            <Node pos="l" depth="3" NCoef="0" IVar="-1" Cut="0.0000000000000000e+00" cType="1" res="6.6301617771387100e-03" rms="4.6457731723785400e-01" purity="5.7908326387405396e-01" nType="-99"/>
            <Node pos="r" depth="3" NCoef="0" IVar="-1" Cut="0.0000000000000000e+00" cType="1" res="-7.1369227953255177e-03" rms="4.3143108487129211e-01" purity="2.9079872369766235e-01" nType="-99"/>
          </Node>
        </Node>
        <Node pos="r" depth="1" NCoef="0" IVar="2" Cut="1.5238095521926880e+00" cType="1" res="2.1034215390682220e-01" rms="4.1415929794311523e-01" purity="7.6480960845947266e-01" nType="0">
          <Node pos="l" depth="2" NCoef="0" IVar="8" Cut="5.2036279439926147e-01" cType="1" res="2.8807210922241211e-01" rms="3.4489509463310242e-01" purity="8.5968852043151855e-01" nType="0">
            <Node pos="l" depth="3" NCoef="0" IVar="-1" Cut="0.0000000000000000e+00" cType="1" res="8.7249437347054482e-03" rms="3.8004040718078613e-01" purity="8.2185184955596924e-01" nType="-99"/>
            <Node pos="r" depth="3" NCoef="0" IVar="-1" Cut="0.0000000000000000e+00" cType="1" res="1.0233491659164429e-02" rms="3.1361982226371765e-01" purity="8.8763630390167236e-01" nType="-99"/>
          </Node>
          <Node pos="r" depth="2" NCoef="0" IVar="0" Cut="1.2324729003906250e+03" cType="1" res="7.9108841717243195e-02" rms="4.8256510496139526e-01" purity="6.0462337732315063e-01" nType="0">
            <Node pos="l" depth="3" NCoef="0" IVar="-1" Cut="0.0000000000000000e+00" cType="1" res="-4.2752191075123847e-04" rms="4.9327099323272705e-01" purity="5.1559573411941528e-01" nType="-99"/>
            <Node pos="r" depth="3" NCoef="0" IVar="-1" Cut="0.0000000000000000e+00" cType="1" res="5.8972481638193130e-03" rms="4.6413049101829529e-01" purity="6.7017173767089844e-01" nType="-99"/>
          </Node>
        </Node>
      </Node>
    </BinaryTree>
    <BinaryTree type="DecisionTree" boostWeight="1.0000000000000000e+00" itree="15">
      <Node pos="s" depth="0" NCoef="0" IVar="5" Cut="7.1428573131561279e-01" cType="1" res="5.6714050471782684e-02" rms="4.3993940949440002e-01" purity="5.0692421197891235e-01" nType="0">
        <Node pos="l" depth="1" NCoef="0" IVar="3" Cut="2.9472311019897461e+01" cType="1" res="-7.2879120707511902e-02" rms="4.2086046934127808e-01" purity="2.8873151540756226e-01" nType="0">
          <Node pos="l" depth="2" NCoef="0" IVar="4" Cut="9.5238095521926880e-01" cType="1" res="1.5920592471957207e-02" rms="4.6098756790161133e-01" purity="4.1941398382186890e-01" nType="0">
            <Node pos="l" depth="3" NCoef="0" IVar="-1" Cut="0.0000000000000000e+00" cType="1" res="-7.5986101292073727e-03" rms="4.2274361848831177e-01" purity="2.6385447382926941e-01" nType="-99"/>
            <Node pos="r" depth="3" NCoef="0" IVar="-1" Cut="0.0000000000000000e+00" cType="1" res="5.6326761841773987e-03" rms="4.7877740859985352e-01" purity="5.9634536504745483e-01" nType="-99"/>
          </Node>
          <Node pos="r" depth="2" NCoef="0" IVar="2" Cut="3.0476191043853760e+00" cType="1" res="-1.3223128020763397e-01" rms="3.8036695122718811e-01" purity="2.0138569176197052e-01" nType="0">
            <Node pos="l" depth="3" NCoef="0" IVar="-1" Cut="0.0000000000000000e+00" cType="1" res="-1.1037185788154602e-02" rms="4.0177464485168457e-01" purity="2.3507870733737946e-01" nType="-99"/>
            <Node pos="r" depth="3" NCoef="0" IVar="-1" Cut="0.0000000000000000e+00" cType="1" res="-4.2944017797708511e-02" rms="2.8694766759872437e-01" purity="9.6253313124179840e-02" nType="-99"/>
          </Node>
        </Node>
        <Node pos="r" depth="1" NCoef="0" IVar="2" Cut="1.5238095521926880e+00" cType="1" res="2.0779253542423248e-01" rms="4.1266110539436340e-01" purity="7.6129120588302612e-01" nType="0">
          <Node pos="l" depth="2" NCoef="0" IVar="2" Cut="4.7619048506021500e-02" cType="1" res="2.8840962052345276e-01" rms="3.4087088704109192e-01" purity="8.6168593168258667e-01" nType="0">
            <Node pos="l" depth="3" NCoef="0" IVar="-1" Cut="0.0000000000000000e+00" cType="1" res="1.0539772920310497e-02" rms="2.9024121165275574e-01" purity="9.0513396263122559e-01" nType="-99"/>
            <Node pos="r" depth="3" NCoef="0" IVar="-1" Cut="0.0000000000000000e+00" cType="1" res="8.1298127770423889e-03" rms="3.9599335193634033e-01" purity="7.9790353775024414e-01" nType="-99"/>
          </Node>
          <Node pos="r" depth="2" NCoef="0" IVar="10" Cut="3.3030158996582031e+01" cType="1" res="6.6187158226966858e-02" rms="4.8357242345809937e-01" purity="5.8494597673416138e-01" nType="0">
            <Node pos="l" depth="3" NCoef="0" IVar="-1" Cut="0.0000000000000000e+00" cType="1" res="5.8340500108897686e-03" rms="4.6423017978668213e-01" purity="6.6158509254455566e-01" nType="-99"/>
            <Node pos="r" depth="3" NCoef="0" IVar="-1" Cut="0.0000000000000000e+00" cType="1" res="-1.9618642982095480e-03" rms="4.9111765623092651e-01" purity="4.7942495346069336e-01" nType="-99"/>
          </Node>
        </Node>
      </Node>
    </BinaryTree>
    <BinaryTree type="DecisionTree" boostWeight="1.0000000000000000e+00" itree="16">
      <Node pos="s" depth="0" NCoef="0" IVar="5" Cut="5.7142859697341919e-01" cType="1" res="4.9324538558721542e-02" rms="4.3784034252166748e-01" purity="4.9761864542961121e-01" nType="0">
        <Node pos="l" depth="1" NCoef="0" IVar="3" Cut="2.8045698165893555e+01" cType="1" res="-9.3427337706089020e-02" rms="4.0498125553131104e-01" purity="2.5469771027565002e-01" nType="0">
          <Node pos="l" depth="2" NCoef="0" IVar="4" Cut="9.0476191043853760e-01" cType="1" res="-8.2422150298953056e-03" rms="4.5754152536392212e-01" purity="3.8709369301795959e-01" nType="0">
            <Node pos="l" depth="3" NCoef="0" IVar="-1" Cut="0.0000000000000000e+00" cType="1" res="-1.5737300738692284e-02" rms="3.8455152511596680e-01" purity="1.9747054576873779e-01" nType="-99"/>
            <Node pos="r" depth="3" NCoef="0" IVar="-1" Cut="0.0000000000000000e+00" cType="1" res="3.8218267727643251e-03" rms="4.8411601781845093e-01" purity="5.1467090845108032e-01" nType="-99"/>
          </Node>
          <Node pos="r" depth="2" NCoef="0" IVar="10" Cut="3.0703973770141602e+01" cType="1" res="-1.4643599092960358e-01" rms="3.5843247175216675e-01" purity="1.7231090366840363e-01" nType="0">
            <Node pos="l" depth="3" NCoef="0" IVar="-1" Cut="0.0000000000000000e+00" cType="1" res="-1.1582908220589161e-02" rms="3.9510166645050049e-01" purity="2.2467984259128571e-01" nType="-99"/>
            <Node pos="r" depth="3" NCoef="0" IVar="-1" Cut="0.0000000000000000e+00" cType="1" res="-3.2798506319522858e-02" rms="3.1135103106498718e-01" purity="1.1923517286777496e-01" nType="-99"/>
          </Node>
        </Node>
        <Node pos="r" depth="1" NCoef="0" IVar="4" Cut="9.0476191043853760e-01" cType="1" res="1.7919604480266571e-01" rms="4.2602074146270752e-01" purity="7.1862107515335083e-01" nType="0">
          <Node pos="l" depth="2" NCoef="0" IVar="-1" Cut="0.0000000000000000e+00" cType="1" res="-8.9126052334904671e-03" rms="4.5355686545372009e-01" purity="3.2871749997138977e-01" nType="-99"/>
          <Node pos="r" depth="2" NCoef="0" IVar="2" Cut="1.5238095521926880e+00" cType="1" res="2.2023700177669525e-01" rms="4.0539622306823730e-01" purity="7.7294874191284180e-01" nType="0">
            <Node pos="l" depth="3" NCoef="0" IVar="-1" Cut="0.0000000000000000e+00" cType="1" res="9.6873622387647629e-03" rms="3.3940732479095459e-01" purity="8.6334669589996338e-01" nType="-99"/>
            <Node pos="r" depth="3" NCoef="0" IVar="-1" Cut="0.0000000000000000e+00" cType="1" res="4.0442207828164101e-03" rms="4.7980216145515442e-01" purity="6.0349947214126587e-01" nType="-99"/>
          </Node>
        </Node>
      </Node>
    </BinaryTree>
    <BinaryTree type="DecisionTree" boostWeight="1.0000000000000000e+00" itree="17">
      <Node pos="s" depth="0" NCoef="0" IVar="5" Cut="4.7619047760963440e-01" cType="1" res="5.1600635051727295e-02" rms="4.3711990118026733e-01" purity="4.9598112702369690e-01" nType="0">
        <Node pos="l" depth="1" NCoef="0" IVar="9" Cut="6.5470522642135620e-01" cType="1" res="-9.4405211508274078e-02" rms="4.0034526586532593e-01" purity="2.4361902475357056e-01" nType="0">
          <Node pos="l" depth="2" NCoef="0" IVar="8" Cut="4.2909944057464600e-01" cType="1" res="-1.2224498391151428e-01" rms="3.8185593485832214e-01" purity="2.0544874668121338e-01" nType="0">
            <Node pos="l" depth="3" NCoef="0" IVar="-1" Cut="0.0000000000000000e+00" cType="1" res="-3.3847752958536148e-02" rms="3.1277877092361450e-01" purity="1.1956796795129776e-01" nType="-99"/>
            <Node pos="r" depth="3" NCoef="0" IVar="-1" Cut="0.0000000000000000e+00" cType="1" res="-8.6838472634553909e-03" rms="4.0712910890579224e-01" purity="2.4858555197715759e-01" nType="-99"/>
          </Node>
          <Node pos="r" depth="2" NCoef="0" IVar="-1" Cut="0.0000000000000000e+00" cType="1" res="4.7663995064795017e-03" rms="4.6520376205444336e-01" purity="4.9084869027137756e-01" nType="-99"/>
        </Node>
        <Node pos="r" depth="1" NCoef="0" IVar="2" Cut="1.5238095521926880e+00" cType="1" res="1.6429056227207184e-01" rms="4.3091931939125061e-01" purity="6.9075870513916016e-01" nType="0">
          <Node pos="l" depth="2" NCoef="0" IVar="4" Cut="9.5238095521926880e-01" cType="1" res="2.4963217973709106e-01" rms="3.7650027871131897e-01" purity="8.0610787868499756e-01" nType="0">
            <Node pos="l" depth="3" NCoef="0" IVar="-1" Cut="0.0000000000000000e+00" cType="1" res="5.2316486835479736e-03" rms="4.6415731310844421e-01" purity="6.0306316614151001e-01" nType="-99"/>
            <Node pos="r" depth="3" NCoef="0" IVar="-1" Cut="0.0000000000000000e+00" cType="1" res="9.6632707864046097e-03" rms="3.3661621809005737e-01" purity="8.6519831418991089e-01" nType="-99"/>
          </Node>
          <Node pos="r" depth="2" NCoef="0" IVar="4" Cut="9.5238095521926880e-01" cType="1" res="3.1558480113744736e-02" rms="4.7443073987960815e-01" purity="5.1135569810867310e-01" nType="0">
            <Node pos="l" depth="3" NCoef="0" IVar="-1" Cut="0.0000000000000000e+00" cType="1" res="-1.2311766855418682e-02" rms="4.2769625782966614e-01" purity="2.7248403429985046e-01" nType="-99"/>
            <Node pos="r" depth="3" NCoef="0" IVar="-1" Cut="0.0000000000000000e+00" cType="1" res="4.8794103786349297e-03" rms="4.7492885589599609e-01" purity="6.2510502338409424e-01" nType="-99"/>
          </Node>
        </Node>
      </Node>
    </BinaryTree>
    <BinaryTree type="DecisionTree" boostWeight="1.0000000000000000e+00" itree="18">
      <Node pos="s" depth="0" NCoef="0" IVar="5" Cut="4.7619047760963440e-01" cType="1" res="5.5249255150556564e-02" rms="4.3333968520164490e-01" purity="5.0035333633422852e-01" nType="0">
        <Node pos="l" depth="1" NCoef="0" IVar="0" Cut="1.7704895019531250e+03" cType="1" res="-9.7285166382789612e-02" rms="3.9357984066009521e-01" purity="2.3271022737026215e-01" nType="0">
          <Node pos="l" depth="2" NCoef="0" IVar="9" Cut="4.3181979656219482e-01" cType="1" res="-1.3912469148635864e-01" rms="3.6286431550979614e-01" purity="1.8089202046394348e-01" nType="0">
            <Node pos="l" depth="3" NCoef="0" IVar="-1" Cut="0.0000000000000000e+00" cType="1" res="-3.3158492296934128e-02" rms="3.1019526720046997e-01" purity="1.1738387495279312e-01" nType="-99"/>
            <Node pos="r" depth="3" NCoef="0" IVar="-1" Cut="0.0000000000000000e+00" cType="1" res="-1.1737920343875885e-02" rms="3.9184051752090454e-01" purity="2.2468408942222595e-01" nType="-99"/>
          </Node>
          <Node pos="r" depth="2" NCoef="0" IVar="10" Cut="2.9979837417602539e+01" cType="1" res="2.2671978920698166e-02" rms="4.4956845045089722e-01" purity="3.8127699494361877e-01" nType="0">
            <Node pos="l" depth="3" NCoef="0" IVar="-1" Cut="0.0000000000000000e+00" cType="1" res="6.2093646265566349e-03" rms="4.6855473518371582e-01" purity="4.8769196867942810e-01" nType="-99"/>
            <Node pos="r" depth="3" NCoef="0" IVar="-1" Cut="0.0000000000000000e+00" cType="1" res="-7.4754776433110237e-03" rms="4.0476387739181519e-01" purity="2.5926104187965393e-01" nType="-99"/>
          </Node>
        </Node>
        <Node pos="r" depth="1" NCoef="0" IVar="2" Cut="1.5238095521926880e+00" cType="1" res="1.6875751316547394e-01" rms="4.2667493224143982e-01" purity="6.9951951503753662e-01" nType="0">
          <Node pos="l" depth="2" NCoef="0" IVar="4" Cut="9.5238095521926880e-01" cType="1" res="2.5155130028724670e-01" rms="3.7134560942649841e-01" purity="8.1310111284255981e-01" nType="0">
            <Node pos="l" depth="3" NCoef="0" IVar="-1" Cut="0.0000000000000000e+00" cType="1" res="5.2871727384626865e-03" rms="4.6504107117652893e-01" purity="6.0861980915069580e-01" nType="-99"/>
            <Node pos="r" depth="3" NCoef="0" IVar="-1" Cut="0.0000000000000000e+00" cType="1" res="9.6776327118277550e-03" rms="3.2927355170249939e-01" purity="8.7198275327682495e-01" nType="-99"/>
          </Node>
          <Node pos="r" depth="2" NCoef="0" IVar="4" Cut="9.5238095521926880e-01" cType="1" res="3.6754880100488663e-02" rms="4.7338652610778809e-01" purity="5.1843023300170898e-01" nType="0">
            <Node pos="l" depth="3" NCoef="0" IVar="-1" Cut="0.0000000000000000e+00" cType="1" res="-1.0464907623827457e-02" rms="4.3358385562896729e-01" purity="2.8505149483680725e-01" nType="-99"/>
            <Node pos="r" depth="3" NCoef="0" IVar="-1" Cut="0.0000000000000000e+00" cType="1" res="4.7816904261708260e-03" rms="4.7369965910911560e-01" purity="6.2689411640167236e-01" nType="-99"/>
          </Node>
        </Node>
      </Node>
    </BinaryTree>
    <BinaryTree type="DecisionTree" boostWeight="1.0000000000000000e+00" itree="19">
      <Node pos="s" depth="0" NCoef="0" IVar="5" Cut="5.7142859697341919e-01" cType="1" res="5.7444173842668533e-02" rms="4.3054610490798950e-01" purity="5.0244796276092529e-01" nType="0">
        <Node pos="l" depth="1" NCoef="0" IVar="9" Cut="5.3068572282791138e-01" cType="1" res="-7.7718228101730347e-02" rms="4.0020370483398438e-01" purity="2.5261807441711426e-01" nType="0">
          <Node pos="l" depth="2" NCoef="0" IVar="0" Cut="1.4395466308593750e+03" cType="1" res="-1.2669646739959717e-01" rms="3.6292535066604614e-01" purity="1.8045179545879364e-01" nType="0">
            <Node pos="l" depth="3" NCoef="0" IVar="-1" Cut="0.0000000000000000e+00" cType="1" res="-2.5375217199325562e-02" rms="3.3061558008193970e-01" purity="1.4071421325206757e-01" nType="-99"/>
            <Node pos="r" depth="3" NCoef="0" IVar="-1" Cut="0.0000000000000000e+00" cType="1" res="-7.0689977146685123e-03" rms="4.0729486942291260e-01" purity="2.5047969818115234e-01" nType="-99"/>
          </Node>
          <Node pos="r" depth="2" NCoef="0" IVar="4" Cut="9.5238095521926880e-01" cType="1" res="-2.2989241406321526e-03" rms="4.4112029671669006e-01" purity="3.6374354362487793e-01" nType="0">
            <Node pos="l" depth="3" NCoef="0" IVar="-1" Cut="0.0000000000000000e+00" cType="1" res="-1.2104446068406105e-02" rms="3.8173878192901611e-01" purity="2.0279702544212341e-01" nType="-99"/>
            <Node pos="r" depth="3" NCoef="0" IVar="-1" Cut="0.0000000000000000e+00" cType="1" res="5.3907805122435093e-03" rms="4.7772130370140076e-01" purity="5.5045676231384277e-01" nType="-99"/>
          </Node>
        </Node>
        <Node pos="r" depth="1" NCoef="0" IVar="2" Cut="2.1428570747375488e+00" cType="1" res="1.7789287865161896e-01" rms="4.2076700925827026e-01" purity="7.2508150339126587e-01" nType="0">
          <Node pos="l" depth="2" NCoef="0" IVar="4" Cut="9.5238095521926880e-01" cType="1" res="2.2893115878105164e-01" rms="3.8746440410614014e-01" purity="7.9195106029510498e-01" nType="0">
            <Node pos="l" depth="3" NCoef="0" IVar="-1" Cut="0.0000000000000000e+00" cType="1" res="3.9490573108196259e-03" rms="4.6774849295616150e-01" purity="5.8545005321502686e-01" nType="-99"/>
            <Node pos="r" depth="3" NCoef="0" IVar="-1" Cut="0.0000000000000000e+00" cType="1" res="9.1588832437992096e-03" rms="3.5255172848701477e-01" purity="8.4783250093460083e-01" nType="-99"/>
          </Node>
          <Node pos="r" depth="2" NCoef="0" IVar="9" Cut="4.8209646344184875e-01" cType="1" res="-1.8460776656866074e-02" rms="4.8168465495109558e-01" purity="4.6782222390174866e-01" nType="0">
            <Node pos="l" depth="3" NCoef="0" IVar="-1" Cut="0.0000000000000000e+00" cType="1" res="-5.5852648802101612e-03" rms="4.7538071870803833e-01" purity="3.9064079523086548e-01" nType="-99"/>
            <Node pos="r" depth="3" NCoef="0" IVar="-1" Cut="0.0000000000000000e+00" cType="1" res="1.8852801294997334e-03" rms="4.7997286915779114e-01" purity="5.3329718112945557e-01" nType="-99"/>
          </Node>
        </Node>
      </Node>
    </BinaryTree>
    <BinaryTree type="DecisionTree" boostWeight="1.0000000000000000e+00" itree="20">
      <Node pos="s" depth="0" NCoef="0" IVar="5" Cut="7.1428573131561279e-01" cType="1" res="5.9441197663545609e-02" rms="4.2918995022773743e-01" purity="5.0359016656875610e-01" nType="0">
        <Node pos="l" depth="1" NCoef="0" IVar="2" Cut="1.4285714626312256e+00" cType="1" res="-5.5467240512371063e-02" rms="4.1234284639358521e-01" purity="2.8251558542251587e-01" nType="0">
          <Node pos="l" depth="2" NCoef="0" IVar="4" Cut="9.0476191043853760e-01" cType="1" res="7.1887942031025887e-03" rms="4.5028942823410034e-01" purity="3.8758665323257446e-01" nType="0">
            <Node pos="l" depth="3" NCoef="0" IVar="-1" Cut="0.0000000000000000e+00" cType="1" res="-1.2563977390527725e-02" rms="3.8305196166038513e-01" purity="1.9842085242271423e-01" nType="-99"/>
            <Node pos="r" depth="3" NCoef="0" IVar="-1" Cut="0.0000000000000000e+00" cType="1" res="4.0891449898481369e-03" rms="4.7696691751480103e-01" purity="5.1269018650054932e-01" nType="-99"/>
          </Node>
          <Node pos="r" depth="2" NCoef="0" IVar="10" Cut="2.2852205276489258e+01" cType="1" res="-1.2494440376758575e-01" rms="3.5291472077369690e-01" purity="1.6600576043128967e-01" nType="0">
            <Node pos="l" depth="3" NCoef="0" IVar="-1" Cut="0.0000000000000000e+00" cType="1" res="-4.0167351253330708e-03" rms="4.1669657826423645e-01" purity="2.6918092370033264e-01" nType="-99"/>
            <Node pos="r" depth="3" NCoef="0" IVar="-1" Cut="0.0000000000000000e+00" cType="1" res="-2.4928936734795570e-02" rms="3.2779085636138916e-01" purity="1.3570572435855865e-01" nType="-99"/>
          </Node>
        </Node>
        <Node pos="r" depth="1" NCoef="0" IVar="2" Cut="1.3333333730697632e+00" cType="1" res="1.9351342320442200e-01" rms="4.0910196304321289e-01" purity="7.6153427362442017e-01" nType="0">
          <Node pos="l" depth="2" NCoef="0" IVar="2" Cut="4.7619048506021500e-02" cType="1" res="2.6598727703094482e-01" rms="3.4201288223266602e-01" purity="8.5987061262130737e-01" nType="0">
            <Node pos="l" depth="3" NCoef="0" IVar="-1" Cut="0.0000000000000000e+00" cType="1" res="1.0019099339842796e-02" rms="2.8911560773849487e-01" purity="9.0551972389221191e-01" nType="-99"/>
            <Node pos="r" depth="3" NCoef="0" IVar="-1" Cut="0.0000000000000000e+00" cType="1" res="7.5246924534440041e-03" rms="3.9586398005485535e-01" purity="7.9736053943634033e-01" nType="-99"/>
          </Node>
          <Node pos="r" depth="2" NCoef="0" IVar="10" Cut="2.9452592849731445e+01" cType="1" res="7.3818825185298920e-02" rms="4.7706124186515808e-01" purity="5.9912651777267456e-01" nType="0">
            <Node pos="l" depth="3" NCoef="0" IVar="-1" Cut="0.0000000000000000e+00" cType="1" res="6.6177980042994022e-03" rms="4.4846740365028381e-01" purity="6.9641596078872681e-01" nType="-99"/>
            <Node pos="r" depth="3" NCoef="0" IVar="-1" Cut="0.0000000000000000e+00" cType="1" res="-9.3547877622768283e-04" rms="4.8699036240577698e-01" purity="5.0230205059051514e-01" nType="-99"/>
          </Node>
        </Node>
      </Node>
    </BinaryTree>
    <BinaryTree type="DecisionTree" boostWeight="1.0000000000000000e+00" itree="21">
      <Node pos="s" depth="0" NCoef="0" IVar="5" Cut="7.1428573131561279e-01" cType="1" res="6.0650054365396500e-02" rms="4.2804855108261108e-01" purity="5.0380831956863403e-01" nType="0">
        <Node pos="l" depth="1" NCoef="0" IVar="9" Cut="6.6084223985671997e-01" cType="1" res="-4.7975264489650726e-02" rms="4.1310176253318787e-01" purity="2.8651118278503418e-01" nType="0">
          <Node pos="l" depth="2" NCoef="0" IVar="3" Cut="1.4022849082946777e+01" cType="1" res="-7.2654210031032562e-02" rms="3.9955702424049377e-01" purity="2.5074535608291626e-01" nType="0">
            <Node pos="l" depth="3" NCoef="0" IVar="-1" Cut="0.0000000000000000e+00" cType="1" res="3.9269137196242809e-03" rms="4.6597373485565186e-01" purity="4.7011181712150574e-01" nType="-99"/>
            <Node pos="r" depth="3" NCoef="0" IVar="-1" Cut="0.0000000000000000e+00" cType="1" res="-1.1406729929149151e-02" rms="3.8177543878555298e-01" purity="2.1291182935237885e-01" nType="-99"/>
          </Node>
          <Node pos="r" depth="2" NCoef="0" IVar="-1" Cut="0.0000000000000000e+00" cType="1" res="6.5190042369067669e-03" rms="4.6232417225837708e-01" purity="5.3974920511245728e-01" nType="-99"/>
        </Node>
        <Node pos="r" depth="1" NCoef="0" IVar="2" Cut="2.1428570747375488e+00" cType="1" res="1.8901345133781433e-01" rms="4.0946534276008606e-01" purity="7.6059007644653320e-01" nType="0">
          <Node pos="l" depth="2" NCoef="0" IVar="4" Cut="9.5554596185684204e-01" cType="1" res="2.3747232556343079e-01" rms="3.7133353948593140e-01" purity="8.2331985235214233e-01" nType="0">
            <Node pos="l" depth="3" NCoef="0" IVar="-1" Cut="0.0000000000000000e+00" cType="1" res="4.5045944862067699e-03" rms="4.5710319280624390e-01" purity="6.5911793708801270e-01" nType="-99"/>
            <Node pos="r" depth="3" NCoef="0" IVar="-1" Cut="0.0000000000000000e+00" cType="1" res="9.1286068782210350e-03" rms="3.3944606781005859e-01" purity="8.6351221799850464e-01" nType="-99"/>
          </Node>
          <Node pos="r" depth="2" NCoef="0" IVar="-1" Cut="0.0000000000000000e+00" cType="1" res="-4.2213412234559655e-04" rms="4.9025291204452515e-01" purity="5.0554412603378296e-01" nType="-99"/>
        </Node>
      </Node>
    </BinaryTree>
    <BinaryTree type="DecisionTree" boostWeight="1.0000000000000000e+00" itree="22">
      <Node pos="s" depth="0" NCoef="0" IVar="5" Cut="8.0952382087707520e-01" cType="1" res="5.5115617811679840e-02" rms="4.2652937769889832e-01" purity="4.9540874361991882e-01" nType="0">
        <Node pos="l" depth="1" NCoef="0" IVar="4" Cut="9.5238095521926880e-01" cType="1" res="-3.8011185824871063e-02" rms="4.1779261827468872e-01" purity="3.1272909045219421e-01" nType="0">
          <Node pos="l" depth="2" NCoef="0" IVar="0" Cut="2.0490161132812500e+03" cType="1" res="-9.9536783993244171e-02" rms="3.6038556694984436e-01" purity="1.8827840685844421e-01" nType="0">
            <Node pos="l" depth="3" NCoef="0" IVar="-1" Cut="0.0000000000000000e+00" cType="1" res="-1.9398417323827744e-02" rms="3.3665844798088074e-01" purity="1.5380348265171051e-01" nType="-99"/>
            <Node pos="r" depth="3" NCoef="0" IVar="-1" Cut="0.0000000000000000e+00" cType="1" res="1.9446819787845016e-03" rms="4.3972909450531006e-01" purity="3.5977107286453247e-01" nType="-99"/>
          </Node>
          <Node pos="r" depth="2" NCoef="0" IVar="10" Cut="2.1551651000976562e+01" cType="1" res="4.2316701263189316e-02" rms="4.7061753273010254e-01" purity="4.7521200776100159e-01" nType="0">
            <Node pos="l" depth="3" NCoef="0" IVar="-1" Cut="0.0000000000000000e+00" cType="1" res="7.2942413389682770e-03" rms="4.6573042869567871e-01" purity="6.1575114727020264e-01" nType="-99"/>
            <Node pos="r" depth="3" NCoef="0" IVar="-1" Cut="0.0000000000000000e+00" cType="1" res="-1.0598452063277364e-03" rms="4.6188256144523621e-01" purity="4.0608036518096924e-01" nType="-99"/>
          </Node>
        </Node>
        <Node pos="r" depth="1" NCoef="0" IVar="2" Cut="2.2857143878936768e+00" cType="1" res="2.0360837876796722e-01" rms="3.9725404977798462e-01" purity="7.8669559955596924e-01" nType="0">
          <Node pos="l" depth="2" NCoef="0" IVar="3" Cut="3.0758178710937500e+01" cType="1" res="2.4386823177337646e-01" rms="3.5990726947784424e-01" purity="8.4032362699508667e-01" nType="0">
            <Node pos="l" depth="3" NCoef="0" IVar="-1" Cut="0.0000000000000000e+00" cType="1" res="9.4452621415257454e-03" rms="3.0929276347160339e-01" purity="8.9061075448989868e-01" nType="-99"/>
            <Node pos="r" depth="3" NCoef="0" IVar="-1" Cut="0.0000000000000000e+00" cType="1" res="6.7467438057065010e-03" rms="4.2044016718864441e-01" purity="7.5993955135345459e-01" nType="-99"/>
          </Node>
          <Node pos="r" depth="2" NCoef="0" IVar="-1" Cut="0.0000000000000000e+00" cType="1" res="1.6242767451331019e-03" rms="4.9135521054267883e-01" purity="5.6041491031646729e-01" nType="-99"/>
        </Node>
      </Node>
    </BinaryTree>
    <BinaryTree type="DecisionTree" boostWeight="1.0000000000000000e+00" itree="23">
      <Node pos="s" depth="0" NCoef="0" IVar="5" Cut="8.0952382087707520e-01" cType="1" res="5.7446591556072235e-02" rms="4.2609128355979919e-01" purity="4.9743446707725525e-01" nType="0">
        <Node pos="l" depth="1" NCoef="0" IVar="5" Cut="3.4693309664726257e-01" cType="1" res="-3.6591701209545135e-02" rms="4.1808626055717468e-01" purity="3.0988433957099915e-01" nType="0">
          <Node pos="l" depth="2" NCoef="0" IVar="7" Cut="-2.4593431949615479e+00" cType="1" res="-9.2138424515724182e-02" rms="3.7928298115730286e-01" purity="2.0853401720523834e-01" nType="0">
            <Node pos="l" depth="3" NCoef="0" IVar="-1" Cut="0.0000000000000000e+00" cType="1" res="-2.9976125806570053e-03" rms="4.1391572356224060e-01" purity="2.7642047405242920e-01" nType="-99"/>
            <Node pos="r" depth="3" NCoef="0" IVar="-1" Cut="0.0000000000000000e+00" cType="1" res="-1.7895273864269257e-02" rms="3.5319730639457703e-01" purity="1.6967816650867462e-01" nType="-99"/>
          </Node>
          <Node pos="r" depth="2" NCoef="0" IVar="2" Cut="1.5238095521926880e+00" cType="1" res="4.3162822723388672e-02" rms="4.5654129981994629e-01" purity="4.5540416240692139e-01" nType="0">
            <Node pos="l" depth="3" NCoef="0" IVar="-1" Cut="0.0000000000000000e+00" cType="1" res="5.9016156010329723e-03" rms="4.6070155501365662e-01" purity="5.9069824218750000e-01" nType="-99"/>
            <Node pos="r" depth="3" NCoef="0" IVar="-1" Cut="0.0000000000000000e+00" cType="1" res="-4.2658550664782524e-03" rms="4.3361929059028625e-01" purity="3.0234166979789734e-01" nType="-99"/>
          </Node>
        </Node>
        <Node pos="r" depth="1" NCoef="0" IVar="2" Cut="1.3333333730697632e+00" cType="1" res="2.0341259241104126e-01" rms="3.9624559879302979e-01" purity="7.8854924440383911e-01" nType="0">
          <Node pos="l" depth="2" NCoef="0" IVar="-1" Cut="0.0000000000000000e+00" cType="1" res="8.8375918567180634e-03" rms="3.3206129074096680e-01" purity="8.7173688411712646e-01" nType="-99"/>
          <Node pos="r" depth="2" NCoef="0" IVar="9" Cut="4.8526200652122498e-01" cType="1" res="1.1173465847969055e-01" rms="4.6828272938728333e-01" purity="6.5354722738265991e-01" nType="0">
            <Node pos="l" depth="3" NCoef="0" IVar="-1" Cut="0.0000000000000000e+00" cType="1" res="1.8065073527395725e-03" rms="4.8878380656242371e-01" purity="5.7050484418869019e-01" nType="-99"/>
            <Node pos="r" depth="3" NCoef="0" IVar="-1" Cut="0.0000000000000000e+00" cType="1" res="6.5114716999232769e-03" rms="4.4459757208824158e-01" purity="7.1526014804840088e-01" nType="-99"/>
          </Node>
        </Node>
      </Node>
    </BinaryTree>
    <BinaryTree type="DecisionTree" boostWeight="1.0000000000000000e+00" itree="24">
      <Node pos="s" depth="0" NCoef="0" IVar="5" Cut="7.6190477609634399e-01" cType="1" res="5.4227910935878754e-02" rms="4.2187327146530151e-01" purity="4.9523967504501343e-01" nType="0">
        <Node pos="l" depth="1" NCoef="0" IVar="2" Cut="1.8095238208770752e+00" cType="1" res="-4.5012682676315308e-02" rms="4.0785413980484009e-01" purity="2.8761687874794006e-01" nType="0">
          <Node pos="l" depth="2" NCoef="0" IVar="0" Cut="1.4454663085937500e+03" cType="1" res="1.8497459590435028e-02" rms="4.4445356726646423e-01" purity="4.0110045671463013e-01" nType="0">
            <Node pos="l" depth="3" NCoef="0" IVar="-1" Cut="0.0000000000000000e+00" cType="1" res="-6.0796560719609261e-03" rms="4.1548669338226318e-01" purity="2.8967675566673279e-01" nType="-99"/>
            <Node pos="r" depth="3" NCoef="0" IVar="-1" Cut="0.0000000000000000e+00" cType="1" res="6.4232591539621353e-03" rms="4.5542925596237183e-01" purity="5.3610163927078247e-01" nType="-99"/>
          </Node>
          <Node pos="r" depth="2" NCoef="0" IVar="10" Cut="3.0704914093017578e+01" cType="1" res="-1.1563152074813843e-01" rms="3.4955322742462158e-01" purity="1.6143104434013367e-01" nType="0">
            <Node pos="l" depth="3" NCoef="0" IVar="-1" Cut="0.0000000000000000e+00" cType="1" res="-9.4403270632028580e-03" rms="3.8395839929580688e-01" purity="2.1301230788230896e-01" nType="-99"/>
            <Node pos="r" depth="3" NCoef="0" IVar="-1" Cut="0.0000000000000000e+00" cType="1" res="-2.8637364506721497e-02" rms="3.1281068921089172e-01" purity="1.1631979048252106e-01" nType="-99"/>
          </Node>
        </Node>
        <Node pos="r" depth="1" NCoef="0" IVar="2" Cut="1.4285714626312256e+00" cType="1" res="1.8717616796493530e-01" rms="4.0334960818290710e-01" purity="7.7338290214538574e-01" nType="0">
          <Node pos="l" depth="2" NCoef="0" IVar="8" Cut="5.2178627252578735e-01" cType="1" res="2.5162190198898315e-01" rms="3.3789578080177307e-01" purity="8.6527431011199951e-01" nType="0">
            <Node pos="l" depth="3" NCoef="0" IVar="-1" Cut="0.0000000000000000e+00" cType="1" res="7.9594105482101440e-03" rms="3.6503875255584717e-01" purity="8.3754909038543701e-01" nType="-99"/>
            <Node pos="r" depth="3" NCoef="0" IVar="-1" Cut="0.0000000000000000e+00" cType="1" res="9.1503355652093887e-03" rms="3.1302458047866821e-01" purity="8.8736230134963989e-01" nType="-99"/>
          </Node>
          <Node pos="r" depth="2" NCoef="0" IVar="10" Cut="3.3036273956298828e+01" cType="1" res="7.3808141052722931e-02" rms="4.7736829519271851e-01" purity="6.1173450946807861e-01" nType="0">
            <Node pos="l" depth="3" NCoef="0" IVar="-1" Cut="0.0000000000000000e+00" cType="1" res="5.6771170347929001e-03" rms="4.5626026391983032e-01" purity="6.8364393711090088e-01" nType="-99"/>
            <Node pos="r" depth="3" NCoef="0" IVar="-1" Cut="0.0000000000000000e+00" cType="1" res="-8.4430939750745893e-04" rms="4.9082085490226746e-01" purity="5.1310473680496216e-01" nType="-99"/>
          </Node>
        </Node>
      </Node>
    </BinaryTree>
    <BinaryTree type="DecisionTree" boostWeight="1.0000000000000000e+00" itree="25">
      <Node pos="s" depth="0" NCoef="0" IVar="5" Cut="8.0952382087707520e-01" cType="1" res="5.4704789072275162e-02" rms="4.2019933462142944e-01" purity="4.9681389331817627e-01" nType="0">
        <Node pos="l" depth="1" NCoef="0" IVar="4" Cut="9.0476191043853760e-01" cType="1" res="-4.1594851762056351e-02" rms="4.1012448072433472e-01" purity="2.9955455660820007e-01" nType="0">
          <Node pos="l" depth="2" NCoef="0" IVar="6" Cut="2.3592255115509033e+00" cType="1" res="-1.2003012001514435e-01" rms="3.2510372996330261e-01" purity="1.3518045842647552e-01" nType="0">
            <Node pos="l" depth="3" NCoef="0" IVar="-1" Cut="0.0000000000000000e+00" cType="1" res="-3.0898753553628922e-02" rms="2.9711157083511353e-01" purity="1.0535109788179398e-01" nType="-99"/>
            <Node pos="r" depth="3" NCoef="0" IVar="-1" Cut="0.0000000000000000e+00" cType="1" res="-1.1365626007318497e-02" rms="3.6032938957214355e-01" purity="1.8125765025615692e-01" nType="-99"/>
          </Node>
          <Node pos="r" depth="2" NCoef="0" IVar="0" Cut="1.4467152099609375e+03" cType="1" res="1.5187761746346951e-02" rms="4.5362702012062073e-01" purity="4.1855192184448242e-01" nType="0">
            <Node pos="l" depth="3" NCoef="0" IVar="-1" Cut="0.0000000000000000e+00" cType="1" res="-4.5622941106557846e-03" rms="4.3652623891830444e-01" purity="3.2525727152824402e-01" nType="-99"/>
            <Node pos="r" depth="3" NCoef="0" IVar="-1" Cut="0.0000000000000000e+00" cType="1" res="5.4575270041823387e-03" rms="4.5846140384674072e-01" purity="5.3567653894424438e-01" nType="-99"/>
          </Node>
        </Node>
        <Node pos="r" depth="1" NCoef="0" IVar="2" Cut="2.6666667461395264e+00" cType="1" res="1.9862835109233856e-01" rms="3.9305993914604187e-01" purity="7.9162561893463135e-01" nType="0">
          <Node pos="l" depth="2" NCoef="0" IVar="3" Cut="2.6136440277099609e+01" cType="1" res="2.3545846343040466e-01" rms="3.5674521327018738e-01" purity="8.4359723329544067e-01" nType="0">
            <Node pos="l" depth="3" NCoef="0" IVar="-1" Cut="0.0000000000000000e+00" cType="1" res="9.3530695885419846e-03" rms="2.9554313421249390e-01" purity="9.0129131078720093e-01" nType="-99"/>
            <Node pos="r" depth="3" NCoef="0" IVar="-1" Cut="0.0000000000000000e+00" cType="1" res="6.9292006082832813e-03" rms="4.0698063373565674e-01" purity="7.8137344121932983e-01" nType="-99"/>
          </Node>
          <Node pos="r" depth="2" NCoef="0" IVar="-1" Cut="0.0000000000000000e+00" cType="1" res="2.3768679238855839e-03" rms="4.8620635271072388e-01" purity="5.8334475755691528e-01" nType="-99"/>
        </Node>
      </Node>
    </BinaryTree>
    <BinaryTree type="DecisionTree" boostWeight="1.0000000000000000e+00" itree="26">
      <Node pos="s" depth="0" NCoef="0" IVar="5" Cut="8.5714286565780640e-01" cType="1" res="6.1871033161878586e-02" rms="4.2114689946174622e-01" purity="5.0134545564651489e-01" nType="0">
        <Node pos="l" depth="1" NCoef="0" IVar="9" Cut="5.7435494661331177e-01" cType="1" res="-1.3904643245041370e-02" rms="4.2045894265174866e-01" purity="3.4204903244972229e-01" nType="0">
          <Node pos="l" depth="2" NCoef="0" IVar="4" Cut="8.5714286565780640e-01" cType="1" res="-5.6406386196613312e-02" rms="4.0055003762245178e-01" purity="2.7701216936111450e-01" nType="0">
            <Node pos="l" depth="3" NCoef="0" IVar="-1" Cut="0.0000000000000000e+00" cType="1" res="-3.2151427119970322e-02" rms="2.8902938961982727e-01" purity="9.7583383321762085e-02" nType="-99"/>
            <Node pos="r" depth="3" NCoef="0" IVar="-1" Cut="0.0000000000000000e+00" cType="1" res="-1.1822875821962953e-03" rms="4.3901324272155762e-01" purity="3.6405736207962036e-01" nType="-99"/>
          </Node>
          <Node pos="r" depth="2" NCoef="0" IVar="5" Cut="2.4482850730419159e-01" cType="1" res="8.6663290858268738e-02" rms="4.4841289520263672e-01" purity="4.9593976140022278e-01" nType="0">
            <Node pos="l" depth="3" NCoef="0" IVar="-1" Cut="0.0000000000000000e+00" cType="1" res="-2.4594869464635849e-03" rms="4.3316861987113953e-01" purity="3.0808237195014954e-01" nType="-99"/>
            <Node pos="r" depth="3" NCoef="0" IVar="-1" Cut="0.0000000000000000e+00" cType="1" res="7.4554141610860825e-03" rms="4.4215026497840881e-01" purity="6.1935341358184814e-01" nType="-99"/>
          </Node>
        </Node>
        <Node pos="r" depth="1" NCoef="0" IVar="10" Cut="2.7027397155761719e+01" cType="1" res="2.0727248489856720e-01" rms="3.8251298666000366e-01" purity="8.0700999498367310e-01" nType="0">
          <Node pos="l" depth="2" NCoef="0" IVar="-1" Cut="0.0000000000000000e+00" cType="1" res="9.1106481850147247e-03" rms="3.1996616721153259e-01" purity="8.7849527597427368e-01" nType="-99"/>
          <Node pos="r" depth="2" NCoef="0" IVar="-1" Cut="0.0000000000000000e+00" cType="1" res="5.0281016156077385e-03" rms="4.3977850675582886e-01" purity="7.1073991060256958e-01" nType="-99"/>
        </Node>
      </Node>
    </BinaryTree>
    <BinaryTree type="DecisionTree" boostWeight="1.0000000000000000e+00" itree="27">
      <Node pos="s" depth="0" NCoef="0" IVar="5" Cut="5.7142859697341919e-01" cType="1" res="5.6952923536300659e-02" rms="4.1796800494194031e-01" purity="4.9689346551895142e-01" nType="0">
        <Node pos="l" depth="1" NCoef="0" IVar="9" Cut="6.6060531139373779e-01" cType="1" res="-5.2562724798917770e-02" rms="3.9265531301498413e-01" purity="2.4822524189949036e-01" nType="0">
          <Node pos="l" depth="2" NCoef="0" IVar="8" Cut="5.5747264623641968e-01" cType="1" res="-7.5817219913005829e-02" rms="3.7664547562599182e-01" purity="2.1136212348937988e-01" nType="0">
            <Node pos="l" depth="3" NCoef="0" IVar="-1" Cut="0.0000000000000000e+00" cType="1" res="-1.7083728685975075e-02" rms="3.4420585632324219e-01" purity="1.6211260855197906e-01" nType="-99"/>
            <Node pos="r" depth="3" NCoef="0" IVar="-1" Cut="0.0000000000000000e+00" cType="1" res="-1.2361350236460567e-03" rms="4.1719952225685120e-01" purity="2.9238843917846680e-01" nType="-99"/>
          </Node>
          <Node pos="r" depth="2" NCoef="0" IVar="-1" Cut="0.0000000000000000e+00" cType="1" res="6.2119262292981148e-03" rms="4.5922037959098816e-01" purity="5.1322019100189209e-01" nType="-99"/>
        </Node>
        <Node pos="r" depth="1" NCoef="0" IVar="2" Cut="1.3333333730697632e+00" cType="1" res="1.5641179680824280e-01" rms="4.1538861393928528e-01" purity="7.2272664308547974e-01" nType="0">
          <Node pos="l" depth="2" NCoef="0" IVar="0" Cut="1.2884416503906250e+03" cType="1" res="2.2908279299736023e-01" rms="3.5753980278968811e-01" purity="8.3326655626296997e-01" nType="0">
            <Node pos="l" depth="3" NCoef="0" IVar="-1" Cut="0.0000000000000000e+00" cType="1" res="6.2804291956126690e-03" rms="4.0649831295013428e-01" purity="7.6211631298065186e-01" nType="-99"/>
            <Node pos="r" depth="3" NCoef="0" IVar="-1" Cut="0.0000000000000000e+00" cType="1" res="9.2500029131770134e-03" rms="3.1555783748626709e-01" purity="8.7826383113861084e-01" nType="-99"/>
          </Node>
          <Node pos="r" depth="2" NCoef="0" IVar="4" Cut="9.5238095521926880e-01" cType="1" res="3.1362686306238174e-02" rms="4.7409194707870483e-01" purity="5.3251421451568604e-01" nType="0">
            <Node pos="l" depth="3" NCoef="0" IVar="-1" Cut="0.0000000000000000e+00" cType="1" res="-1.0628073476254940e-02" rms="4.3940237164497375e-01" purity="2.9410582780838013e-01" nType="-99"/>
            <Node pos="r" depth="3" NCoef="0" IVar="-1" Cut="0.0000000000000000e+00" cType="1" res="4.2943912558257580e-03" rms="4.7273433208465576e-01" purity="6.3480156660079956e-01" nType="-99"/>
          </Node>
        </Node>
      </Node>
    </BinaryTree>
    <BinaryTree type="DecisionTree" boostWeight="1.0000000000000000e+00" itree="28">
      <Node pos="s" depth="0" NCoef="0" IVar="5" Cut="6.1904764175415039e-01" cType="1" res="6.3960291445255280e-02" rms="4.1862100362777710e-01" purity="5.0264531373977661e-01" nType="0">
        <Node pos="l" depth="1" NCoef="0" IVar="0" Cut="1.8131490478515625e+03" cType="1" res="-3.4286815673112869e-02" rms="4.0307068824768066e-01" purity="2.6685449481010437e-01" nType="0">
          <Node pos="l" depth="2" NCoef="0" IVar="6" Cut="8.0162894725799561e-01" cType="1" res="-6.8587668240070343e-02" rms="3.8200187683105469e-01" purity="2.1706779301166534e-01" nType="0">
            <Node pos="l" depth="3" NCoef="0" IVar="-1" Cut="0.0000000000000000e+00" cType="1" res="-3.2385028898715973e-02" rms="2.9227352142333984e-01" purity="1.0633784532546997e-01" nType="-99"/>
            <Node pos="r" depth="3" NCoef="0" IVar="-1" Cut="0.0000000000000000e+00" cType="1" res="-5.5425078608095646e-03" rms="3.9468902349472046e-01" purity="2.3902976512908936e-01" nType="-99"/>
          </Node>
          <Node pos="r" depth="2" NCoef="0" IVar="2" Cut="1.4285714626312256e+00" cType="1" res="7.1077950298786163e-02" rms="4.4559970498085022e-01" purity="4.1978836059570312e-01" nType="0">
            <Node pos="l" depth="3" NCoef="0" IVar="-1" Cut="0.0000000000000000e+00" cType="1" res="7.6204733923077583e-03" rms="4.5651423931121826e-01" purity="5.5347716808319092e-01" nType="-99"/>
            <Node pos="r" depth="3" NCoef="0" IVar="-1" Cut="0.0000000000000000e+00" cType="1" res="-3.6021659616380930e-03" rms="4.0845900774002075e-01" purity="2.4613822996616364e-01" nType="-99"/>
          </Node>
        </Node>
        <Node pos="r" depth="1" NCoef="0" IVar="2" Cut="2.1428570747375488e+00" cType="1" res="1.6171959042549133e-01" rms="4.1084817051887512e-01" purity="7.3726540803909302e-01" nType="0">
          <Node pos="l" depth="2" NCoef="0" IVar="2" Cut="9.5238097012042999e-02" cType="1" res="2.0684631168842316e-01" rms="3.7981107831001282e-01" purity="8.0133610963821411e-01" nType="0">
            <Node pos="l" depth="3" NCoef="0" IVar="-1" Cut="0.0000000000000000e+00" cType="1" res="9.3013430014252663e-03" rms="2.9849919676780701e-01" purity="8.9434880018234253e-01" nType="-99"/>
            <Node pos="r" depth="3" NCoef="0" IVar="-1" Cut="0.0000000000000000e+00" cType="1" res="6.0006794519722462e-03" rms="4.2719107866287231e-01" purity="7.2479373216629028e-01" nType="-99"/>
          </Node>
          <Node pos="r" depth="2" NCoef="0" IVar="-1" Cut="0.0000000000000000e+00" cType="1" res="-1.1764729861170053e-03" rms="4.7596535086631775e-01" purity="4.7766631841659546e-01" nType="-99"/>
        </Node>
      </Node>
    </BinaryTree>
    <BinaryTree type="DecisionTree" boostWeight="1.0000000000000000e+00" itree="29">
      <Node pos="s" depth="0" NCoef="0" IVar="5" Cut="8.5714286565780640e-01" cType="1" res="6.2767267227172852e-02" rms="4.1695690155029297e-01" purity="5.0306457281112671e-01" nType="0">
        <Node pos="l" depth="1" NCoef="0" IVar="2" Cut="1.8095238208770752e+00" cType="1" res="-9.8956851288676262e-03" rms="4.1700145602226257e-01" purity="3.4176456928253174e-01" nType="0">
          <Node pos="l" depth="2" NCoef="0" IVar="0" Cut="1.3789683837890625e+03" cType="1" res="5.3311735391616821e-02" rms="4.4167360663414001e-01" purity="4.5927572250366211e-01" nType="0">
            <Node pos="l" depth="3" NCoef="0" IVar="-1" Cut="0.0000000000000000e+00" cType="1" res="-2.8047955129295588e-03" rms="4.2277216911315918e-01" purity="3.3954566717147827e-01" nType="-99"/>
            <Node pos="r" depth="3" NCoef="0" IVar="-1" Cut="0.0000000000000000e+00" cType="1" res="6.9058258086442947e-03" rms="4.4253346323966980e-01" purity="5.7637000083923340e-01" nType="-99"/>
          </Node>
          <Node pos="r" depth="2" NCoef="0" IVar="1" Cut="1.1968799829483032e+00" cType="1" res="-8.2755453884601593e-02" rms="3.7357172369956970e-01" purity="2.0630840957164764e-01" nType="0">
            <Node pos="l" depth="3" NCoef="0" IVar="-1" Cut="0.0000000000000000e+00" cType="1" res="-2.6100112590938807e-03" rms="4.0761452913284302e-01" purity="2.8327175974845886e-01" nType="-99"/>
            <Node pos="r" depth="3" NCoef="0" IVar="-1" Cut="0.0000000000000000e+00" cType="1" res="-1.8824215978384018e-02" rms="3.4410431981086731e-01" purity="1.5494237840175629e-01" nType="-99"/>
          </Node>
        </Node>
        <Node pos="r" depth="1" NCoef="0" IVar="2" Cut="2.2857143878936768e+00" cType="1" res="2.0028886198997498e-01" rms="3.8062822818756104e-01" purity="8.0834031105041504e-01" nType="0">
          <Node pos="l" depth="2" NCoef="0" IVar="9" Cut="4.8794853687286377e-01" cType="1" res="2.3588387668132782e-01" rms="3.4183934330940247e-01" purity="8.5946238040924072e-01" nType="0">
            <Node pos="l" depth="3" NCoef="0" IVar="-1" Cut="0.0000000000000000e+00" cType="1" res="7.0046135224401951e-03" rms="3.8614007830619812e-01" purity="8.0976796150207520e-01" nType="-99"/>
            <Node pos="r" depth="3" NCoef="0" IVar="-1" Cut="0.0000000000000000e+00" cType="1" res="9.0177906677126884e-03" rms="3.0534097552299500e-01" purity="8.9230889081954956e-01" nType="-99"/>
          </Node>
          <Node pos="r" depth="2" NCoef="0" IVar="-1" Cut="0.0000000000000000e+00" cType="1" res="2.2192737087607384e-03" rms="4.8597955703735352e-01" purity="5.8957302570343018e-01" nType="-99"/>
        </Node>
      </Node>
    </BinaryTree>
    <BinaryTree type="DecisionTree" boostWeight="1.0000000000000000e+00" itree="30">
      <Node pos="s" depth="0" NCoef="0" IVar="5" Cut="8.0952382087707520e-01" cType="1" res="6.1153393238782883e-02" rms="4.1691756248474121e-01" purity="4.9956881999969482e-01" nType="0">
        <Node pos="l" depth="1" NCoef="0" IVar="9" Cut="6.6084223985671997e-01" cType="1" res="-1.6790674999356270e-02" rms="4.1307687759399414e-01" purity="3.1279677152633667e-01" nType="0">
          <Node pos="l" depth="2" NCoef="0" IVar="8" Cut="4.3148118257522583e-01" cType="1" res="-4.1709888726472855e-02" rms="4.0067198872566223e-01" purity="2.7390906214714050e-01" nType="0">
            <Node pos="l" depth="3" NCoef="0" IVar="-1" Cut="0.0000000000000000e+00" cType="1" res="-1.7489528283476830e-02" rms="3.4060382843017578e-01" purity="1.6819325089454651e-01" nType="-99"/>
            <Node pos="r" depth="3" NCoef="0" IVar="-1" Cut="0.0000000000000000e+00" cType="1" res="-2.1084710897412151e-04" rms="4.2149791121482849e-01" purity="3.2566195726394653e-01" nType="-99"/>
          </Node>
          <Node pos="r" depth="2" NCoef="0" IVar="-1" Cut="0.0000000000000000e+00" cType="1" res="7.3987320065498352e-03" rms="4.5404309034347534e-01" purity="5.7090598344802856e-01" nType="-99"/>
        </Node>
        <Node pos="r" depth="1" NCoef="0" IVar="2" Cut="1.3333333730697632e+00" cType="1" res="1.8173453211784363e-01" rms="3.9346328377723694e-01" purity="7.8850913047790527e-01" nType="0">
          <Node pos="l" depth="2" NCoef="0" IVar="-1" Cut="0.0000000000000000e+00" cType="1" res="8.2037365064024925e-03" rms="3.2997536659240723e-01" purity="8.7300187349319458e-01" nType="-99"/>
          <Node pos="r" depth="2" NCoef="0" IVar="6" Cut="2.0149207115173340e+00" cType="1" res="9.2185243964195251e-02" rms="4.6872934699058533e-01" purity="6.4565241336822510e-01" nType="0">
            <Node pos="l" depth="3" NCoef="0" IVar="-1" Cut="0.0000000000000000e+00" cType="1" res="6.4883311279118061e-04" rms="4.8549270629882812e-01" purity="5.6518208980560303e-01" nType="-99"/>
            <Node pos="r" depth="3" NCoef="0" IVar="-1" Cut="0.0000000000000000e+00" cType="1" res="6.1269891448318958e-03" rms="4.4514694809913635e-01" purity="7.0956802368164062e-01" nType="-99"/>
          </Node>
        </Node>
      </Node>
    </BinaryTree>
    <BinaryTree type="DecisionTree" boostWeight="1.0000000000000000e+00" itree="31">
      <Node pos="s" depth="0" NCoef="0" IVar="5" Cut="8.0952382087707520e-01" cType="1" res="6.1943776905536652e-02" rms="4.1506421566009521e-01" purity="5.0222647190093994e-01" nType="0">
        <Node pos="l" depth="1" NCoef="0" IVar="9" Cut="6.5873324871063232e-01" cType="1" res="-1.5743512660264969e-02" rms="4.1179120540618896e-01" purity="3.1419378519058228e-01" nType="0">
          <Node pos="l" depth="2" NCoef="0" IVar="4" Cut="9.5238095521926880e-01" cType="1" res="-4.0714725852012634e-02" rms="4.0034529566764832e-01" purity="2.7309978008270264e-01" nType="0">
            <Node pos="l" depth="3" NCoef="0" IVar="-1" Cut="0.0000000000000000e+00" cType="1" res="-1.4197238720953465e-02" rms="3.3970740437507629e-01" purity="1.5698345005512238e-01" nType="-99"/>
            <Node pos="r" depth="3" NCoef="0" IVar="-1" Cut="0.0000000000000000e+00" cType="1" res="1.3084808597341180e-03" rms="4.6322426199913025e-01" purity="4.3062460422515869e-01" nType="-99"/>
          </Node>
          <Node pos="r" depth="2" NCoef="0" IVar="-1" Cut="0.0000000000000000e+00" cType="1" res="6.9972896017134190e-03" rms="4.4664508104324341e-01" purity="5.7490342855453491e-01" nType="-99"/>
        </Node>
        <Node pos="r" depth="1" NCoef="0" IVar="2" Cut="1.4285714626312256e+00" cType="1" res="1.8172542750835419e-01" rms="3.9089366793632507e-01" purity="7.9214346408843994e-01" nType="0">
          <Node pos="l" depth="2" NCoef="0" IVar="-1" Cut="0.0000000000000000e+00" cType="1" res="8.1275291740894318e-03" rms="3.2909360527992249e-01" purity="8.7384343147277832e-01" nType="-99"/>
          <Node pos="r" depth="2" NCoef="0" IVar="9" Cut="4.8206266760826111e-01" cType="1" res="9.5983393490314484e-02" rms="4.6651664376258850e-01" purity="6.5173429250717163e-01" nType="0">
            <Node pos="l" depth="3" NCoef="0" IVar="-1" Cut="0.0000000000000000e+00" cType="1" res="1.1895217467099428e-03" rms="4.8574820160865784e-01" purity="5.6988805532455444e-01" nType="-99"/>
            <Node pos="r" depth="3" NCoef="0" IVar="-1" Cut="0.0000000000000000e+00" cType="1" res="5.8273398317396641e-03" rms="4.4543725252151489e-01" purity="7.1003687381744385e-01" nType="-99"/>
          </Node>
        </Node>
      </Node>
    </BinaryTree>
    <BinaryTree type="DecisionTree" boostWeight="1.0000000000000000e+00" itree="32">
      <Node pos="s" depth="0" NCoef="0" IVar="5" Cut="8.5714286565780640e-01" cType="1" res="6.4379952847957611e-02" rms="4.1586613655090332e-01" purity="5.0303691625595093e-01" nType="0">
        <Node pos="l" depth="1" NCoef="0" IVar="2" Cut="2.7142856121063232e+00" cType="1" res="-3.6669177934527397e-03" rms="4.1842335462570190e-01" purity="3.4082579612731934e-01" nType="0">
          <Node pos="l" depth="2" NCoef="0" IVar="0" Cut="1.3167215576171875e+03" cType="1" res="3.2412387430667877e-02" rms="4.3507257103919983e-01" purity="4.0404871106147766e-01" nType="0">
            <Node pos="l" depth="3" NCoef="0" IVar="-1" Cut="0.0000000000000000e+00" cType="1" res="-3.8112096954137087e-03" rms="4.1491016745567322e-01" purity="2.9742816090583801e-01" nType="-99"/>
            <Node pos="r" depth="3" NCoef="0" IVar="-1" Cut="0.0000000000000000e+00" cType="1" res="5.6624696590006351e-03" rms="4.4190344214439392e-01" purity="5.0016695261001587e-01" nType="-99"/>
          </Node>
          <Node pos="r" depth="2" NCoef="0" IVar="7" Cut="-1.8988953828811646e+00" cType="1" res="-1.0329754650592804e-01" rms="3.4973877668380737e-01" purity="1.6623987257480621e-01" nType="0">
            <Node pos="l" depth="3" NCoef="0" IVar="-1" Cut="0.0000000000000000e+00" cType="1" res="-9.8830927163362503e-03" rms="3.7633982300758362e-01" purity="1.9969066977500916e-01" nType="-99"/>
            <Node pos="r" depth="3" NCoef="0" IVar="-1" Cut="0.0000000000000000e+00" cType="1" res="-2.4163955822587013e-02" rms="3.1408417224884033e-01" purity="1.2870877981185913e-01" nType="-99"/>
          </Node>
        </Node>
        <Node pos="r" depth="1" NCoef="0" IVar="2" Cut="2.2857143878936768e+00" cType="1" res="1.9363956153392792e-01" rms="3.7866634130477905e-01" purity="8.1116783618927002e-01" nType="0">
          <Node pos="l" depth="2" NCoef="0" IVar="0" Cut="1.2900238037109375e+03" cType="1" res="2.2322887182235718e-01" rms="3.4318846464157104e-01" purity="8.5821676254272461e-01" nType="0">
            <Node pos="l" depth="3" NCoef="0" IVar="-1" Cut="0.0000000000000000e+00" cType="1" res="6.3924230635166168e-03" rms="3.9278596639633179e-01" purity="8.0079448223114014e-01" nType="-99"/>
            <Node pos="r" depth="3" NCoef="0" IVar="-1" Cut="0.0000000000000000e+00" cType="1" res="8.8833393529057503e-03" rms="2.9882150888442993e-01" purity="8.9776688814163208e-01" nType="-99"/>
          </Node>
          <Node pos="r" depth="2" NCoef="0" IVar="-1" Cut="0.0000000000000000e+00" cType="1" res="3.2581426203250885e-03" rms="4.7895222902297974e-01" purity="6.2010264396667480e-01" nType="-99"/>
        </Node>
      </Node>
    </BinaryTree>
    <BinaryTree type="DecisionTree" boostWeight="1.0000000000000000e+00" itree="33">
      <Node pos="s" depth="0" NCoef="0" IVar="5" Cut="8.0952382087707520e-01" cType="1" res="5.0526253879070282e-02" rms="4.1230300068855286e-01" purity="4.8715466260910034e-01" nType="0">
        <Node pos="l" depth="1" NCoef="0" IVar="3" Cut="1.5058996200561523e+01" cType="1" res="-2.3230751976370811e-02" rms="4.0592095255851746e-01" purity="3.0030396580696106e-01" nType="0">
          <Node pos="l" depth="2" NCoef="0" IVar="-1" Cut="0.0000000000000000e+00" cType="1" res="5.2580325864255428e-03" rms="4.4304394721984863e-01" purity="5.1927751302719116e-01" nType="-99"/>
          <Node pos="r" depth="2" NCoef="0" IVar="4" Cut="7.6190477609634399e-01" cType="1" res="-4.7389056533575058e-02" rms="3.9366179704666138e-01" purity="2.5654488801956177e-01" nType="0">
